tree
version=v4
num_class=1
num_tree_per_iteration=1
label_index=0
max_feature_idx=2567
objective=binary sigmoid:1
feature_names=Column_0 Column_1 Column_2 Column_3 Column_4 Column_5 Column_6 Column_7 Column_8 Column_9 Column_10 Column_11 Column_12 Column_13 Column_14 Column_15 Column_16 Column_17 Column_18 Column_19 Column_20 Column_21 Column_22 Column_23 Column_24 Column_25 Column_26 Column_27 Column_28 Column_29 Column_30 Column_31 Column_32 Column_33 Column_34 Column_35 Column_36 Column_37 Column_38 Column_39 Column_40 Column_41 Column_42 Column_43 Column_44 Column_45 Column_46 Column_47 Column_48 Column_49 Column_50 Column_51 Column_52 Column_53 Column_54 Column_55 Column_56 Column_57 Column_58 Column_59 Column_60 Column_61 Column_62 Column_63 Column_64 Column_65 Column_66 Column_67 Column_68 Column_69 Column_70 Column_71 Column_72 Column_73 Column_74 Column_75 Column_76 Column_77 Column_78 Column_79 Column_80 Column_81 Column_82 Column_83 Column_84 Column_85 Column_86 Column_87 Column_88 Column_89 Column_90 Column_91 Column_92 Column_93 Column_94 Column_95 Column_96 Column_97 Column_98 Column_99 Column_100 Column_101 Column_102 Column_103 Column_104 Column_105 Column_106 Column_107 Column_108 Column_109 Column_110 Column_111 Column_112 Column_113 Column_114 Column_115 Column_116 Column_117 Column_118 Column_119 Column_120 Column_121 Column_122 Column_123 Column_124 Column_125 Column_126 Column_127 Column_128 Column_129 Column_130 Column_131 Column_132 Column_133 Column_134 Column_135 Column_136 Column_137 Column_138 Column_139 Column_140 Column_141 Column_142 Column_143 Column_144 Column_145 Column_146 Column_147 Column_148 Column_149 Column_150 Column_151 Column_152 Column_153 Column_154 Column_155 Column_156 Column_157 Column_158 Column_159 Column_160 Column_161 Column_162 Column_163 Column_164 Column_165 Column_166 Column_167 Column_168 Column_169 Column_170 Column_171 Column_172 Column_173 Column_174 Column_175 Column_176 Column_177 Column_178 Column_179 Column_180 Column_181 Column_182 Column_183 Column_184 Column_185 Column_186 Column_187 Column_188 Column_189 Column_190 Column_191 Column_192 Column_193 Column_194 Column_195 Column_196 Column_197 Column_198 Column_199 Column_200 Column_201 Column_202 Column_203 Column_204 Column_205 Column_206 Column_207 Column_208 Column_209 Column_210 Column_211 Column_212 Column_213 Column_214 Column_215 Column_216 Column_217 Column_218 Column_219 Column_220 Column_221 Column_222 Column_223 Column_224 Column_225 Column_226 Column_227 Column_228 Column_229 Column_230 Column_231 Column_232 Column_233 Column_234 Column_235 Column_236 Column_237 Column_238 Column_239 Column_240 Column_241 Column_242 Column_243 Column_244 Column_245 Column_246 Column_247 Column_248 Column_249 Column_250 Column_251 Column_252 Column_253 Column_254 Column_255 Column_256 Column_257 Column_258 Column_259 Column_260 Column_261 Column_262 Column_263 Column_264 Column_265 Column_266 Column_267 Column_268 Column_269 Column_270 Column_271 Column_272 Column_273 Column_274 Column_275 Column_276 Column_277 Column_278 Column_279 Column_280 Column_281 Column_282 Column_283 Column_284 Column_285 Column_286 Column_287 Column_288 Column_289 Column_290 Column_291 Column_292 Column_293 Column_294 Column_295 Column_296 Column_297 Column_298 Column_299 Column_300 Column_301 Column_302 Column_303 Column_304 Column_305 Column_306 Column_307 Column_308 Column_309 Column_310 Column_311 Column_312 Column_313 Column_314 Column_315 Column_316 Column_317 Column_318 Column_319 Column_320 Column_321 Column_322 Column_323 Column_324 Column_325 Column_326 Column_327 Column_328 Column_329 Column_330 Column_331 Column_332 Column_333 Column_334 Column_335 Column_336 Column_337 Column_338 Column_339 Column_340 Column_341 Column_342 Column_343 Column_344 Column_345 Column_346 Column_347 Column_348 Column_349 Column_350 Column_351 Column_352 Column_353 Column_354 Column_355 Column_356 Column_357 Column_358 Column_359 Column_360 Column_361 Column_362 Column_363 Column_364 Column_365 Column_366 Column_367 Column_368 Column_369 Column_370 Column_371 Column_372 Column_373 Column_374 Column_375 Column_376 Column_377 Column_378 Column_379 Column_380 Column_381 Column_382 Column_383 Column_384 Column_385 Column_386 Column_387 Column_388 Column_389 Column_390 Column_391 Column_392 Column_393 Column_394 Column_395 Column_396 Column_397 Column_398 Column_399 Column_400 Column_401 Column_402 Column_403 Column_404 Column_405 Column_406 Column_407 Column_408 Column_409 Column_410 Column_411 Column_412 Column_413 Column_414 Column_415 Column_416 Column_417 Column_418 Column_419 Column_420 Column_421 Column_422 Column_423 Column_424 Column_425 Column_426 Column_427 Column_428 Column_429 Column_430 Column_431 Column_432 Column_433 Column_434 Column_435 Column_436 Column_437 Column_438 Column_439 Column_440 Column_441 Column_442 Column_443 Column_444 Column_445 Column_446 Column_447 Column_448 Column_449 Column_450 Column_451 Column_452 Column_453 Column_454 Column_455 Column_456 Column_457 Column_458 Column_459 Column_460 Column_461 Column_462 Column_463 Column_464 Column_465 Column_466 Column_467 Column_468 Column_469 Column_470 Column_471 Column_472 Column_473 Column_474 Column_475 Column_476 Column_477 Column_478 Column_479 Column_480 Column_481 Column_482 Column_483 Column_484 Column_485 Column_486 Column_487 Column_488 Column_489 Column_490 Column_491 Column_492 Column_493 Column_494 Column_495 Column_496 Column_497 Column_498 Column_499 Column_500 Column_501 Column_502 Column_503 Column_504 Column_505 Column_506 Column_507 Column_508 Column_509 Column_510 Column_511 Column_512 Column_513 Column_514 Column_515 Column_516 Column_517 Column_518 Column_519 Column_520 Column_521 Column_522 Column_523 Column_524 Column_525 Column_526 Column_527 Column_528 Column_529 Column_530 Column_531 Column_532 Column_533 Column_534 Column_535 Column_536 Column_537 Column_538 Column_539 Column_540 Column_541 Column_542 Column_543 Column_544 Column_545 Column_546 Column_547 Column_548 Column_549 Column_550 Column_551 Column_552 Column_553 Column_554 Column_555 Column_556 Column_557 Column_558 Column_559 Column_560 Column_561 Column_562 Column_563 Column_564 Column_565 Column_566 Column_567 Column_568 Column_569 Column_570 Column_571 Column_572 Column_573 Column_574 Column_575 Column_576 Column_577 Column_578 Column_579 Column_580 Column_581 Column_582 Column_583 Column_584 Column_585 Column_586 Column_587 Column_588 Column_589 Column_590 Column_591 Column_592 Column_593 Column_594 Column_595 Column_596 Column_597 Column_598 Column_599 Column_600 Column_601 Column_602 Column_603 Column_604 Column_605 Column_606 Column_607 Column_608 Column_609 Column_610 Column_611 Column_612 Column_613 Column_614 Column_615 Column_616 Column_617 Column_618 Column_619 Column_620 Column_621 Column_622 Column_623 Column_624 Column_625 Column_626 Column_627 Column_628 Column_629 Column_630 Column_631 Column_632 Column_633 Column_634 Column_635 Column_636 Column_637 Column_638 Column_639 Column_640 Column_641 Column_642 Column_643 Column_644 Column_645 Column_646 Column_647 Column_648 Column_649 Column_650 Column_651 Column_652 Column_653 Column_654 Column_655 Column_656 Column_657 Column_658 Column_659 Column_660 Column_661 Column_662 Column_663 Column_664 Column_665 Column_666 Column_667 Column_668 Column_669 Column_670 Column_671 Column_672 Column_673 Column_674 Column_675 Column_676 Column_677 Column_678 Column_679 Column_680 Column_681 Column_682 Column_683 Column_684 Column_685 Column_686 Column_687 Column_688 Column_689 Column_690 Column_691 Column_692 Column_693 Column_694 Column_695 Column_696 Column_697 Column_698 Column_699 Column_700 Column_701 Column_702 Column_703 Column_704 Column_705 Column_706 Column_707 Column_708 Column_709 Column_710 Column_711 Column_712 Column_713 Column_714 Column_715 Column_716 Column_717 Column_718 Column_719 Column_720 Column_721 Column_722 Column_723 Column_724 Column_725 Column_726 Column_727 Column_728 Column_729 Column_730 Column_731 Column_732 Column_733 Column_734 Column_735 Column_736 Column_737 Column_738 Column_739 Column_740 Column_741 Column_742 Column_743 Column_744 Column_745 Column_746 Column_747 Column_748 Column_749 Column_750 Column_751 Column_752 Column_753 Column_754 Column_755 Column_756 Column_757 Column_758 Column_759 Column_760 Column_761 Column_762 Column_763 Column_764 Column_765 Column_766 Column_767 Column_768 Column_769 Column_770 Column_771 Column_772 Column_773 Column_774 Column_775 Column_776 Column_777 Column_778 Column_779 Column_780 Column_781 Column_782 Column_783 Column_784 Column_785 Column_786 Column_787 Column_788 Column_789 Column_790 Column_791 Column_792 Column_793 Column_794 Column_795 Column_796 Column_797 Column_798 Column_799 Column_800 Column_801 Column_802 Column_803 Column_804 Column_805 Column_806 Column_807 Column_808 Column_809 Column_810 Column_811 Column_812 Column_813 Column_814 Column_815 Column_816 Column_817 Column_818 Column_819 Column_820 Column_821 Column_822 Column_823 Column_824 Column_825 Column_826 Column_827 Column_828 Column_829 Column_830 Column_831 Column_832 Column_833 Column_834 Column_835 Column_836 Column_837 Column_838 Column_839 Column_840 Column_841 Column_842 Column_843 Column_844 Column_845 Column_846 Column_847 Column_848 Column_849 Column_850 Column_851 Column_852 Column_853 Column_854 Column_855 Column_856 Column_857 Column_858 Column_859 Column_860 Column_861 Column_862 Column_863 Column_864 Column_865 Column_866 Column_867 Column_868 Column_869 Column_870 Column_871 Column_872 Column_873 Column_874 Column_875 Column_876 Column_877 Column_878 Column_879 Column_880 Column_881 Column_882 Column_883 Column_884 Column_885 Column_886 Column_887 Column_888 Column_889 Column_890 Column_891 Column_892 Column_893 Column_894 Column_895 Column_896 Column_897 Column_898 Column_899 Column_900 Column_901 Column_902 Column_903 Column_904 Column_905 Column_906 Column_907 Column_908 Column_909 Column_910 Column_911 Column_912 Column_913 Column_914 Column_915 Column_916 Column_917 Column_918 Column_919 Column_920 Column_921 Column_922 Column_923 Column_924 Column_925 Column_926 Column_927 Column_928 Column_929 Column_930 Column_931 Column_932 Column_933 Column_934 Column_935 Column_936 Column_937 Column_938 Column_939 Column_940 Column_941 Column_942 Column_943 Column_944 Column_945 Column_946 Column_947 Column_948 Column_949 Column_950 Column_951 Column_952 Column_953 Column_954 Column_955 Column_956 Column_957 Column_958 Column_959 Column_960 Column_961 Column_962 Column_963 Column_964 Column_965 Column_966 Column_967 Column_968 Column_969 Column_970 Column_971 Column_972 Column_973 Column_974 Column_975 Column_976 Column_977 Column_978 Column_979 Column_980 Column_981 Column_982 Column_983 Column_984 Column_985 Column_986 Column_987 Column_988 Column_989 Column_990 Column_991 Column_992 Column_993 Column_994 Column_995 Column_996 Column_997 Column_998 Column_999 Column_1000 Column_1001 Column_1002 Column_1003 Column_1004 Column_1005 Column_1006 Column_1007 Column_1008 Column_1009 Column_1010 Column_1011 Column_1012 Column_1013 Column_1014 Column_1015 Column_1016 Column_1017 Column_1018 Column_1019 Column_1020 Column_1021 Column_1022 Column_1023 Column_1024 Column_1025 Column_1026 Column_1027 Column_1028 Column_1029 Column_1030 Column_1031 Column_1032 Column_1033 Column_1034 Column_1035 Column_1036 Column_1037 Column_1038 Column_1039 Column_1040 Column_1041 Column_1042 Column_1043 Column_1044 Column_1045 Column_1046 Column_1047 Column_1048 Column_1049 Column_1050 Column_1051 Column_1052 Column_1053 Column_1054 Column_1055 Column_1056 Column_1057 Column_1058 Column_1059 Column_1060 Column_1061 Column_1062 Column_1063 Column_1064 Column_1065 Column_1066 Column_1067 Column_1068 Column_1069 Column_1070 Column_1071 Column_1072 Column_1073 Column_1074 Column_1075 Column_1076 Column_1077 Column_1078 Column_1079 Column_1080 Column_1081 Column_1082 Column_1083 Column_1084 Column_1085 Column_1086 Column_1087 Column_1088 Column_1089 Column_1090 Column_1091 Column_1092 Column_1093 Column_1094 Column_1095 Column_1096 Column_1097 Column_1098 Column_1099 Column_1100 Column_1101 Column_1102 Column_1103 Column_1104 Column_1105 Column_1106 Column_1107 Column_1108 Column_1109 Column_1110 Column_1111 Column_1112 Column_1113 Column_1114 Column_1115 Column_1116 Column_1117 Column_1118 Column_1119 Column_1120 Column_1121 Column_1122 Column_1123 Column_1124 Column_1125 Column_1126 Column_1127 Column_1128 Column_1129 Column_1130 Column_1131 Column_1132 Column_1133 Column_1134 Column_1135 Column_1136 Column_1137 Column_1138 Column_1139 Column_1140 Column_1141 Column_1142 Column_1143 Column_1144 Column_1145 Column_1146 Column_1147 Column_1148 Column_1149 Column_1150 Column_1151 Column_1152 Column_1153 Column_1154 Column_1155 Column_1156 Column_1157 Column_1158 Column_1159 Column_1160 Column_1161 Column_1162 Column_1163 Column_1164 Column_1165 Column_1166 Column_1167 Column_1168 Column_1169 Column_1170 Column_1171 Column_1172 Column_1173 Column_1174 Column_1175 Column_1176 Column_1177 Column_1178 Column_1179 Column_1180 Column_1181 Column_1182 Column_1183 Column_1184 Column_1185 Column_1186 Column_1187 Column_1188 Column_1189 Column_1190 Column_1191 Column_1192 Column_1193 Column_1194 Column_1195 Column_1196 Column_1197 Column_1198 Column_1199 Column_1200 Column_1201 Column_1202 Column_1203 Column_1204 Column_1205 Column_1206 Column_1207 Column_1208 Column_1209 Column_1210 Column_1211 Column_1212 Column_1213 Column_1214 Column_1215 Column_1216 Column_1217 Column_1218 Column_1219 Column_1220 Column_1221 Column_1222 Column_1223 Column_1224 Column_1225 Column_1226 Column_1227 Column_1228 Column_1229 Column_1230 Column_1231 Column_1232 Column_1233 Column_1234 Column_1235 Column_1236 Column_1237 Column_1238 Column_1239 Column_1240 Column_1241 Column_1242 Column_1243 Column_1244 Column_1245 Column_1246 Column_1247 Column_1248 Column_1249 Column_1250 Column_1251 Column_1252 Column_1253 Column_1254 Column_1255 Column_1256 Column_1257 Column_1258 Column_1259 Column_1260 Column_1261 Column_1262 Column_1263 Column_1264 Column_1265 Column_1266 Column_1267 Column_1268 Column_1269 Column_1270 Column_1271 Column_1272 Column_1273 Column_1274 Column_1275 Column_1276 Column_1277 Column_1278 Column_1279 Column_1280 Column_1281 Column_1282 Column_1283 Column_1284 Column_1285 Column_1286 Column_1287 Column_1288 Column_1289 Column_1290 Column_1291 Column_1292 Column_1293 Column_1294 Column_1295 Column_1296 Column_1297 Column_1298 Column_1299 Column_1300 Column_1301 Column_1302 Column_1303 Column_1304 Column_1305 Column_1306 Column_1307 Column_1308 Column_1309 Column_1310 Column_1311 Column_1312 Column_1313 Column_1314 Column_1315 Column_1316 Column_1317 Column_1318 Column_1319 Column_1320 Column_1321 Column_1322 Column_1323 Column_1324 Column_1325 Column_1326 Column_1327 Column_1328 Column_1329 Column_1330 Column_1331 Column_1332 Column_1333 Column_1334 Column_1335 Column_1336 Column_1337 Column_1338 Column_1339 Column_1340 Column_1341 Column_1342 Column_1343 Column_1344 Column_1345 Column_1346 Column_1347 Column_1348 Column_1349 Column_1350 Column_1351 Column_1352 Column_1353 Column_1354 Column_1355 Column_1356 Column_1357 Column_1358 Column_1359 Column_1360 Column_1361 Column_1362 Column_1363 Column_1364 Column_1365 Column_1366 Column_1367 Column_1368 Column_1369 Column_1370 Column_1371 Column_1372 Column_1373 Column_1374 Column_1375 Column_1376 Column_1377 Column_1378 Column_1379 Column_1380 Column_1381 Column_1382 Column_1383 Column_1384 Column_1385 Column_1386 Column_1387 Column_1388 Column_1389 Column_1390 Column_1391 Column_1392 Column_1393 Column_1394 Column_1395 Column_1396 Column_1397 Column_1398 Column_1399 Column_1400 Column_1401 Column_1402 Column_1403 Column_1404 Column_1405 Column_1406 Column_1407 Column_1408 Column_1409 Column_1410 Column_1411 Column_1412 Column_1413 Column_1414 Column_1415 Column_1416 Column_1417 Column_1418 Column_1419 Column_1420 Column_1421 Column_1422 Column_1423 Column_1424 Column_1425 Column_1426 Column_1427 Column_1428 Column_1429 Column_1430 Column_1431 Column_1432 Column_1433 Column_1434 Column_1435 Column_1436 Column_1437 Column_1438 Column_1439 Column_1440 Column_1441 Column_1442 Column_1443 Column_1444 Column_1445 Column_1446 Column_1447 Column_1448 Column_1449 Column_1450 Column_1451 Column_1452 Column_1453 Column_1454 Column_1455 Column_1456 Column_1457 Column_1458 Column_1459 Column_1460 Column_1461 Column_1462 Column_1463 Column_1464 Column_1465 Column_1466 Column_1467 Column_1468 Column_1469 Column_1470 Column_1471 Column_1472 Column_1473 Column_1474 Column_1475 Column_1476 Column_1477 Column_1478 Column_1479 Column_1480 Column_1481 Column_1482 Column_1483 Column_1484 Column_1485 Column_1486 Column_1487 Column_1488 Column_1489 Column_1490 Column_1491 Column_1492 Column_1493 Column_1494 Column_1495 Column_1496 Column_1497 Column_1498 Column_1499 Column_1500 Column_1501 Column_1502 Column_1503 Column_1504 Column_1505 Column_1506 Column_1507 Column_1508 Column_1509 Column_1510 Column_1511 Column_1512 Column_1513 Column_1514 Column_1515 Column_1516 Column_1517 Column_1518 Column_1519 Column_1520 Column_1521 Column_1522 Column_1523 Column_1524 Column_1525 Column_1526 Column_1527 Column_1528 Column_1529 Column_1530 Column_1531 Column_1532 Column_1533 Column_1534 Column_1535 Column_1536 Column_1537 Column_1538 Column_1539 Column_1540 Column_1541 Column_1542 Column_1543 Column_1544 Column_1545 Column_1546 Column_1547 Column_1548 Column_1549 Column_1550 Column_1551 Column_1552 Column_1553 Column_1554 Column_1555 Column_1556 Column_1557 Column_1558 Column_1559 Column_1560 Column_1561 Column_1562 Column_1563 Column_1564 Column_1565 Column_1566 Column_1567 Column_1568 Column_1569 Column_1570 Column_1571 Column_1572 Column_1573 Column_1574 Column_1575 Column_1576 Column_1577 Column_1578 Column_1579 Column_1580 Column_1581 Column_1582 Column_1583 Column_1584 Column_1585 Column_1586 Column_1587 Column_1588 Column_1589 Column_1590 Column_1591 Column_1592 Column_1593 Column_1594 Column_1595 Column_1596 Column_1597 Column_1598 Column_1599 Column_1600 Column_1601 Column_1602 Column_1603 Column_1604 Column_1605 Column_1606 Column_1607 Column_1608 Column_1609 Column_1610 Column_1611 Column_1612 Column_1613 Column_1614 Column_1615 Column_1616 Column_1617 Column_1618 Column_1619 Column_1620 Column_1621 Column_1622 Column_1623 Column_1624 Column_1625 Column_1626 Column_1627 Column_1628 Column_1629 Column_1630 Column_1631 Column_1632 Column_1633 Column_1634 Column_1635 Column_1636 Column_1637 Column_1638 Column_1639 Column_1640 Column_1641 Column_1642 Column_1643 Column_1644 Column_1645 Column_1646 Column_1647 Column_1648 Column_1649 Column_1650 Column_1651 Column_1652 Column_1653 Column_1654 Column_1655 Column_1656 Column_1657 Column_1658 Column_1659 Column_1660 Column_1661 Column_1662 Column_1663 Column_1664 Column_1665 Column_1666 Column_1667 Column_1668 Column_1669 Column_1670 Column_1671 Column_1672 Column_1673 Column_1674 Column_1675 Column_1676 Column_1677 Column_1678 Column_1679 Column_1680 Column_1681 Column_1682 Column_1683 Column_1684 Column_1685 Column_1686 Column_1687 Column_1688 Column_1689 Column_1690 Column_1691 Column_1692 Column_1693 Column_1694 Column_1695 Column_1696 Column_1697 Column_1698 Column_1699 Column_1700 Column_1701 Column_1702 Column_1703 Column_1704 Column_1705 Column_1706 Column_1707 Column_1708 Column_1709 Column_1710 Column_1711 Column_1712 Column_1713 Column_1714 Column_1715 Column_1716 Column_1717 Column_1718 Column_1719 Column_1720 Column_1721 Column_1722 Column_1723 Column_1724 Column_1725 Column_1726 Column_1727 Column_1728 Column_1729 Column_1730 Column_1731 Column_1732 Column_1733 Column_1734 Column_1735 Column_1736 Column_1737 Column_1738 Column_1739 Column_1740 Column_1741 Column_1742 Column_1743 Column_1744 Column_1745 Column_1746 Column_1747 Column_1748 Column_1749 Column_1750 Column_1751 Column_1752 Column_1753 Column_1754 Column_1755 Column_1756 Column_1757 Column_1758 Column_1759 Column_1760 Column_1761 Column_1762 Column_1763 Column_1764 Column_1765 Column_1766 Column_1767 Column_1768 Column_1769 Column_1770 Column_1771 Column_1772 Column_1773 Column_1774 Column_1775 Column_1776 Column_1777 Column_1778 Column_1779 Column_1780 Column_1781 Column_1782 Column_1783 Column_1784 Column_1785 Column_1786 Column_1787 Column_1788 Column_1789 Column_1790 Column_1791 Column_1792 Column_1793 Column_1794 Column_1795 Column_1796 Column_1797 Column_1798 Column_1799 Column_1800 Column_1801 Column_1802 Column_1803 Column_1804 Column_1805 Column_1806 Column_1807 Column_1808 Column_1809 Column_1810 Column_1811 Column_1812 Column_1813 Column_1814 Column_1815 Column_1816 Column_1817 Column_1818 Column_1819 Column_1820 Column_1821 Column_1822 Column_1823 Column_1824 Column_1825 Column_1826 Column_1827 Column_1828 Column_1829 Column_1830 Column_1831 Column_1832 Column_1833 Column_1834 Column_1835 Column_1836 Column_1837 Column_1838 Column_1839 Column_1840 Column_1841 Column_1842 Column_1843 Column_1844 Column_1845 Column_1846 Column_1847 Column_1848 Column_1849 Column_1850 Column_1851 Column_1852 Column_1853 Column_1854 Column_1855 Column_1856 Column_1857 Column_1858 Column_1859 Column_1860 Column_1861 Column_1862 Column_1863 Column_1864 Column_1865 Column_1866 Column_1867 Column_1868 Column_1869 Column_1870 Column_1871 Column_1872 Column_1873 Column_1874 Column_1875 Column_1876 Column_1877 Column_1878 Column_1879 Column_1880 Column_1881 Column_1882 Column_1883 Column_1884 Column_1885 Column_1886 Column_1887 Column_1888 Column_1889 Column_1890 Column_1891 Column_1892 Column_1893 Column_1894 Column_1895 Column_1896 Column_1897 Column_1898 Column_1899 Column_1900 Column_1901 Column_1902 Column_1903 Column_1904 Column_1905 Column_1906 Column_1907 Column_1908 Column_1909 Column_1910 Column_1911 Column_1912 Column_1913 Column_1914 Column_1915 Column_1916 Column_1917 Column_1918 Column_1919 Column_1920 Column_1921 Column_1922 Column_1923 Column_1924 Column_1925 Column_1926 Column_1927 Column_1928 Column_1929 Column_1930 Column_1931 Column_1932 Column_1933 Column_1934 Column_1935 Column_1936 Column_1937 Column_1938 Column_1939 Column_1940 Column_1941 Column_1942 Column_1943 Column_1944 Column_1945 Column_1946 Column_1947 Column_1948 Column_1949 Column_1950 Column_1951 Column_1952 Column_1953 Column_1954 Column_1955 Column_1956 Column_1957 Column_1958 Column_1959 Column_1960 Column_1961 Column_1962 Column_1963 Column_1964 Column_1965 Column_1966 Column_1967 Column_1968 Column_1969 Column_1970 Column_1971 Column_1972 Column_1973 Column_1974 Column_1975 Column_1976 Column_1977 Column_1978 Column_1979 Column_1980 Column_1981 Column_1982 Column_1983 Column_1984 Column_1985 Column_1986 Column_1987 Column_1988 Column_1989 Column_1990 Column_1991 Column_1992 Column_1993 Column_1994 Column_1995 Column_1996 Column_1997 Column_1998 Column_1999 Column_2000 Column_2001 Column_2002 Column_2003 Column_2004 Column_2005 Column_2006 Column_2007 Column_2008 Column_2009 Column_2010 Column_2011 Column_2012 Column_2013 Column_2014 Column_2015 Column_2016 Column_2017 Column_2018 Column_2019 Column_2020 Column_2021 Column_2022 Column_2023 Column_2024 Column_2025 Column_2026 Column_2027 Column_2028 Column_2029 Column_2030 Column_2031 Column_2032 Column_2033 Column_2034 Column_2035 Column_2036 Column_2037 Column_2038 Column_2039 Column_2040 Column_2041 Column_2042 Column_2043 Column_2044 Column_2045 Column_2046 Column_2047 Column_2048 Column_2049 Column_2050 Column_2051 Column_2052 Column_2053 Column_2054 Column_2055 Column_2056 Column_2057 Column_2058 Column_2059 Column_2060 Column_2061 Column_2062 Column_2063 Column_2064 Column_2065 Column_2066 Column_2067 Column_2068 Column_2069 Column_2070 Column_2071 Column_2072 Column_2073 Column_2074 Column_2075 Column_2076 Column_2077 Column_2078 Column_2079 Column_2080 Column_2081 Column_2082 Column_2083 Column_2084 Column_2085 Column_2086 Column_2087 Column_2088 Column_2089 Column_2090 Column_2091 Column_2092 Column_2093 Column_2094 Column_2095 Column_2096 Column_2097 Column_2098 Column_2099 Column_2100 Column_2101 Column_2102 Column_2103 Column_2104 Column_2105 Column_2106 Column_2107 Column_2108 Column_2109 Column_2110 Column_2111 Column_2112 Column_2113 Column_2114 Column_2115 Column_2116 Column_2117 Column_2118 Column_2119 Column_2120 Column_2121 Column_2122 Column_2123 Column_2124 Column_2125 Column_2126 Column_2127 Column_2128 Column_2129 Column_2130 Column_2131 Column_2132 Column_2133 Column_2134 Column_2135 Column_2136 Column_2137 Column_2138 Column_2139 Column_2140 Column_2141 Column_2142 Column_2143 Column_2144 Column_2145 Column_2146 Column_2147 Column_2148 Column_2149 Column_2150 Column_2151 Column_2152 Column_2153 Column_2154 Column_2155 Column_2156 Column_2157 Column_2158 Column_2159 Column_2160 Column_2161 Column_2162 Column_2163 Column_2164 Column_2165 Column_2166 Column_2167 Column_2168 Column_2169 Column_2170 Column_2171 Column_2172 Column_2173 Column_2174 Column_2175 Column_2176 Column_2177 Column_2178 Column_2179 Column_2180 Column_2181 Column_2182 Column_2183 Column_2184 Column_2185 Column_2186 Column_2187 Column_2188 Column_2189 Column_2190 Column_2191 Column_2192 Column_2193 Column_2194 Column_2195 Column_2196 Column_2197 Column_2198 Column_2199 Column_2200 Column_2201 Column_2202 Column_2203 Column_2204 Column_2205 Column_2206 Column_2207 Column_2208 Column_2209 Column_2210 Column_2211 Column_2212 Column_2213 Column_2214 Column_2215 Column_2216 Column_2217 Column_2218 Column_2219 Column_2220 Column_2221 Column_2222 Column_2223 Column_2224 Column_2225 Column_2226 Column_2227 Column_2228 Column_2229 Column_2230 Column_2231 Column_2232 Column_2233 Column_2234 Column_2235 Column_2236 Column_2237 Column_2238 Column_2239 Column_2240 Column_2241 Column_2242 Column_2243 Column_2244 Column_2245 Column_2246 Column_2247 Column_2248 Column_2249 Column_2250 Column_2251 Column_2252 Column_2253 Column_2254 Column_2255 Column_2256 Column_2257 Column_2258 Column_2259 Column_2260 Column_2261 Column_2262 Column_2263 Column_2264 Column_2265 Column_2266 Column_2267 Column_2268 Column_2269 Column_2270 Column_2271 Column_2272 Column_2273 Column_2274 Column_2275 Column_2276 Column_2277 Column_2278 Column_2279 Column_2280 Column_2281 Column_2282 Column_2283 Column_2284 Column_2285 Column_2286 Column_2287 Column_2288 Column_2289 Column_2290 Column_2291 Column_2292 Column_2293 Column_2294 Column_2295 Column_2296 Column_2297 Column_2298 Column_2299 Column_2300 Column_2301 Column_2302 Column_2303 Column_2304 Column_2305 Column_2306 Column_2307 Column_2308 Column_2309 Column_2310 Column_2311 Column_2312 Column_2313 Column_2314 Column_2315 Column_2316 Column_2317 Column_2318 Column_2319 Column_2320 Column_2321 Column_2322 Column_2323 Column_2324 Column_2325 Column_2326 Column_2327 Column_2328 Column_2329 Column_2330 Column_2331 Column_2332 Column_2333 Column_2334 Column_2335 Column_2336 Column_2337 Column_2338 Column_2339 Column_2340 Column_2341 Column_2342 Column_2343 Column_2344 Column_2345 Column_2346 Column_2347 Column_2348 Column_2349 Column_2350 Column_2351 Column_2352 Column_2353 Column_2354 Column_2355 Column_2356 Column_2357 Column_2358 Column_2359 Column_2360 Column_2361 Column_2362 Column_2363 Column_2364 Column_2365 Column_2366 Column_2367 Column_2368 Column_2369 Column_2370 Column_2371 Column_2372 Column_2373 Column_2374 Column_2375 Column_2376 Column_2377 Column_2378 Column_2379 Column_2380 Column_2381 Column_2382 Column_2383 Column_2384 Column_2385 Column_2386 Column_2387 Column_2388 Column_2389 Column_2390 Column_2391 Column_2392 Column_2393 Column_2394 Column_2395 Column_2396 Column_2397 Column_2398 Column_2399 Column_2400 Column_2401 Column_2402 Column_2403 Column_2404 Column_2405 Column_2406 Column_2407 Column_2408 Column_2409 Column_2410 Column_2411 Column_2412 Column_2413 Column_2414 Column_2415 Column_2416 Column_2417 Column_2418 Column_2419 Column_2420 Column_2421 Column_2422 Column_2423 Column_2424 Column_2425 Column_2426 Column_2427 Column_2428 Column_2429 Column_2430 Column_2431 Column_2432 Column_2433 Column_2434 Column_2435 Column_2436 Column_2437 Column_2438 Column_2439 Column_2440 Column_2441 Column_2442 Column_2443 Column_2444 Column_2445 Column_2446 Column_2447 Column_2448 Column_2449 Column_2450 Column_2451 Column_2452 Column_2453 Column_2454 Column_2455 Column_2456 Column_2457 Column_2458 Column_2459 Column_2460 Column_2461 Column_2462 Column_2463 Column_2464 Column_2465 Column_2466 Column_2467 Column_2468 Column_2469 Column_2470 Column_2471 Column_2472 Column_2473 Column_2474 Column_2475 Column_2476 Column_2477 Column_2478 Column_2479 Column_2480 Column_2481 Column_2482 Column_2483 Column_2484 Column_2485 Column_2486 Column_2487 Column_2488 Column_2489 Column_2490 Column_2491 Column_2492 Column_2493 Column_2494 Column_2495 Column_2496 Column_2497 Column_2498 Column_2499 Column_2500 Column_2501 Column_2502 Column_2503 Column_2504 Column_2505 Column_2506 Column_2507 Column_2508 Column_2509 Column_2510 Column_2511 Column_2512 Column_2513 Column_2514 Column_2515 Column_2516 Column_2517 Column_2518 Column_2519 Column_2520 Column_2521 Column_2522 Column_2523 Column_2524 Column_2525 Column_2526 Column_2527 Column_2528 Column_2529 Column_2530 Column_2531 Column_2532 Column_2533 Column_2534 Column_2535 Column_2536 Column_2537 Column_2538 Column_2539 Column_2540 Column_2541 Column_2542 Column_2543 Column_2544 Column_2545 Column_2546 Column_2547 Column_2548 Column_2549 Column_2550 Column_2551 Column_2552 Column_2553 Column_2554 Column_2555 Column_2556 Column_2557 Column_2558 Column_2559 Column_2560 Column_2561 Column_2562 Column_2563 Column_2564 Column_2565 Column_2566 Column_2567
feature_infos=[146:99960208] [0.00088205584324896336:7.9999957084655762] none none none [0:255] [0:250] [0:0.99995923042297363] [0:0.86598694324493408] [0:0.46134394407272339] [0:0.36222416162490845] [0:0.3576030433177948] [0:0.35401535034179688] [0:0.38988488912582397] [0:0.8107343316078186] [0:0.14507660269737244] [0:0.34648534655570984] [0:0.32725581526756287] [0:0.36392226815223694] [0:0.45424714684486389] [0:0.36455711722373962] [0:0.4228576123714447] [0:0.32192149758338928] [0:0.38020226359367371] [0:0.29887890815734863] [0:0.26072648167610168] [0:0.46632644534111023] [0:0.15564915537834167] [0:0.51343339681625366] [0:0.30329442024230957] [0:0.37229236960411072] [0:0.2059272974729538] [0:0.20279459655284882] [0:0.21367566287517548] [0:0.18690085411071777] [0:0.14650915563106537] [0:0.21922467648983002] [0:0.38156059384346008] [0:0.33667504787445068] [2.8889544410048984e-06:0.74193388223648071] [0:0.15240493416786194] [0:0.24099189043045044] [0:0.81977373361587524] [0:0.28909164667129517] [0:0.1790553480386734] [0:0.29025217890739441] [0:0.21328124403953552] [0:0.21037571132183075] [0:0.19325187802314758] [0:0.41772603988647461] [0:0.25111931562423706] [0:0.25352969765663147] [0:0.22791193425655365] [0:0.99168449640274048] [0:0.93123924732208252] [0:0.9967917799949646] [0:0.88617277145385742] [0:0.82196289300918579] [0:0.84078484773635864] [0:0.95583879947662354] [0:0.61233335733413696] [0:0.19150391221046448] [0:0.19060157239437103] [0:0.19104661047458649] [0:0.30797436833381653] [0:0.9908178448677063] [0:0.1281018853187561] [0:0.13215732574462891] [0:0.183074951171875] [0:0.13492494821548462] [0:0.47057309746742249] [0:0.21591532230377197] [0:0.7593345046043396] [0:0.25524213910102844] [0:0.25105911493301392] [0:0.28549337387084961] [1.3600129022961482e-07:0.12854863703250885] [0:0.60745978355407715] [0:0.19007830321788788] [0:0.42675530910491943] [0:0.73218917846679688] [0:0.27844569087028503] [0:0.12189179658889771] [0:0.25539800524711609] [0:0.18919128179550171] [0:0.37431752681732178] [0:0.27797868847846985] [0:0.25396835803985596] [0:0.19050323963165283] [0:0.605305016040802] [0:0.28190070390701294] [0:0.26549425721168518] [0:0.46290731430053711] [0:0.12883582711219788] [0:0.19967123866081238] [0:0.19060157239437103] [0:0.13500875234603882] [0:0.15058828890323639] [0:0.18827067315578461] [0:0.16271905601024628] [0:0.28765869140625] [0:0.18741320073604584] [0:0.4328799843788147] [0:0.19669602811336517] [0:0.19458977878093719] [0:0.24590928852558136] [0:0.38259169459342957] [0:0.15137693285942078] [0:0.16015174984931946] [0:0.52093750238418579] [0:0.18902783095836639] [0:0.30907866358757019] [0:0.15937374532222748] [0:0.99771183729171753] [0:0.65779536962509155] [0:0.12670128047466278] [0:0.23720607161521912] [0:0.12637533247470856] [0:0.19006404280662537] [0:0.18810024857521057] [0:0.30577871203422546] [0:0.18849743902683258] [0:0.25505110621452332] [0:0.33770373463630676] [0:0.19524572789669037] [0:0.12451373040676117] [0:0.27450495958328247] [0:0.63621258735656738] [0:0.18868054449558258] [0:0.12780408561229706] [0:0.98162174224853516] [0:0.19138370454311371] [0:0.12851275503635406] [0:0.1908714771270752] [0:0.44317334890365601] [0:0.36820226907730103] [0:0.13715600967407227] [0:0.12408876419067383] [0:0.98190653324127197] [0:0.19062715768814087] [0:0.15087547898292542] [0:0.19058771431446075] [0:0.1886022537946701] [0:0.51604616641998291] [0:0.19024713337421417] [0:0.14721626043319702] [0:0.16041909158229828] [0:0.18076412379741669] [0:0.18899334967136383] [0:0.34267950057983398] [0:0.12317126989364624] [0:0.9965241551399231] [0:0.1894775927066803] [0:0.23334291577339172] [0:0.21835362911224365] [0:0.91964167356491089] [0:0.66445040702819824] [0:0.12475277483463287] [0:0.19023452699184418] [0:0.13915939629077911] [0:0.8497888445854187] [0:0.12730710208415985] [0:0.26676389575004578] [0:0.12679494917392731] [0:0.25764459371566772] [0:0.27835565805435181] [0:0.13022753596305847] [0:0.23282921314239502] [0:0.26020696759223938] [0:0.18775683641433716] [0:0.19043268263339996] [0:0.18950513005256653] [0:0.19129866361618042] [0:0.16372612118721008] [0:0.2338005006313324] [0:0.16816456615924835] [0:0.13033132255077362] [0:0.33968102931976318] [0:0.11639299243688583] [0:0.25585129857063293] [0:0.18379896879196167] [0:0.19964875280857086] [0:0.43293839693069458] [0:0.1765814870595932] [0:0.35002729296684265] [0:0.35386469960212708] [0:0.23694218695163727] [0:0.12803621590137482] [0:0.12723371386528015] [0:0.25084415078163147] [0:0.19058974087238312] [0:0.20302264392375946] [0:0.44738239049911499] [0:0.16463053226470947] [0:0.27828556299209595] [0:0.18972909450531006] [0:0.32234999537467957] [0:0.19060157239437103] [0:0.17032977938652039] [0:0.65463036298751831] [0:0.34293639659881592] [0:0.14659705758094788] [0:0.33094242215156555] [0:0.1237780898809433] [0:0.19399651885032654] [0:0.95529991388320923] [0:0.15213623642921448] [0:0.16161352396011353] [0:0.12631647288799286] [0:0.19606530666351318] [0:0.18988460302352905] [0:0.7704346776008606] [0:0.19191919267177582] [0:0.18791250884532928] [0:0.18713593482971191] [0:0.26134464144706726] [0:0.34678646922111511] [0:0.1908714771270752] [0:0.13608819246292114] [0:0.17678719758987427] [0:0.14545895159244537] [0:0.18902783095836639] [0:0.196533203125] [0:0.19265231490135193] [0:0.22142322361469269] [0:0.1794891357421875] [0:0.25536379218101501] [0:0.12761993706226349] [0:0.20386958122253418] [0:0.19257992506027222] [0:0.23716296255588531] [0:0.5140647292137146] [0:0.19445428252220154] [0:0.17746530473232269] [0:0.22607335448265076] [0:0.15335886180400848] [0:0.18985524773597717] [0:0.20400778949260712] [0:0.18589985370635986] [0:0.51571905612945557] [0:0.25762113928794861] [0:0.5246310830116272] [0:0.31400147080421448] [0:0.23082217574119568] [0:0.20521208643913269] [0:0.44108724594116211] [0:0.19075754284858704] [0:0.5167662501335144] [0:0.28585490584373474] [0:0.14818857610225677] [0:0.38657912611961365] [0:0.1619771271944046] [0:0.340669184923172] [0:0.21750415861606598] [0:0.26290643215179443] [0:0.16931672394275665] [0:0.57904201745986938] [0:0.37314134836196899] [0:0.44009780883789062] [0:0.12991513311862946] [0:0.38804858922958374] [0:0.53429263830184937] [0:0.97921568155288696] [0:0.99981695413589478] [0:0.2842366099357605] [0:0.99167120456695557] [0:0.99676781892776489] [0:0.53363949060440063] [0:0.6007964015007019] [0:0.99766218662261963] [0:0.9816092848777771] [0:0.98162853717803955] [0:0.99651288986206055] [0:0.32771596312522888] [0:0.3451327383518219] [0:0.95520997047424316] [0:0.20816276967525482] [0:0.76989150047302246] [0:0.97541177272796631] [0:0.86427217721939087] [0:0.14603838324546814] [0:0.29437935352325439] [0:0.32168936729431152] [0:0.2295343279838562] [0:0.27069517970085144] [0:0.43835616111755371] [0:0.19505387544631958] [0:0.07325291633605957] [0:0.2708708643913269] [0:0.097707994282245636] [0:0.10528305172920227] [0:0.25198489427566528] [0:0.068060271441936493] [0:0.1583065390586853] [0:0.39347866177558899] [0:0.9384765625] [0:0.059647113084793091] [0:0.11823327839374542] [0:0.85401064157485962] [0:0.3190990686416626] [0:0.091814316809177399] [0:0.20986229181289673] [0:0.046576805412769318] [0:0.13543860614299774] [0:0.078751116991043091] [0:0.02842286042869091] [0:0.043661221861839294] [0:0.1018337681889534] [0:0.17843098938465118] [0:0.10751906782388687] [0:0.36003562808036804] [0:0.9140625] [0:0.23894433677196503] [0:0.1953822523355484] [0:0.62892842292785645] [0:0.26349133253097534] [0:0.22473786771297455] [0:0.33982154726982117] [0:0.27525699138641357] [0:0.181807741522789] [0:0.15915095806121826] [0:0.1176336333155632] [0:0.14043448865413666] [0:0.35290399193763733] [0:0.35290193557739258] [0:0.26422411203384399] [0:0.6218457818031311] [0:0.86966127157211304] [0:0.24539697170257568] [0:0.33919376134872437] [0:0.67977875471115112] [0:0.2497321218252182] [0:0.42953020334243774] [0:0.20561940968036652] [0:0.22359552979469299] [0:0.24534229934215546] [0:0.116943359375] [0:0.42953020334243774] [0:0.068236857652664185] [0:0.14005689322948456] [0:0.12925171852111816] [0:0.12335632741451263] [0:0.29019832611083984] [0:0.82356768846511841] [0:0.074463270604610443] [0:0.29491716623306274] [0:0.54710161685943604] [0:0.4022584855556488] [0:0.22592118382453918] [0:0.58060508966445923] [0:0.27862006425857544] [0:0.13076053559780121] [0:0.197265625] [0:0.046064537018537521] [0:0.11364589631557465] [0:0.2314453125] [0:0.14641104638576508] [0:0.23535154759883881] [0:0.2669188380241394] [0:0.755859375] [0:0.25354418158531189] [0:0.28232759237289429] [0:0.27858814597129822] [0:0.33580729365348816] [0:0.25303584337234497] [0:0.48746722936630249] [0:0.25415095686912537] [0:0.25353866815567017] [0:0.50074964761734009] [0:0.33289816975593567] [0:0.25227883458137512] [0:0.28232759237289429] [0:0.24561190605163574] [0:0.25344067811965942] [0:0.35878905653953552] [0:0.7314453125] [0:0.28968366980552673] [0:0.33276548981666565] [0:0.37417179346084595] [0:0.28723019361495972] [0:0.21055138111114502] [0:0.3395589292049408] [0:0.21106842160224915] [0:0.1597004234790802] [0:0.2834201455116272] [0:0.21640798449516296] [0:0.090690106153488159] [0:0.12547197937965393] [0:0.1579473614692688] [0:0.17006248235702515] [0:0.23983202874660492] [0:0.68212890625] [0:0.2027587890625] [0:0.37839126586914062] [0:0.42315402626991272] [0:0.39457863569259644] [0:0.39618468284606934] [0:0.409912109375] [0:0.193695068359375] [0:0.12757925689220428] [0:0.33494502305984497] [0:0.30050912499427795] [0:0.38916015625] [0:0.18008214235305786] [0:0.49976250529289246] [0:0.12680032849311829] [0:0.54636162519454956] [0:0.61083984375] [0:0.17747214436531067] [0:0.31379395723342896] [0:0.5214238166809082] [0:0.2321762889623642] [0:0.18544141948223114] [0:0.3148561418056488] [0:0.20716294646263123] [0:0.19728058576583862] [0:0.1911328136920929] [0:0.20170974731445312] [0:0.11029237508773804] [0:0.11986375600099564] [0:0.183349609375] [0:0.15762606263160706] [0:0.22934308648109436] [0:0.5810546875] [0:0.19005259871482849] [0:0.22645366191864014] [0:0.37578472495079041] [0:0.27507147192955017] [0:0.29382878541946411] [0:0.24358019232749939] [0:0.1492716521024704] [0:0.13161358237266541] [0:0.28039690852165222] [0:0.2004830539226532] [0:0.12960644066333771] [0:0.16048455238342285] [0:0.1859537810087204] [0:0.16028802096843719] [0:0.2193579226732254] [0:0.52001953125] [0:0.2951393723487854] [0:0.22355028986930847] [0:0.50112968683242798] [0:0.15352807939052582] [0:0.14472651481628418] [0:0.23821429908275604] [0:0.15872593224048615] [0:0.16857005655765533] [0:0.15531794726848602] [0:0.20009377598762512] [0:0.16577443480491638] [0:0.16809916496276855] [0:0.21650390326976776] [0:0.16775533556938171] [0:0.46771594882011414] [0:0.44384765625] [0:0.17427441477775574] [0:0.28109762072563171] [0:0.25115472078323364] [0:0.18564879894256592] [0:0.1192457377910614] [0:0.15185546875] [0:0.14940346777439117] [0:0.17592480778694153] [0:0.17027093470096588] [0:0.17172856628894806] [0:0.27841982245445251] [0:0.24742056429386139] [0:0.14024427533149719] [0:0.1902901828289032] [0:0.20916108787059784] [0:0.39892578125] [0:0.15608052909374237] [0:0.23444175720214844] [0:0.26355639100074768] [0:0.19701315462589264] [0:0.18496906757354736] [0:0.14570479094982147] [0:0.19382363557815552] [0:0.18664343655109406] [0:0.16505920886993408] [0:0.16555976867675781] [0:0.19458408653736115] [0:0.19124124944210052] [0:0.18447893857955933] [0:0.19687740504741669] [0:0.20092406868934631] [0:0.2861328125] [0:0.15742860734462738] [0:0.12533259391784668] [0:0.15080669522285461] [0:0.16635127365589142] [0:0.10457946360111237] [0:0.12839673459529877] [0:0.11202298849821091] [0:0.162109375] [0:0.14787790179252625] [0:0.1865466833114624] [0:0.23797397315502167] [0:0.29318401217460632] [0:0.10947265475988388] [0:0.10327345132827759] [0:0.26297199726104736] [0:0.20998801290988922] [0:0.13842327892780304] [0:0.1213432103395462] [0:0.13212956488132477] [0:0.12519322335720062] [0:0.12011481076478958] [0:0.12084909528493881] [0:0.12030556797981262] [0:0.12729492783546448] [0:0.11644047498703003] [0:0.11887535452842712] [0:0.15577505528926849] [0:0.12074693292379379] [0:0.11766602098941803] [0:0.11982870846986771] [0:0.1586507111787796] [1:6329609] [5:1016836.75] [6:95582656] [0:0.96935856342315674] [0:0.78340590000152588] [0:0.95249807834625244] [0:0.99421870708465576] [0:0.76807475090026855] [0:0.51008045673370361] [0:0.58316636085510254] [0:0.59514307975769043] [0:0.88694268465042114] [0:0.5173833966255188] [0:0.448404461145401] [0:0.55448716878890991] [0:0.48562759160995483] [0:0.69944602251052856] [0:0.99930399656295776] [0:0.98615270853042603] [0:0.99975019693374634] [0:0.95485413074493408] [0:0.94620954990386963] [0:0.98928457498550415] [0:0.99138373136520386] [0:0.90360170602798462] [0:0.5153728723526001] [0:0.54518371820449829] [0:0.48583325743675232] [0:0.47638806700706482] [0:0.99945265054702759] [0:0.34022510051727295] [0:0.34746313095092773] [0:0.5960533618927002] [0:0.47111758589744568] [0:0.84982603788375854] [0:0.5977637767791748] [0:0.87104558944702148] [0:0.56200319528579712] [0:0.62262648344039917] [0:0.63882201910018921] [0:0.54272657632827759] [0:0.92546433210372925] [0:0.61938399076461792] [0:0.9283519983291626] [0:0.89607089757919312] [0:0.60832363367080688] [0:0.74979269504547119] [0:0.44988328218460083] [0:0.56929516792297363] [0:0.9624253511428833] [0:0.57209265232086182] [0:0.81049561500549316] [0:0.61968082189559937] [0:0.97383081912994385] [0:0.62103772163391113] [0:0.95662742853164673] [0:0.86999303102493286] [0:0.84246736764907837] [0:0.6369096040725708] [0:0.62029117345809937] [0:0.44221377372741699] [0:0.62550312280654907] [0:0.61279875040054321] [0:0.95489305257797241] [0:0.6970558762550354] [0:0.42068281769752502] [0:0.71771115064620972] [0:0.52205061912536621] [0:0.57132518291473389] [0:0.53689628839492798] [0:0.8675156831741333] [0:0.78287112712860107] [0:0.55919855833053589] [0:0.95642244815826416] [0:0.86887061595916748] [0:0.93598473072052002] [0:0.55834192037582397] [0:0.99983900785446167] [0:0.86029064655303955] [0:0.38150042295455933] [0:0.84271323680877686] [0:0.36918210983276367] [0:0.4900994598865509] [0:0.7261497974395752] [0:0.63499641418457031] [0:0.48848092555999756] [0:0.71761304140090942] [0:0.34602147340774536] [0:0.81393891572952271] [0:0.23210400342941284] [0:0.90517675876617432] [0:0.65209263563156128] [0:0.48870056867599487] [0:0.43202480673789978] [0:0.9991452693939209] [0:0.61831140518188477] [0:0.69274675846099854] [0:0.48946359753608704] [0:0.84689551591873169] [0.0031288880854845047:6.5849494934082031] [0:25593] [0:4] [0:5534] [0:962] [0:1194] [0:2862] [0:202] [0:724] [0:5166] [0:4102] none [0:13] none [0:8987] none [0:67221] [0:9707] [0:4057] [0:2112] [0:24962] [0:11555] [0:4021] [0:39851] [0:20531] [0:20022] [0:14394] [0:84879] [0:5806] [0:2681] [0:16181] [0:420] [0:36174] [0:178788] [0:8299] [0:22094] [0:2807] [0:10920] [0:32011] [0:7382] [0:353] [0:5243] [0:5538] [0:1130] [0:29406] [0:15803] [0:31560] [0:14620] [0:48232] [0:6065] [0:51949] [0:29140] [0:13360] [0:5322] [0:178788] [0:17157] [0:20818] [0:9234] [0:7629] [0:8223] [0:1626] [0:5523] [0:2741] [0:17341] [0:1476] [0:4496] [0:73298] [0:8079] [0:67966] [0:7310] [0:2853] [0:102835] [0:14137] [0:61044] [0:31559] [0:195] [0:11163] [0:124987] [0:4294967296] [0:101] [0:4294967296] [0:1760] [0:4283477248] [0:34] [0:13] [0:65535] [0:63713] [0:255] [0:255] [0:51392] [0:57888] [0:19] [0:52971] [0:4023528192] [0:27365376] [0:1469038592] [0:4294964736] [0:3928302336] [0:99999997952] [0:795782976] [0:1329790976] [0:1073876992] [0:4292874240] [0:3970921728] [0:1.8446735277616529e+19] [0:2101248] [0:4294967296] [0:4294443008] [0:1] [0:1] [0:1] [0:1] [0:1] [0:1] none [0:1] [0:1] [0:1] [0:1] [0:1] none [0:1] none [0:1] [0:1] [0:1] [0:1] [0:1] [0:1] [0:1] [0:1] [0:1] [0:1] [0:1] [0:1] none [0:64064] [0:65535] [0:65535] [0:65318] [0:65433] [0:65535] [0:65520] [0:65534] [0:65535] [0:65535] [0:65520] [0:65013] [0:65288] [0:65074] [0:65043] [0:363632] [0:101] [0:18] [0:17] [0:96] [0:96] [0:7.9999985694885254] none [0:675670.375] none [0:1685204608] none [-33066496:1690447488] [-50655744:54577152] [-75027968:41266176] [-27784192:79177728] [-62860288:28624896] [-39020576:37262336] [-39571456:76901376] [-83382272:18655744] [-14077440:7034368] [-17492480:16808960] [-34933760:48168960] [-57805824:16779264] [-20285440:18391040] [-37097472:74721792] [-18570240:89148416] [-24431104:20702720] [-88434176:33927168] [-21506048:67149840] [-19334656:64489984] [-20783616:24414208] [-44201472:21222400] [-59993600:58312704] [-79173632:14019072] [-32123392:15430656] [-55052800:268435456] [-19048960:12382720] [-194115584:63154688] [-11925504:15505920] [-67178496:19693568] [-22032896:15178752] [-13886976:36384768] [-58920960:67055104] [-75255296:23900160] [-25659904:64636928] [-25354752:31162368] [-33958912:1260835328] [-14190080:190904320] [-53196288:20314112] [-51203072:30028800] [-28725760:66832384] [-32244736:56670208] [-2147553280:10543616] [-54607872:11472896] [-87322112:756750848] [-75975168:94722048] [-32887296:27234304] [-9001984:9592832] [-37570560:28105216] [-12166656:61846528] [-18814976:19465216] [-33065988:2019914752] [-50655744:99323904] [-75027488:41265956] [-79138816:79177552] [-73781248:50311188] [-61595648:210329600] [-39571084:142157104] [-83382024:17965408] [-67091240:17502564] [-17767032:16808744] [-34933464:132763648] [-57805516:16778986] [-23712876:24696030] [-37097344:74721424] [-176447488:89148320] [-138752944:20691604] [-88433888:33926668] [-49892880:134255536] [-29488474:64489568] [-167772160:48336896] [-44201040:244796864] [-79240640:59319208] [-79173184:167772160] [-34201600:15428864] [-55052776:268435520] [-19048816:32335360] [-194115552:63154204] [-25349880:15505720] [-67176240:19691760] [-1668246656:1211253376] [-48457000:57566180] [-59789312:328492864] [-1200363264:60100608] [-25659668:64636928] [-25354320:251772928] [-53087752:1260838912] [-21338306:190904176] [-53195840:20313492] [-1818587648:30028516] [-137736192:66832108] [-33893096:56669768] [-3154289408:67508952] [-1952539648:11472741] [-87322320:622243008] [-75975104:94721600] [-32890880:27231568] [-11603476:16749532] [-37570200:47972296] [-21094400:61846116] [-18874368:227737920] [-12.56084156036377:125.27532196044922] [-12.144556045532227:11.85985279083252] [-11.619099617004395:13.11327075958252] [-23.292953491210938:16.101106643676758] [-14.311619758605957:10.448019027709961] [-34.880615234375:9.8279094696044922] [-13.367493629455566:8.5823650360107422] [-11.670001029968262:9.2847929000854492] [-42.685462951660156:9.4349689483642578] [-9.2962827682495117:11.907073020935059] [-15.504525184631348:10.652070999145508] [-8.359593391418457:7.9999527931213379] [-14.031028747558594:11.434935569763184] [-8.3430871963500977:31.281162261962891] [-12.234792709350586:24.978635787963867] [-14.122906684875488:70.436508178710938] [-83.490829467773438:9.6466703414916992] [-50.502456665039062:7.9999423027038574] [-14.569957733154297:19.494985580444336] [-670.7972412109375:22.478679656982422] [-15.98200511932373:15.158312797546387] [-13.182852745056152:11.006041526794434] [-13.194674491882324:15.217497825622559] [-7.9883298873901367:7.9937701225280762] [-21.709293365478516:15.810166358947754] [-156.05245971679688:7.9999504089355469] [-8.5307340621948242:15.813556671142578] [-12.971942901611328:13.706774711608887] [-12.627235412597656:13.094898223876953] [-71.320991516113281:13.989566802978516] [-19.422418594360352:15.817460060119629] [-22.753684997558594:144.55900573730469] [-65.674079895019531:17.688316345214844] [-11.283955574035645:14.236462593078613] [-15.966716766357422:15.940676689147949] [-16.947406768798828:13.701684951782227] [-15.711807250976562:15.726398468017578] [-8.6790542602539062:9.6256303787231445] [-26.832180023193359:18.904031753540039] [-16.488851547241211:24.151311874389648] [-14.418511390686035:15.813748359680176] [-68.33087158203125:7.9999547004699707] [-40.7705078125:7.9805607795715332] [-13.477466583251953:35.202884674072266] [-11.066198348999023:14.627930641174316] [-25.656606674194336:12.699217796325684] [-36.471099853515625:12.829575538635254] [-11.08018684387207:103.90142822265625] [-12.146542549133301:10.785512924194336] [-18.018632888793945:7.9990649223327637] [-17:3] [-6:95] [-5:9] [-95:12] [-7:10] [-77:9] [-6:9] [-4:6] [-19:16] [-17:6] [-9:13] [-3:11] [-10:12] [-94:12] [-77:16] [-18:9] [-11:2] [-10:18] [-7:14] [-6:4] [-3:11] [-6:8] [-4:11] [-8:12] [-18:9] [-5:19] [-9:23] [-16:10] [-6:18] [-4:4] [-16:5] [-5:9] [-4:9] [-11:9] [-3:4] [-95:5] [-9:8] [-8:11] [-13:21] [-9:9] [-4:9] [-76:5] [-12:5] [-6:10] [-22:4] [-3:6] [-9:6] [-7:4] [-6:6] [-17:12] [-1:1] [-1:1] [-1:1] [-1:1] [-1:1] [-1:1] [-1:1] [-1:1] [-1:1] [-1:1] [0:99716056] [0:1] [0:7.9999985694885254] [0:8193] [0:183] [0:2] [0:2] [0:3] [0:2] [0:3] [0:3] [0:2] [0:2] [0:3] [0:2] [0:2] [0:3] [0:2] [0:3] [0:1] [0:2] [0:3] [0:2] [0:2] [0:2] [0:2] [0:2] [0:3] [0:2] [0:2] [0:4] [0:3] [0:3] [0:2] [0:3] [0:3] [0:2] [0:2] [0:2] [0:2] [0:2] [0:2] [0:2] [0:2] [0:2] [0:3] [0:2] [0:2] [0:3] [0:3] [0:3] [0:2] [0:3] [0:2] [0:2] [0:3] [0:3] [0:2] [0:3] [0:3] [0:2] [0:2] [0:2] [0:2] [0:2] [0:3] [0:2] [0:2] [0:3] [0:2] [0:2] [0:2] [0:3] [0:3] [0:2] [0:2] [0:2] [0:2] [0:2] [0:2] [0:2] [0:2] [0:2] [0:2] [0:2] [0:3] [0:2] [0:2] [0:2] [0:2] [0:1] [0:2] [0:2] [0:3] [0:2] [0:2] [0:3] [0:4] [0:3] [0:3] [0:2] [0:2] [0:2] [0:2] [0:2] [0:3] [0:2] [0:2] [0:2] [0:3] [0:2] [0:2] [0:3] [0:3] [0:2] [0:2] [0:2] [0:3] [0:1] [0:4] [0:1] [0:2] [0:3] [0:2] [0:2] [0:1] [0:2] [0:2] [0:2] [0:2] [0:2] [0:4] [0:3] [0:2] [0:2] [0:3] [0:2] [0:2] [0:2] [0:2] [0:3] [0:2] [0:2] [0:2] [0:4] [0:2] [0:2] [0:3] [0:2] [0:3] [0:3] [0:2] [0:3] [0:3] [0:3] [0:2] [0:2] [0:2] [0:2] [0:2] [0:2] [0:2] [0:2] [0:2] [0:2] [0:3] [0:3] [0:2] [0:2] [0:3] [0:2] [0:2] [0:2] [0:2] [0:2] [0:2] [0:2] [0:3] [0:4] [0:2] [0:2] [0:2] [0:2] [0:3] [0:2] [0:2] [0:2] [0:2] [0:3] [0:3] [0:2] [0:2] [0:2] [0:2] [0:2] [0:2] [0:2] [0:2] [0:2] [0:3] [0:3] [0:3] [0:2] [0:3] [0:2] [0:4] [0:3] [0:2] [0:3] [0:2] [0:2] [0:2] [0:1] [0:2] [0:2] [0:2] [0:2] [0:2] [0:3] [0:2] [0:3] [0:3] [0:2] [0:3] [0:4] [0:3] [0:2] [0:2] [0:2] [0:4] [0:3] [0:3] [0:2] [0:3] [0:2] [0:2] [0:3] [0:1] [0:2] [0:2] [0:2] [0:2] [0:2] [0:2] [0:1] [0:3] [0:1] [0:2] [0:2] [0:2] [0:2] [0:4] [0:2] [0:2] [0:3] [0:2] [0:2] [0:2] [0:2] [0:2] [0:2] [0:16] [0:13] [0:11] [0:13] [0:10] [0:13] [0:11] [0:16] [0:12] [0:16] [0:13] [0:12] [0:11] [0:14] [0:14] [0:10] [0:11] [0:12] [0:12] [0:11] [0:12] [0:12] [0:11] [0:12] [0:12] [0:10] [0:11] [0:12] [0:14] [0:14] [0:11] [0:11] [0:11] [0:12] [0:13] [0:13] [0:18] [0:15] [0:11] [0:10] [0:10] [0:12] [0:11] [0:10] [0:13] [0:11] [0:11] [0:13] [0:10] [0:13] [0:12] [0:12] [0:13] [0:12] [0:11] [0:11] [0:15] [0:13] [0:14] [0:11] [0:10] [0:12] [0:12] [0:12] [0:13] [0:12] [0:11] [0:11] [0:20] [0:11] [0:15] [0:11] [0:15] [0:14] [0:13] [0:13] [0:12] [0:12] [0:11] [0:13] [0:10] [0:15] [0:11] [0:12] [0:10] [0:12] [0:11] [0:13] [0:15] [0:11] [0:13] [0:12] [0:11] [0:11] [0:11] [0:11] [0:13] [0:12] [0:12] [0:12] [0:13] [0:11] [0:12] [0:13] [0:13] [0:12] [0:14] [0:11] [0:12] [0:11] [0:13] [0:14] [0:11] [0:12] [0:11] [0:12] [0:14] [0:11] [0:10] [0:16] [0:11] [0:16] [0:12] [0:15] [0:13] [0:10] [0:20] [0:16] [0:12] [0:14] [0:10] [0:12] [0:10] [0:12] [0:15] [0:10] [0:13] [0:13] [0:12] [0:11] [0:13] [0:12] [0:11] [0:14] [0:15] [0:11] [0:13] [0:11] [0:16] [0:11] [0:12] [0:11] [0:11] [0:12] [0:11] [0:10] [0:12] [0:11] [0:13] [0:13] [0:13] [0:15] [0:12] [0:15] [0:12] [0:10] [0:11] [0:11] [0:10] [0:12] [0:14] [0:11] [0:14] [0:12] [0:12] [0:11] [0:11] [0:11] [0:13] [0:12] [0:12] [0:12] [0:11] [0:14] [0:12] [0:11] [0:11] [0:10] [0:12] [0:11] [0:11] [0:10] [0:14] [0:12] [0:10] [0:11] [0:13] [0:11] [0:12] [0:11] [0:10] [0:13] [0:11] [0:11] [0:14] [0:12] [0:11] [0:12] [0:10] [0:12] [0:10] [0:10] [0:12] [0:15] [0:11] [0:12] [0:11] [0:16] [0:11] [0:13] [0:12] [0:11] [0:11] [0:13] [0:11] [0:12] [0:14] [0:10] [0:13] [0:12] [0:12] [0:16] [0:12] [0:13] [0:12] [0:12] [0:11] [0:11] [0:10] [0:12] [0:14] [0:12] [0:10] [0:12] [0:11] [0:12] [0:10] [0:12] [0:11] [0:13] [0:11] [0:11] [0:10] [0:11] [0:11] [0:10] [0:13] [0:12] [0:11] [0:11] [0:13] [0:13] [0:12] [0:16] [0:11] [0:13] [0:11] [0:12] [0:11] [0:12] [0:10] [0:12] [0:13] [0:12] [0:11] [0:15] [0:11] [0:14] [0:13] [0:11] [0:14] [0:13] [0:12] [0:12] [0:11] [0:12] [0:11] [0:11] [0:10] [0:12] [0:14] [0:12] [0:13] [0:13] [0:12] [0:10] [0:12] [0:12] [0:15] [0:11] [0:11] [0:12] [0:12] [0:11] [0:14] [0:10] [0:11] [0:12] [0:12] [0:11] [0:13] [0:12] [0:13] [0:11] [0:12] [0:11] [0:14] [0:12] [0:12] [0:12] [0:13] [0:11] [0:11] [0:10] [0:15] [0:13] [0:10] [0:10] [0:10] [0:13] [0:11] [0:11] [0:14] [0:11] [0:12] [0:12] [0:11] [0:13] [0:12] [0:10] [0:10] [0:12] [0:11] [0:13] [0:12] [0:12] [0:11] [0:14] [0:12] [0:13] [0:11] [0:10] [0:12] [0:12] [0:11] [0:12] [0:14] [0:12] [0:12] [0:13] [0:12] [0:10] [0:12] [0:14] [0:11] [0:13] [0:11] [0:12] [0:13] [0:11] [0:10] [0:14] [0:10] [0:11] [0:10] [0:11] [0:13] [0:11] [0:10] [0:11] [0:13] [0:11] [0:12] [0:13] [0:11] [0:11] [0:10] [0:12] [0:14] [0:12] [0:11] [0:10] [0:12] [0:11] [0:11] [0:12] [0:14] [0:13] [0:10] [0:12] [0:12] [0:14] [0:12] [0:12] [0:12] [0:9] [0:13] [0:14] [0:11] [0:10] [0:11] [0:11] [0:14] [0:12] [0:11] [0:12] [0:12] [0:12] [0:12] [0:10] [0:12] [0:11] [0:10] [0:13] [0:12] [0:11] [0:13] [0:14] [0:10] [0:12] [0:10] [0:12] [0:12] [0:11] [0:14] [0:11] [0:10] [0:12] [0:12] [0:11] [0:15] [0:11] [0:14] [0:12] [0:13] [0:13] [0:13] [0:11] [0:14] [0:13] [0:12] [0:11] [0:11] [0:15] [0:12] [0:10] [0:12] [0:11] [0:10] [0:12] [0:10] [0:12] [0:11] [0:11] [0:11] [0:12] [0:12] [0:14] [0:11] [0:13] [0:15] [0:9] [0:10] [0:12] [0:10] [0:11] [0:11] [0:14] [0:12] [0:12] [0:13] [0:11] [0:11] [0:14] [0:10] [0:13] [0:12] [0:11] [0:11] [0:11] [0:13] [0:10] [0:13] [0:11] [0:10] [0:11] [0:11] [0:14] [0:12] [0:13] [0:15] [0:13] [0:11] [0:13] [0:12] [0:13] [0:11] [0:11] [0:11] [0:12] [0:11] [0:12] [0:13] [0:12] [0:11] [0:13] [0:10] [0:12] [0:14] [0:11] [0:10] [0:11] [0:12] [0:13] [0:11] [0:11] [0:10] [0:14] [0:12] [0:12] [0:11] [0:16] [0:11] [0:10] [0:12] [0:11] [0:12] [0:13] [0:11] [0:11] [0:12] [0:13] [0:12] [0:12] [0:13] [0:12] [0:12] [0:11] [0:10] [0:12] [0:12] [0:13] [0:13] [0:16] [0:11] [0:10] [0:10] [0:12] [0:12] [0:12] [0:12] [0:13] [0:10] [0:11] [0:11] [0:12] [0:10] [0:11] [0:11] [0:12] [0:15] [0:10] [0:12] [0:11] [0:11] [0:12] [0:11] [0:10] [0:13] [0:10] [0:10] [0:13] [0:12] [0:10] [0:13] [0:12] [0:13] [0:11] [0:13] [0:10] [0:9] [0:12] [0:15] [0:16] [0:15] [0:11] [0:13] [0:12] [0:12] [0:11] [0:10] [0:10] [0:11] [0:11] [0:14] [0:13] [0:12] [0:12] [0:12] [0:11] [0:15] [0:15] [0:12] [0:13] [0:12] [0:11] [0:12] [0:11] [0:11] [0:10] [0:15] [0:13] [0:13] [0:13] [0:12] [0:15] [0:10] [0:12] [0:10] [0:12] [0:14] [0:12] [0:12] [0:13] [0:13] [0:15] [0:10] [0:13] [0:12] [0:14] [0:11] [0:10] [0:10] [0:10] [0:10] [0:10] [0:13] [0:12] [0:11] [0:10] [0:11] [0:13] [0:11] [0:11] [0:12] [0:12] [0:12] [0:12] [0:13] [0:12] [0:10] [0:13] [0:10] [0:11] [0:13] [0:11] [0:12] [0:13] [0:11] [0:10] [0:14] [0:12] [0:10] [0:14] [0:13] [0:14] [0:10] [0:10] [0:9] [0:12] [0:13] [0:11] [0:13] [0:10] [0:17] [0:10] [0:13] [0:11] [0:10] [0:13] [0:13] [0:11] [0:17] [0:13] [0:12] [0:12] [0:11] [0:12] [0:13] [0:13] [0:13] [0:11] [0:16] [0:10] [0:9] [0:12] [0:10] [0:13] [0:10] [0:13] [0:13] [0:11] [0:13] [0:12] [0:11] [0:12] [0:12] [0:9] [0:11] [0:11] [0:12] [0:13] [0:15] [0:12] [0:11] [0:9] [0:14] [0:14] [0:12] [0:11] [0:13] [0:13] [0:9] [0:13] [0:13] [0:11] [0:13] [0:11] [0:13] [0:10] [0:12] [0:11] [0:11] [0:11] [0:11] [0:12] [0:11] [0:10] [0:10] [0:14] [0:12] [0:11] [0:11] [0:17] [0:11] [0:11] [0:12] [0:11] [0:9] [0:14] [0:14] [0:11] [0:10] [0:10] [0:10] [0:12] [0:13] [0:11] [0:12] [0:11] [0:13] [0:13] [0:13] [0:11] [0:16] [0:11] [0:11] [0:11] [0:15] [0:14] [0:11] [0:12] [0:12] [0:11] [0:10] [0:13] [0:12] [0:12] [0:15] [0:11] [0:10] [0:12] [0:11] [0:12] [0:13] [0:12] [0:16] [0:10] [0:11] [0:10] [0:11] [0:13] [0:11] [0:15] [0:13] [0:13] [0:12] [0:11] [0:10] [0:12] [0:10] [0:12] [0:11] [0:10] [0:10] [0:15] [0:11] [0:13] [0:12] [0:11] [0:9] [0:11] [0:10] [0:16] [0:12] [0:11] [0:11] [0:13] [0:11] [0:12] [0:11] [0:13] [0:12] [0:15] [0:12] [0:13] [0:15] [0:11] [0:11] [0:12] [0:11] [0:15] [0:11] [0:12] [0:13] [0:14] [0:11] [0:12] [0:11] [0:11] [0:12] [0:11] [0:10] [0:10] [0:13] [0:12] [0:12] [0:10] [0:11] [0:14] [0:12] [0:12] [0:11] [0:13] [0:13] [0:12] [0:11] [0:13] [0:11] [0:13] [0:11] [0:10] [0:15] [0:10] [0:9] [0:10] [0:10] [0:13] [0:11] [0:12] [0:11] [0:11] [0:12] [0:11] [0:13] [0:10] [0:13] [0:14] [0:11] [0:13] [0:11] [0:12] [0:13] [0:10] [0:14] [0:10] [0:13] [0:11] [0:12] [0:11] [0:14] [0:15] [0:11] [0:12] [0:13] [0:12] [0:11] [0:12] [0:11] [0:12] [0:11] [0:14] [0:11] [0:11] [0:10] [0:13] [0:12] [0:11] [0:12] [0:13] [0:10] [0:12] [0:12] [0:12] [0:12] [0:13] [0:11] [0:12] [0:12] [0:14] [0:12] [0:13] [0:9] [0:9] [0:11] [0:10] [0:12] [0:12] [0:12] [0:14] [0:11] [0:12] [0:11] [0:12] [0:13] [0:11] [0:10] [0:11] [0:11] [0:12] [0:12] [0:13] [0:12] [0:11] [0:17] [0:13] [0:13] [0:11] [0:13] [0:12] [0:12] [0:11] [0:11] [0:15] [0:10] [0:11] [0:12] [0:16] [0:13] [0:12] [0:12] [0:11] [0:11] [0:13] [0:13] [0:11] [0:11] [0:10] [0:12] [0:11] [0:10] [0:19] [0:11] [0:16] [0:11] [0:45] [0:12] [0:10] [0:11] [0:13] [0:14] [0:13] [0:10] [0:12] [0:9] [0:12] [0:10] [0:11] [0:11] [0:12] [0:15] [0:14] [0:15] [0:13] [0:11] [0:10] [0:12] [0:11] [0:13] [0:14] [0:14] [0:12] [0:11] [0:11] [0:12] [0:12] [0:12] [0:11] [0:28] [0:11] [0:13] [0:13] [0:13] [0:14] [0:128] [-24:24] [-48:24] [-89:41] [-31:25] [-21:383] [-33:24] [-29:22] [-78:27] [-29:17] [-19:28] [-42:28] [-21:46] [-27:27] [-26:19] [-20:29] [-39:360] [-73:26] [-25:23] [-37:51] [-21:31] [-33:24] [-21:29] [-28:26] [-23:26] [-352:32] [-26:79] [-21:24] [-32:25] [-24:162] [-41:21] [-21:37] [-28:30] [-27:25] [-29:19] [-26:37] [-22:26] [-34:22] [-34:30] [-25:27] [-30:21] [-20:22] [-32:91] [-30:81] [-22:33] [-20:28] [-79:30] [-25:21] [-25:53] [-89:23] [-33:18] [-32:19] [-32:21] [-28:31] [-23:36] [-24:87] [-36:91] [-20:34] [-24:21] [-21:29] [-32:43] [-26:20] [-370:29] [-18:24] [-28:28] [-20:24] [-19:25] [-34:22] [-36:23] [-44:21] [-28:34] [-22:27] [-369:19] [-25:364] [-72:26] [-20:97] [-42:22] [-23:42] [-84:33] [-74:42] [-21:32] [-32:24] [-84:19] [-34:21] [-28:45] [-21:27] [-24:19] [-24:32] [-31:24] [-28:26] [-30:369] [-85:22] [-17:77] [-30:25] [-25:28] [-27:26] [-26:26] [-26:40] [-29:18] [-26:37] [-24:32] [-85:34] [-30:23] [-33:360] [-19:26] [-18:46] [-26:22] [-24:22] [-26:26] [-29:25] [-24:25] [-82:32] [-32:23] [-35:20] [-24:23] [-28:20] [-17:24] [-38:27] [-26:19] [-28:24] [-24:36] [-36:25] [-22:27] [-30:33] [-23:26] [-21:47] [-36:18] [-21:34] [-28:35] [0:4294967296] [0:1379999872] [0:4006471424] [0:1230250112] [0:2147516416] [0:2147516416] [0:3191769856] [0:4290875904] [0:4082706176] [0:3877558784] [0:2348796160] [0:1610615552] [0:1310736640] [0:1409288448] [0:1414877312] [0:1349805440] none none [0:4294967296] [0:4294967296] [0:1885482496] [0:2281701376] [0:4294967296] [0:1634886272] [0:2151940352] [0:1335656704] [0:2290649344] [0:1766596736] [0:2036429440] [0:2642469376] none none [0:1] [0:1] [0:45432] [-86890348544:82298503168] [-140476301312:246078521344] [-110332649472:135271669760] [-72581431296:132890714112] [-190189436928:90546937856] [-47209488384:161032503296] [-97513512960:150531129344] [-160198049792:161023459328] [-185382043648:200072675328] [-55022698496:430179024896] [-183656251392:209464573952] [-390417285120:61372686336] [-68943044608:36810362880] [-112150659072:154173243392] [-103492157440:156321251328] [-165101191168:239593881600] [-282980450304:84713218048] [-235906236416:74119192576] [-349546348544:17211652096] [-87124058112:207184592896] [-99766755328:73644195840] [-224519929856:19030558720] [-64939933696:240945217536] [-350640865280:4611041656832] [-390220546048:109305135104] [-151364730880:366915452928] [-16292613455872:230242844672] [-305253711872:325503123456] [-7253968027648:207387017216] [-294651428864:190099259392] [-28725137408:287564464128] [-54964432928768:259480567808] [0:67] [0:1] [0:1] [0:1] [0:1] [0:10] [0:1713036928] [-2770756352:1713004928] [0:1] [0:1] [0:1] [0:1] [0:1] none [0:1] [0:1] [0:1] none none none none [0:1] [0:1] none none [0:1] none [0:1] none none none none none none none none none none none [0:1] none [0:1] none none [0:1] none [0:1] none [0:1] none none none none none none [0:1] [0:1] none [0:1] [0:1] [0:1] none none [0:1] none [0:1] [0:1] none [0:1] none [0:1] none [0:1] none [0:1] [0:1] none [0:1] [0:1] [0:1] [0:1] [0:1] none [0:1] [0:1] none none [0:1] [0:1] [0:1] none none [0:1] [0:1] [0:1] [0:17]
tree_sizes=6213 7140 7140 7123 7183 7157 7173 7164 7167 7154 7177 7196 7176 7210 7232 7159 7206 7168 7184 7215 7208 7198 7219 7221 7213 7220 7237 7224 7194 7246 7205 7185 7228 7232 7253 7202 7244 7226 7246 7233 7262 7218 7227 7222 7237 7230 7242 7251 7209 7273 7243 7264 7254 7259 7248 7238 7261 7270 7292 7246 7253 7259 7249 7271 7291 7245 7246 7259 7264 7284 7253 7274 7277 7259 7272 7262 7240 7278 7262 7246 7266 7234 7280 7279 7284 7296 7303 7297 7275 7291 7314 7298 7264 7262 7304 7249 7254 7267 7290 7225 7218 7243 7232 7265 7248 7249 7286 7268 7307 7254 7259 7268 7304 7256 7246 7267 7271 7275 7269 7308 7280 7265 7241 7210 7269 7295 7265 7299 7219 7243 7210 7287 7252 7237 7261 7285 7211 7254 7296 7262 7270 7240 7286 7302 7269 7217 7276 7288 7237 7271 7267 7256 7275 7206 7238 7252 7266 7267 7210 7247 7285 7299 7275 7237 7234 7220 7236 7288 7207 7157 7283 7296 7259 7190 7231 7242 7265 7255 7254 7201 7281 7250 7263 7261 7157 7283 7264 7277 7276 7249 7240 7264 7279 7279 7249 7227 7213 7273 7291 7263 7246 7271 7247 7289 7295 7235 7232 7296 7265 7252 7269 7224 7231 7249 7289 7232 7261 7184 7235 7259 7195 7300 7209 7259 7239 7261 7268 7289 7220 7303 7278 7216 7257 7263 7220 7318 7256 7280 7283 7249 7243 7242 7252 7252 7228 7270 7232 7288 7281 7295 7243 7332 7279 7327 7278 7319 7249 7261 7295 7275 7212 7279 7262 7229 7262 7204 7174 7246 7236 7251 7248 7294 7251 7260 7300 7275 7250 7243 7238 7265 7278 7303 7285 7303 7254 7242 7215 7229 7264 7284 7285 7292 7241 7276 7232 7284 7288 7225 7298 7249 7213 7289 7235 7249 7284 7306 7265 7315 7220 7215 7261 7257 7251 7295 7251 7277 7282 7222 7291 7210 7284 7295 7318 7275 7252 7228 7289 7255 7155 7289 7255 7259 7177 7217 7280 7297 7290 7286 7238 7293 7260 7201 7247 7308 7315 7304 7295 7258 7262 7283 7218 7282 7277 7267 7256 7275 7318 7283 7277 7231 7305 7252 7295 7262 7268 7274 7254 7225 7254 7226 7271 7258 7240 7256 7282 7248 7240 7290 7288 7245 7251 7280 7255 7258 7224 7240 7290 7305 7261 7293 7280 7246 7297 7242 7242 7259 7234 7308 7238 7305 7296 7241 7269 7252 7311 7270 7261 7236 7236 7265 7266 7231 7241 7306 7275 7293 7223 7254 7248 7235 7312 7291 7279 7251 7243 7270 7280 7303 7278 7276 7234 7289 7258 7263 7238 7302 7266 7279 7239 7254 7214 7275 7253 7297 7248 7231 7278 7281 7287 7264 7341 7183 7323 7262 7191 7273 7262 7289 7297 7271 7273 7290 7277 7262 7275 7304 7256 7315 7275 7287 7226 7240 7303 7241 7300 7282 7258 7250 7247 7279 7293 7258 7288 7259 7271 7281 7307 7348 7268 7280 7292 7280 7223 7317 7261 7287 7262 7263 7298 7293

Tree=0
num_leaves=64
num_cat=0
split_feature=2547 739 2413 2167 775 2479 993 664 994 509 991 2414 1888 726 2520 722 991 1017 2409 994 522 2478 204 993 2150 835 1579 2477 1949 724 991 771 696 583 924 994 2479 994 2415 2413 2415 2396 2460 892 515 696 211 204 724 2417 1994 919 924 1906 724 560 696 512 2071 8 696 2150 1440
split_gain=93580.4 33452.8 26531.4 6543.18 5117.45 5054.91 2775.17 2641.34 2514.91 1844.46 2048.81 1291.31 1237.85 1082.17 1072.96 1017.02 898.069 895.732 843.035 777.263 703.251 603.023 646.084 579.665 574.708 721.278 802.186 524.785 521.689 508.4 828.788 505.699 473.761 449.197 441.039 408.167 504.509 379.687 379.099 364.772 346.633 341.382 339.9 337.333 308.749 307.186 329.701 306.572 303.454 295.65 285.185 271.57 289.824 264.107 262.275 254.746 369.746 254.661 249.45 244.391 238.724 237.902 420.4
threshold=1.0000000180025095e-35 1.0000000180025095e-35 3716.0000000000005 1.0000000180025095e-35 7.7033455371856698 1.0000000180025095e-35 7.0736234188079843 1.0000000180025095e-35 176.50000000000003 0.00024804289569146937 1025.0000000000002 729624.00000000012 1.0000000180025095e-35 1.0000000180025095e-35 1.0000000180025095e-35 1114112.0000000002 2281562.0000000005 1.0000000180025095e-35 570.00000000000011 55.500000000000007 0.0065503532532602557 1697187904.0000002 0.0040999238844960937 7.724191665649415 1.0000000180025095e-35 -995946.49999999988 1.0000000180025095e-35 1.5000000000000002 1.0000000180025095e-35 527.00000000000011 512.50000000000011 1.0000000180025095e-35 1401581376.0000002 0.0041556269861757764 3.1238816976547246 8.5000000000000018 -45973.499999999993 544.50000000000011 184256.00000000003 29440.000000000004 184256.00000000003 -1.4999999999999998 45.500000000000007 -1.0000000180025095e-35 0.06318532302975656 1276781824.0000002 0.017327699810266498 0.00746392970904708 40612.000000000007 24.000000000000004 1.0000000180025095e-35 -7.8089213371276847 5.5041587352752694 1.0000000180025095e-35 24245.500000000004 0.0039336681365966806 1260485824.0000002 0.00018764986452879387 1.0000000180025095e-35 0.006869212957099081 1777085888.0000002 1.0000000180025095e-35 1.0000000180025095e-35
decision_type=2 2 2 2 2 2 2 2 2 2 2 2 2 2 2 2 2 2 2 2 2 2 2 2 2 2 2 2 2 2 2 2 2 2 2 2 2 2 2 2 2 2 2 2 2 2 2 2 2 2 2 2 2 2 2 2 2 2 2 2 2 2 2
left_child=1 2 3 8 14 15 11 23 9 10 18 31 38 44 29 -2 -14 19 32 -5 -20 22 35 -6 25 -21 28 -23 33 30 42 -4 -1 -27 -25 -8 60 -19 43 -13 59 -17 -3 -11 47 -10 50 -9 -18 55 -47 -7 -53 -28 -29 -22 -57 -32 -52 -12 -37 -45 -63
right_child=5 4 6 17 7 51 21 13 45 12 40 39 16 -15 -16 41 48 37 20 24 49 27 -24 34 -26 26 53 54 -30 -31 57 -33 -34 -35 -36 36 -38 -39 -40 -41 -42 -43 -44 61 -46 46 -48 -49 -50 -51 58 52 -54 -55 -56 56 -58 -59 -60 -61 -62 62 -64
leaf_value=-0.040865384615384616 -0.13787465940054497 -0.17013829115739945 0.16013882002974716 0.18142857142857144 0.18649789029535868 -0.15280407865986889 0.12769230769230769 -0.16988027725267801 -0.11636011616650532 -0.03125 0.19523383973786121 -0.11587381071607412 0.14420767144517629 0.19805825242718447 0.14160583941605839 -0.14827586206896554 -0.059426229508196732 0.17806072477962784 0.12409152086137282 -0.18044444444444446 -0.13518821603927986 0.073333333333333334 0.13142857142857142 0.17972350230414746 -0.1632987438558165 -0.018650088809946713 -0.0053503184713375798 0.038333333333333337 -0.069485294117647062 -0.19194595134289616 -0.066853932584269665 -0.12535211267605637 0.1404345521992581 0.10162279120086548 -0.18678678678678681 0.18533333333333335 -0.13304679263644473 -0.12783505154639174 -0.10505050505050506 0.15357142857142858 -0.16470588235294117 0.19702773753956759 -0.017161716171617162 0.17943071336535085 0.15725190839694658 -0.037393328161365404 -0.10021786492374728 0.12483221476510067 0.12929782082324456 -0.13843283582089552 0.10788571428571431 -0.10686567164179105 0.09494949494949495 -0.13857199840446752 -0.17306853510277947 -0.10692307692307693 0.11327913279132791 0.12307692307692308 -0.12929292929292932 0.11369606003752347 -0.16571428571428573 -0.12525951557093426 0.18694638694638696
leaf_weight=207 90.75 4355.75 503.25 139 591.5 342.25 64 792.5 257.25 79 838.25 498.25 644.25 102 101.75 28 487 254.25 184.75 336.5 151.75 89 104 53.25 456.75 562 195.25 59 543 15022.5 177 70 470.75 692.25 82.25 74 3081.75 47.5 48.5 55 33 18638 150.5 6401.75 31.75 321.25 228.5 36.25 102.25 535 436.5 166.5 122.75 625.75 5386.75 129 183.5 116 48.5 665.25 25.25 71.25 106.25
leaf_count=828 363 17423 2013 556 2366 1369 256 3170 1029 316 3353 1993 2577 408 407 112 1948 1017 739 1346 607 356 416 213 1827 2248 781 236 2172 60090 708 280 1883 2769 329 296 12327 190 194 220 132 74552 602 25607 127 1285 914 145 409 2140 1746 666 491 2503 21547 516 734 464 194 2661 101 285 425
internal_value=3.62989e-05 -0.0747168 0.00060391 0.0785895 -0.16704 0.185507 -0.127801 5.91541e-05 0.113383 0.128445 0.0667647 0.0200443 0.154831 -0.108563 -0.181209 0.194877 0.0626974 -0.0354895 -0.00378473 -0.0495565 -0.0546835 -0.146549 -0.112985 0.143819 -0.0590183 -0.0428487 -0.0251026 -0.166834 0.0123175 -0.182873 -0.15444 0.12512 0.0850829 0.0477594 -0.0424908 -0.120856 -0.125896 0.129645 0.171764 -0.0888588 0.152195 0.196502 -0.165034 0.173796 -0.145096 -0.0187935 0.00555153 -0.156854 -0.0265142 -0.087828 0.0356147 -0.0926482 -0.0211886 -0.106934 -0.170772 -0.0293391 0.0223285 0.0085034 0.0839506 0.159256 0.0952618 0.176262 0.0616246
internal_weight=67494.2 48106 26493 16482.8 21613 19388.2 10010.2 1689.5 12630.5 11338.5 3398.25 1126.5 7940.25 962.5 19923.5 18756.8 1233.5 3852.25 1861.75 3550.5 1184 8883.75 3349 727 3411.5 2954.75 2618.25 5534.75 1797.25 19821.8 4799.25 573.25 677.75 1254.25 135.5 3245 3181 301.75 6706.75 553.25 1536.5 18666 4506.25 6658.25 860.5 1292 1034.75 828.75 589.25 999.25 806.25 631.5 289.25 821 5445.75 464.25 312.5 293 485 1503.5 99.25 6579.25 177.5
internal_count=269977 192424 105972 65931 86452 77553 40041 6758 50522 45354 13593 4506 31761 3850 79694 75027 4934 15409 7447 14202 4736 35535 13396 2908 13646 11819 10473 22139 7189 79287 19197 2293 2711 5017 542 12980 12724 1207 26827 2213 6146 74664 18025 26633 3442 5168 4139 3315 2357 3997 3225 2526 1157 3284 21783 1857 1250 1172 1940 6014 397 26317 710
is_linear=0
shrinkage=0.1


Tree=1
num_leaves=64
num_cat=0
split_feature=2547 2477 2405 720 1809 775 2477 603 2414 991 993 992 917 2414 993 2478 702 507 1680 734 1687 724 518 420 751 579 766 919 2450 364 724 603 724 381 2150 724 779 2429 696 326 709 2150 117 1701 454 2402 441 521 710 2185 775 991 263 701 364 713 777 824 517 118 1861 2241 2408
split_gain=76463.6 24504.3 15622.7 6800.31 5328.21 4808.91 3844.14 2505.18 2210.21 1979.61 1587.64 1426.44 1256.08 1150.72 1133.97 1062.59 1026.86 1014.27 979.301 928.449 794.083 748.244 608.144 607.417 512.093 491.786 559.179 458.57 432.409 476.832 475.82 418.359 415.671 412.555 378.351 376.096 357.041 326.314 324.656 309.592 305.698 421.158 295.023 288.262 287.751 287.58 283.76 282.175 280.562 269.446 240.279 232.764 270.705 231.406 221.407 218.971 203.747 203.583 203.234 203.218 201.172 180.959 186.602
threshold=1.0000000180025095e-35 1.5000000000000002 71.500000000000014 3988.0000000000005 1.0000000180025095e-35 7.6570119857788095 1.5000000000000002 0.0026385894743725662 7619072.0000000009 58409.000000000007 7.7718412876129159 0.046082271263003356 0.47559101879596716 15460652.000000002 7.9919950962066659 1694080576.0000002 1.5000000000000002 0.00015016157703939828 1.0000000180025095e-35 1.0000000180025095e-35 1.0000000180025095e-35 932574.00000000012 0.0012891588266938927 1.6767779925430663e-05 1.0000000180025095e-35 0.0033784495899453764 12.500000000000002 -7.8089213371276847 17.500000000000004 1.0000000180025095e-35 135128.50000000003 0.0061140821781009444 527.00000000000011 0.00025375935365445917 1.0000000180025095e-35 78376.000000000015 16.126984596252445 2818.0000000000005 1231299008.0000002 0.00010501269571250306 9.0000000000000018 1.0000000180025095e-35 0.0038995024515315895 1.5000000000000002 1.1811821991614126e-06 3.5000000000000004 0.00061037202249281119 66076.500000000015 1.5000000000000002 1.0000000180025095e-35 7.7208752632141122 512.50000000000011 0.020834183320403103 27.000000000000004 3.8201619645406032e-07 524800.00000000012 0.55654323101043712 540.00000000000011 0.00013513850717572498 0.012197426054626705 1.0000000180025095e-35 1.0000000180025095e-35 8196.0000000000018
decision_type=2 2 2 2 2 2 2 2 2 2 2 2 2 2 2 2 2 2 2 2 2 2 2 2 2 2 2 2 2 2 2 2 2 2 2 2 2 2 2 2 2 2 2 2 2 2 2 2 2 2 2 2 2 2 2 2 2 2 2 2 2 2 2
left_child=1 2 3 53 7 25 16 11 18 32 15 17 14 20 37 -11 -2 19 40 24 22 34 49 35 61 51 31 -8 29 56 -31 -27 -3 -32 -13 -20 -24 -7 -21 59 41 43 -40 -9 54 -18 -29 -25 -46 -6 -17 -4 -53 -1 -12 -16 -22 -44 -28 60 -19 62 -5
right_child=6 9 5 4 13 12 27 8 -10 10 44 21 -14 -15 55 50 45 39 23 38 28 -23 36 47 -26 26 58 46 -30 30 33 -33 -34 -35 -36 -37 -38 -39 42 -41 -42 -43 57 -45 48 -47 -48 -49 -50 -51 -52 52 -54 -55 -56 -57 -58 -59 -60 -61 -62 -63 -64
leaf_value=-0.18091417789772601 -0.13499952361608222 0.070515647192231662 -0.16171046495401528 -0.15258271367052834 -0.12343405386473533 0.14894613131311976 -0.13653000161229464 0.1632188399187221 -0.13087928178090458 0.15063901909275904 0.17923897953156132 0.14285562609692981 -0.18081285068630151 -0.14975273236726896 -0.15930501768006072 -0.15806037493548042 0.17977119973204669 0.11759124443467495 -0.10933650098939139 -0.14035633231728792 -0.097016990804776188 -0.058246233530874006 0.14197072331593161 0.1421365440458818 -0.17003208531284003 -0.136743339981857 -0.076941143292591357 0.08718854603510777 0.1177996786470103 -0.11581612692077251 0.11027845610970687 0.04162523412389639 -0.17122152791359199 -0.067035314466155113 -0.15813756706887092 0.12132515974045398 -0.010309941939337286 -0.08292529050981351 0.021245389084911526 -0.016679437516772151 -0.1109388547166361 -0.073694641388802509 0.021009408775936583 -0.10864158883178149 -0.1346373785851111 -0.1394545282764576 -0.090544079232909053 0.020370802204872418 0.061217839614783109 0.040757780380424109 0.081576025973842434 -0.13576832437167793 -0.0030073363849742333 -0.0029514843375115936 -0.15569272431559095 -0.0070496942985278609 0.077122733231940632 -0.12635660107389782 0.10950364886161944 -0.080810702302621731 -0.0080279773892369208 -0.11654323344155765 0.11816879831883116
leaf_weight=1293.3757711201906 103.87562325596809 70.951157063245773 5758.1207430809736 25.895883843302727 215.50219017267227 963.59657052159309 356.34476524591446 5925.5687535554171 313.33418989181519 422.32124568521976 54.252366572618484 1614.3178029805422 213.72124019265175 742.00382353365421 148.06887160241604 200.03922553360462 18314.346365302801 981.20548102259636 269.79719570279121 587.46822170913219 84.296006366610527 227.03442400693893 599.59739774465561 607.59440846741199 85.092905506491661 1248.7307551056147 89.832031697034836 240.03159682452679 148.35294680297375 1210.123189240694 200.05868437886238 146.50526124238968 15901.271253541112 376.76911267638206 42.082643926143646 94.742144271731377 206.87096385657787 64.151151567697525 387.27285720407963 340.0710784047842 41.763934791088104 76.625720724463463 120.64637161791325 38.618474900722504 2110.0297380834818 27.580324843525887 142.23167322576046 277.44871288537979 75.222871512174606 184.94181177020073 52.164287745952606 700.55287416279316 196.69431194663048 77.472851425409317 29.782243996858597 258.1113713234663 316.68769551813602 415.41392210125923 163.49562373757362 64.081110700964928 146.35669988393784 38.517505690455437 533.02488631010056
leaf_count=5214 418 285 23206 104 865 3885 1434 23880 1259 1699 218 6498 861 2981 596 805 73970 3950 1082 2359 338 912 2412 2446 342 5033 361 965 596 4862 803 590 64137 1513 169 381 830 258 1555 1367 168 308 485 155 8497 111 571 1113 303 743 210 2822 793 312 120 1036 1270 1670 657 258 588 155 2141
internal_value=-8.19262e-05 -0.0677954 -0.00981607 0.0435562 0.0603241 -0.111228 0.168549 0.0916624 0.128896 -0.156254 -0.0808599 0.0408914 0.0448075 -0.0366029 0.0785379 0.0537794 0.177507 0.00502347 0.140014 -0.0385766 -0.0128719 0.111791 0.0529665 0.0593193 0.0581644 -0.14219 -0.0931933 -0.0550858 -0.0468918 -0.0581074 -0.0802142 -0.117998 -0.170143 -0.00545393 0.135118 -0.0492207 0.102944 0.134406 -0.0822907 0.0674409 0.156579 0.158446 -0.0452347 0.161441 -0.120886 0.179284 0.0209945 0.104031 -0.127871 -0.0476908 -0.108369 -0.154311 -0.1067 -0.170866 0.0601027 -0.0628078 0.0403643 -0.0932129 0.0433463 0.091441 0.101293 0.0908961 0.105374
internal_weight=66962.1 47777.6 28861.6 18910 17539.2 9951.58 19184.4 13254 7645.49 18916 2943.81 5608.48 1647.65 4285.2 1433.93 674.525 18445.8 3725.05 7332.16 2193.33 3543.2 1883.43 1206.91 1249.58 682.531 8303.93 1648.56 738.608 2336.29 2187.93 1786.95 1395.24 15972.2 576.828 1656.4 364.539 806.468 1027.75 1510.8 1531.71 6082.58 6040.81 923.333 5964.19 2269.29 18341.9 382.263 885.043 2185.25 400.444 252.204 6655.37 897.247 1370.85 84.0346 406.18 400.984 536.06 253.328 1191.64 1127.56 597.438 558.921
internal_count=269925 192456 116182 76084 70558 40098 77469 53345 30792 76274 11852 22553 6636 17213 5775 2714 74499 14974 29533 8811 14232 7579 4850 5022 2742 33462 6641 2970 9382 8786 7178 5623 64422 2316 6667 1463 3242 4143 6069 6163 24511 24343 3710 24035 9138 74081 1536 3559 8800 1608 1015 26821 3615 5526 338 1632 1608 2155 1018 4796 4538 2400 2245
is_linear=0
shrinkage=0.1


Tree=2
num_leaves=64
num_cat=0
split_feature=2547 739 2413 2167 775 2479 993 603 2413 924 1888 991 724 2520 722 2150 835 1906 0 2450 509 874 724 204 1933 583 522 2478 724 992 2415 943 1683 993 1833 2409 2405 1 2567 687 705 701 923 2150 2413 2418 1752 655 924 2365 892 1622 835 709 696 160 2437 697 822 913 755 777 85
split_gain=63705.5 23313 17974.2 4615.3 3615.37 3500.39 1891.79 1779.53 1299.49 1614.02 1160.92 1144.28 944.338 828.947 702.211 664.443 708.669 795.867 659.901 624.956 624.444 638.524 472.443 479.283 467.957 412.92 407.44 391.958 371.534 644.195 364.863 364.153 359.076 358.475 349.486 558.315 479.351 325.527 387.141 358.018 321.556 318.514 306.094 273.517 273.273 266.591 247.978 242.569 237.787 236.815 232.418 231.909 230.084 227.869 224.989 222.298 209.096 284.737 209.096 209.072 208.652 226.335 208.018
threshold=1.0000000180025095e-35 1.0000000180025095e-35 3716.0000000000005 1.0000000180025095e-35 7.7033455371856698 1.0000000180025095e-35 7.0736234188079843 0.0022829183144494896 7780.0000000000009 7.6556487083435067 1.0000000180025095e-35 1557.0000000000002 781100.00000000012 1.0000000180025095e-35 1114112.0000000002 1.0000000180025095e-35 -995946.49999999988 1.0000000180025095e-35 4838116.5000000009 63.500000000000007 0.00039282614307012414 490.00000000000006 24245.500000000004 0.0040999238844960937 1.0000000180025095e-35 0.0028691606130450968 0.048797907307744033 1620313856.0000002 527.00000000000011 0.035024551674723632 184256.00000000003 1.0000000180025095e-35 1.0000000180025095e-35 7.7718412876129159 1.0000000180025095e-35 510.00000000000006 84.500000000000014 6.7833364009857187 1.0000000180025095e-35 1.0000000180025095e-35 6.5000000000000009 33.000000000000007 -4.4312486648559561 1.0000000180025095e-35 29440.000000000004 1208.0000000000002 1.0000000180025095e-35 16.500000000000004 3.0518454313278203 -1.4999999999999998 -1.0000000180025095e-35 1.5000000000000002 -112639.99999999999 9.0000000000000018 1276781824.0000002 0.0035469167632982139 1.0000000180025095e-35 3.5000000000000004 -4879103.9999999991 6.5560593605041513 1.5000000000000002 0.99340111017227184 0.0021695567993447189
decision_type=2 2 2 2 2 2 2 2 2 2 2 2 2 2 2 2 2 2 2 2 2 2 2 2 2 2 2 2 2 2 2 2 2 2 2 2 2 2 2 2 2 2 2 2 2 2 2 2 2 2 2 2 2 2 2 2 2 2 2 2 2 2 2
left_child=1 2 3 7 13 14 12 11 9 33 24 20 27 28 -2 16 -5 25 42 40 21 26 -8 37 41 -18 -1 -4 29 34 43 45 58 -6 -3 36 -36 -24 -39 -40 52 50 -12 -13 -14 54 -42 -27 -35 -16 55 59 -19 -52 -23 -9 57 -10 -22 -44 -31 -62 -25
right_child=5 4 6 15 8 -7 22 10 56 -11 18 30 44 -15 49 -17 17 19 -20 -21 32 31 23 62 -26 47 -28 -29 -30 60 -32 -33 -34 48 35 -37 -38 38 39 -41 46 -43 51 -45 -46 -47 -48 -49 -50 -51 53 -53 -54 -55 -56 -57 -58 -59 -60 -61 61 -63 -64
leaf_value=0.10999655947612726 -0.11678418671317004 -0.1584131759862448 0.13779634373748989 -0.15394101278888528 0.15450116793902596 -0.077904457764060728 0.057637629515639291 0.17683878415041768 -0.16842313473415826 -0.14607262033182977 -0.040029277239997933 0.12884063622925779 -0.10175328704489953 0.13000535854046252 -0.1034764673090854 -0.14079701912552084 -0.033280321787928765 0.14859028676141797 -0.047558023013976637 0.14885511637671064 -0.11630641129926743 -0.10783377200529079 -0.14918434008496936 -0.11586490194058825 -0.097443369032412464 0.11602294083111993 -0.058884117061666442 -0.10370628912735864 -0.16197474467047648 -0.1574663298757982 -0.13071676450816627 0.1595589348487739 -0.069820564347251909 0.15595036396404993 0.15283120220968185 -0.13987514114354388 -0.072822140235682717 -0.12087896192307022 0.12747876913040943 -0.071617209103999754 0.028319984698536884 -0.20480925275725592 0.14928415450946078 -0.10731691416241161 0.13778016721896638 -0.11898829298297786 -0.13575686618400773 -0.030991772335544506 -0.15202027883684843 0.16573095496564835 0.15218639718555954 -0.16686579031704962 -0.1059299548672297 -0.028647756072720954 0.020722859317457435 -0.16214213987627688 -0.15780247893159174 0.16657169923629145 0.1085135572432008 -0.029776005701307551 0.14457566194560079 -0.06181344824604236 0.11135482979102232
leaf_weight=454.71523283421993 88.058718293905258 2961.0314753651619 500.10046152770519 328.05635131895542 745.46043936908245 618.75336939096451 144.00079227983952 31.812358170747757 48.626731500029564 280.80972190201283 140.8482823818922 1581.4632168710232 486.74180079996586 102.54166847467422 32.114013403654099 476.06684003770351 340.42753115296364 36.035619452595711 513.22073884308338 153.33082556724548 42.72846157848835 213.68895341455936 3919.5259899348021 59.211617425084114 79.022372499108315 797.54183030128479 207.33239297568798 76.867310270667076 14599.441580563784 52.590653538703918 58.631873533129692 68.599984630942345 149.50388200581074 38.284779772162437 133.23982533812523 997.17670018970966 314.14402566850185 3851.8768346011639 111.51321555674076 457.55801276862621 475.80792383849621 24.881674081087112 644.72767090797424 49.89397981762886 51.91402967274189 662.58189727365971 113.16885443031788 130.15385304391384 68.42629936337471 17988.25945211947 6036.3069206625223 26.257068261504173 959.95821924507618 70.201390326023102 371.37562404572964 46.164991408586502 432.62377439439297 50.916049256920815 835.77763718366623 72.196368128061295 132.39026352763176 87.565908342599869 121.01823252439499
leaf_count=1838 358 12157 2044 1341 3062 2510 581 128 200 1153 569 6449 1970 415 131 1938 1368 145 2066 620 172 866 16108 242 319 3226 836 312 60259 213 237 278 604 156 537 4083 1286 15744 453 1860 1920 101 2626 201 211 2687 458 523 281 74523 24790 106 3877 285 1496 185 1774 206 3394 291 534 353 492
internal_value=-9.34993e-05 -0.0622176 0.00116786 0.0658191 -0.140441 0.155876 -0.105866 0.0954344 0.000959785 0.0614971 0.125067 0.0469225 0.0166893 -0.152589 0.163868 -0.0304122 -0.0146149 0.000634249 0.0425787 -0.0433014 0.00990255 -0.0229514 -0.121645 -0.124682 0.143386 0.0608465 0.0570994 0.105498 -0.154099 -0.129491 0.112732 -0.0632283 0.0730873 0.129987 -0.138719 -0.0982688 -0.00542711 -0.128168 -0.109506 -0.0324479 -0.0619729 0.146466 0.094902 0.121557 -0.0784552 -0.0755959 -0.00338321 0.0953859 -0.0411075 0.165245 0.147913 0.120494 -0.0965815 0.150103 -0.026335 -0.0233603 -0.127798 0.00287892 0.097459 0.131236 0.0196372 0.062503 0.036478
internal_weight=65745.3 47018.1 25972.8 16192.5 21045.3 18727.2 9780.33 12381.9 1665.15 1132.98 7685.64 4696.29 1115.62 19380.1 18108.4 3810.55 3334.48 3006.42 1397.25 1738.3 3006.3 1978.29 8664.7 8520.7 6288.39 1268.12 662.048 576.968 19277.6 4678.14 1689.99 1316.25 1028.01 852.172 4405.59 1444.56 447.384 8340.47 4420.95 569.071 1584.97 6209.37 884.029 1631.36 538.656 1247.65 588.977 927.696 106.711 18020.4 6184.49 743.181 995.994 6106.51 585.065 77.9773 532.167 99.5428 878.506 716.924 272.547 219.956 180.23
internal_count=270148 192626 105957 65940 86669 77522 40017 50524 6832 4652 31466 19058 4537 79837 75012 15416 13478 12137 5658 7020 12171 8001 35480 34899 25808 5117 2674 2356 79422 19163 6887 5327 4170 3499 18063 5906 1823 34165 18057 2313 6400 25489 3592 6650 2181 5049 2378 3749 437 74654 25388 3023 4022 25075 2362 313 2180 406 3566 2917 1100 887 734
is_linear=0
shrinkage=0.1


Tree=3
num_leaves=64
num_cat=0
split_feature=2413 509 2406 2567 720 991 2478 1687 720 1350 649 874 722 2451 775 724 2407 943 664 157 991 2415 2414 2407 724 1489 674 204 9 520 994 262 1682 702 722 775 771 724 751 2241 1929 11 2408 786 676 773 2429 2530 896 2460 913 724 721 835 79 562 775 1077 895 895 565 720 2413
split_gain=46833.3 26006.5 8585.61 5182.1 3931.08 2138.76 2013.49 1668.76 1540.27 1088.97 1057.78 1038.18 1033.62 1030.3 980.138 899.313 818.623 721.896 655.683 571.396 567.456 539.751 435.839 435.216 430.145 424.812 420.278 401.328 399.311 393.612 377.143 367.053 363.714 347.081 305.695 470.01 305.102 299.91 293.996 296.283 280.127 263.597 254.271 251.046 233.189 246.078 229.783 229.2 228.406 226.166 218.635 396.856 214.755 211.653 206.644 206.246 204.633 204.13 213.07 203.065 255.476 242.627 207.895
threshold=4316.0000000000009 0.0016181601677089932 8760.0000000000018 1.0000000180025095e-35 3988.0000000000005 1557.0000000000002 1503553792.0000002 1.0000000180025095e-35 1.0000000180025095e-35 1.5000000000000002 1.5000000000000002 649.00000000000011 6238240768.000001 1.0000000180025095e-35 7.7033455371856698 527.00000000000011 2418.0000000000005 1.0000000180025095e-35 9.5000000000000018 0.0040091564878821382 10660.000000000002 86410.000000000015 11018044.000000002 5498.0000000000009 527.00000000000011 1.0000000180025095e-35 2.5000000000000004 0.0040246471762657174 0.0067027192562818536 7.6123104095458993 270.50000000000006 0.14926075190305713 1.0000000180025095e-35 4.0000000000000009 29523968.000000004 7.5941598415374765 3.5000000000000004 53094.500000000007 1.0000000180025095e-35 1.0000000180025095e-35 1.0000000180025095e-35 0.013078940566629173 104702.00000000001 -175.99999999999997 35.500000000000007 1.5000000000000002 850.00000000000011 1.0000000180025095e-35 -6.1297738552093497 1.0000000180025095e-35 6.5560593605041513 44668.500000000007 10240.000000000002 -2281471.9999999995 0.0054688688833266505 0.0034965331433340911 7.7822382450103769 1.0000000180025095e-35 7.0605459213256845 5.2805104255676278 0.0087628317996859568 728467.00000000012 9716.0000000000018
decision_type=2 2 2 2 2 2 2 2 2 2 2 2 2 2 2 2 2 2 2 2 2 2 2 2 2 2 2 2 2 2 2 2 2 2 2 2 2 2 2 2 2 2 2 2 2 2 2 2 2 2 2 2 2 2 2 2 2 2 2 2 2 2 2
left_child=1 2 4 7 -1 11 10 9 -5 16 19 33 21 17 -8 25 32 26 -16 24 43 31 -12 40 -2 -9 -13 37 41 -14 -17 -10 34 55 49 54 47 -20 39 44 -7 -22 -18 48 45 -28 -15 52 -4 50 -3 -52 53 -26 -36 -6 -23 58 -55 61 -61 -39 -63
right_child=6 3 20 8 5 23 14 15 12 -11 22 13 29 46 18 30 42 -19 27 -21 28 56 -24 -25 36 -27 38 -29 -30 -31 -32 -33 -34 -35 35 -37 -38 59 -40 -41 -42 -43 -44 -45 -46 -47 -48 -49 -50 -51 51 -53 -54 57 -56 -57 -58 -59 -60 60 -62 62 -64
leaf_value=-0.15205615805859793 0.10115155275866528 0.1433971858832018 0.087520787507586323 -0.12863467800979897 0.025001371036482339 0.13696477656818593 -0.14967514034758028 -0.078312917322129194 0.15437257974171981 -0.11746474415910729 0.13285689292781952 -0.09821770675590015 0.14051075283130512 0.14876619208640729 0.13448210022483226 0.1036438234080076 -0.11604875779447775 0.14465522432613717 0.096917688020705842 0.12751815081427045 0.1245907421377144 -0.10061651298431661 -0.11046030202006736 -0.047591838731337974 0.17397018929441474 0.076923915417462962 0.0079129940309739799 0.07212264924088857 -0.094102223538372831 -0.12700123224605675 -0.071441358243718833 0.0098273474136861307 -0.10719931304938668 -0.1779404187997656 -0.091599224949099167 0.13164555581575038 0.14812593374356928 -0.13823381330208903 -0.16472429487273291 -0.12544692157717474 -0.066607023313476441 -0.10853085852885927 0.025644136585714395 -0.013212337413970147 -0.12765240864935315 0.13840901492073057 -0.050315790218188008 0.10642070457307887 -0.13840293194119752 0.045753154781651789 -0.078517043454712165 0.15938966556927062 0.066882144169856453 -0.11255706994366532 0.070654445623784187 0.11733033634774395 0.11816910488791971 0.027973547191210237 0.068846857913490531 -0.09358948334418421 0.063111288983806552 0.036388998690942552 -0.097532383620292207
leaf_weight=1085.8102214932442 119.78538531064987 2689.1443128287792 44.447611093521118 201.56012667715549 323.83884382247925 2505.517610475421 13243.264836102724 1493.128769338131 18980.118127390742 260.07727490365505 365.14568302035332 1266.2385839223862 77.088678881525993 386.40933156013489 123.35612966120243 630.30002737045288 170.04529169201851 189.61829234659672 70.769067510962486 130.83621199429035 182.5772635191679 114.94147512316704 91.33052459359169 142.7698320299387 26.746743023395538 199.05405920743942 765.34086674451828 130.99014319479465 460.05901727080345 185.41444352269173 152.05203269422054 177.46276795864105 75.518569022417068 47.760929837822914 212.87176044285297 364.66305394470692 51.720491856336594 2093.3188699483871 122.52777880430222 168.35954897105694 68.909932464361191 65.056006416678429 487.02635443210602 169.12704856693745 99.534824565052986 177.17820145189762 67.674246490001678 55.023374527692795 6174.505196005106 318.31283013522625 128.65962997078896 151.89524567127228 76.632795974612236 3095.6783922314644 123.10227137804031 963.21223564445972 66.740830659866333 112.67920219898224 65.506165221333504 416.01111428439617 137.84388199448586 143.90508840978146 585.52183990180492
leaf_count=4625 498 11283 181 854 1328 10571 56458 6141 81360 1094 1527 5210 328 1615 503 2614 690 798 286 550 754 472 377 584 108 823 3118 539 1920 783 625 744 309 196 890 1534 215 8759 503 692 283 271 1984 701 404 746 276 229 26082 1320 522 631 324 12922 509 3979 278 469 270 1744 571 597 2434
internal_value=0.000152217 0.0603719 -0.0431563 0.11915 0.025378 0.0518055 -0.121605 0.0480826 0.145902 0.0814218 -0.0595237 0.0100818 0.148732 -0.0204739 -0.136955 -0.0190361 0.0924004 -0.0432264 -0.0914205 -0.077089 -0.124093 0.151407 0.0840396 0.122068 -0.0845507 -0.0600175 -0.0569833 -0.0992433 -0.0390632 -0.0482065 0.0695678 0.153034 0.10914 0.0842755 0.113262 0.0531839 -0.0909626 -0.105774 -0.0177681 -0.00276836 0.131492 0.0631569 -0.0111456 -0.133506 0.0171535 0.0325648 0.119051 -0.0946075 -0.136774 0.126043 0.134631 0.0503967 -0.0979133 -0.101759 -0.0321156 0.0941366 -0.0200389 -0.104064 -0.108777 -0.110049 -0.0545462 -0.120917 -0.071098
internal_weight=63871.7 42735.7 15476.5 27259.2 8380.7 7294.89 21136.1 7455.85 19803.3 4981.32 4191.08 4577.69 19601.8 3242.88 16945 2474.53 4721.24 2788.8 3701.72 3734.61 7095.77 19339.3 456.476 2717.2 3603.77 1692.18 2599.18 3578.36 707.692 262.503 782.352 19157.6 4064.17 1334.81 3988.65 700.637 3483.99 3447.37 1332.94 1210.41 2574.43 247.633 657.072 6388.08 1042.05 942.519 454.084 3432.27 6218.95 3288.01 2969.7 280.555 3377.24 3300.61 335.974 1287.05 181.682 3273.86 3161.18 3376.6 553.855 2822.75 729.427
internal_count=270005 180625 64837 115788 34928 30303 89380 30969 84819 20766 17489 18865 83965 13362 71891 10203 19672 11471 15433 15585 29909 82854 1904 11438 15035 6964 10673 14930 2945 1111 3239 82104 16998 5503 16689 2933 14537 14391 5463 4960 10854 1025 2674 26964 4268 3864 1891 14322 26263 13756 12436 1153 14093 13769 1399 5307 750 13661 13192 14105 2315 11790 3031
is_linear=0
shrinkage=0.1


Tree=4
num_leaves=64
num_cat=0
split_feature=2547 739 2414 2167 775 2479 2478 603 2414 2425 2413 991 1888 751 2520 649 722 1871 2150 835 1579 486 0 2413 1949 1902 2407 647 724 992 716 1833 2409 510 696 584 2415 822 204 939 1351 769 2206 123 1827 2337 724 558 400 924 758 664 708 1871 565 923 913 2479 724 1553 1802 56 713
split_gain=45565.3 17092.9 12096.8 3299.7 2625.53 2514.03 1313.3 1285.7 1008.06 955.552 961.792 888.326 859.18 739.058 594.455 592.852 551.906 523.35 522.797 565.858 609.419 511.391 467.788 410.916 389.321 367.71 358.041 343.168 327.017 487.43 321.718 320.97 470.382 309.858 348.221 295.484 290.8 279.465 274.709 262.659 249.978 248.555 243.807 236.28 233.146 224.362 216.08 211.689 205.173 220.395 201.407 196.236 193.96 188.125 183.586 176.848 187.091 176.842 164.886 162.688 157.49 156.533 155.252
threshold=1.0000000180025095e-35 1.0000000180025095e-35 9228.0000000000018 1.0000000180025095e-35 7.7033455371856698 1.0000000180025095e-35 1694080576.0000002 0.0025084482040256266 15460652.000000002 190.00000000000003 7780.0000000000009 512.50000000000011 1.0000000180025095e-35 1.0000000180025095e-35 1.0000000180025095e-35 1.5000000000000002 1114112.0000000002 1.0000000180025095e-35 1.0000000180025095e-35 -995946.49999999988 1.0000000180025095e-35 0.0013080838252790274 4838116.5000000009 7260.0000000000009 1.0000000180025095e-35 1.0000000180025095e-35 1.0000000180025095e-35 36.500000000000007 527.00000000000011 0.035024551674723632 4096576.0000000005 1.0000000180025095e-35 510.00000000000006 0.00023271875397767874 1695388352.0000002 0.0029352578567340974 194188.00000000003 -4879103.9999999991 0.0038171877386048441 -1.0000000180025095e-35 1.0000000180025095e-35 172.00000000000003 1.0000000180025095e-35 0.012310221325606109 1.0000000180025095e-35 -3.4999999999999996 78376.000000000015 0.0070758124347776183 4.7858983975856983e-07 5.5041587352752694 1.0000000180025095e-35 1.0000000180025095e-35 1.0000000180025095e-35 1.0000000180025095e-35 0.0012952581164427104 -4.4312486648559561 6.5560593605041513 1.0000000180025095e-35 24245.500000000004 1.0000000180025095e-35 1.0000000180025095e-35 0.0036360970698297028 311552.00000000006
decision_type=2 2 2 2 2 2 2 2 2 2 2 2 2 2 2 2 2 2 2 2 2 2 2 2 2 2 2 2 2 2 2 2 2 2 2 2 2 2 2 2 2 2 2 2 2 2 2 2 2 2 2 2 2 2 2 2 2 2 2 2 2 2 2
left_child=1 2 3 7 14 16 8 11 15 10 26 13 27 17 28 21 -2 33 19 -5 24 25 53 -8 35 57 -6 42 29 31 -22 -3 40 34 39 -21 43 -35 41 -1 54 -23 -9 -13 -28 -18 -24 -19 -7 -50 -41 -11 -36 55 -33 -14 -57 -4 -25 -37 -39 -45 -44
right_child=5 4 6 18 9 48 23 12 -10 51 -12 36 22 -15 -16 -17 45 47 -20 20 30 38 46 58 -26 -27 44 -29 -30 -31 -32 32 -34 37 52 59 -38 60 -40 50 -42 -43 62 61 -46 -47 -48 -49 49 -51 -52 -53 -54 -55 -56 56 -58 -59 -60 -61 -62 -63 -64
leaf_value=0.12243252493375663 -0.10633880052462191 -0.13968208510968635 0.12338748198546429 -0.14162236667091152 -0.15392729039930347 -0.1280350836750038 0.076361419811581593 0.13336138960838359 -0.1163685323626589 0.13136969977907809 -0.09507590043632913 0.13362254590002276 -0.02559220707321427 -0.13829255145627029 0.1097633068749304 0.10219647434482787 -0.15883314527233483 0.04310386011757919 -0.12803951382629164 -0.013340193130289588 -0.087404167436826871 0.072958398228847463 -0.069869518569664113 0.026935321504790374 -0.039672391519174149 -0.08501919997533415 0.1373218410689937 -0.052781295750270685 -0.14324413678037434 0.02045616119484879 0.12872680957431692 -0.057096535705497768 -0.12049103517957292 -0.12489775076676135 0.093367669085384825 0.093082065959910434 -0.1177982565414098 0.11517015971470923 0.10882935010132089 -0.071870988083035145 -0.087924897729035958 -0.075909464348989875 -0.10082734203701345 0.086123745639535176 -0.06711304655311294 0.14689531267111788 0.1085373289970443 -0.10623043541803819 -0.077314601747042716 0.085848817825304916 0.15222207938184285 -0.14966872379515009 -0.091477752177470117 -0.044298168584837698 0.12249626898062121 0.1410283451696176 -0.030223319397232287 -0.042271944463324281 -0.12558672054729661 -0.15738789063484171 -0.08316336439925115 -0.026432199409966124 0.11758701457997343
leaf_weight=94.231272161006927 86.146738618612289 2775.5655916780233 376.08987836539745 305.91626124083996 49.414393663406372 264.79934519529343 104.27730096876621 5402.8630792349577 1325.5694111436605 25.833720907568932 338.44424483180046 1094.567261070013 94.73719610273838 305.09432579576969 98.668017163872719 399.00837951898575 23.268574506044388 127.69723643362522 445.89040593802929 409.95635801553726 794.32133133709431 119.95149774849415 410.32240636646748 71.532191321253777 556.48965819180012 150.06024612486362 716.85447318851948 104.03742967545986 13490.600639656186 261.91033156216145 74.522258445620537 82.035421684384346 930.03961111605167 55.305873408913612 508.48801313340664 1020.4834672808647 59.643140971660614 811.82182992994785 94.749430269002914 568.11616945266724 172.47000625729561 1578.4702260196209 73.218442589044571 479.30997829139233 59.900293722748756 16584.683201625943 80.380877822637558 363.700070053339 201.94088369607925 138.83709000051022 42.219929188489914 378.95980870723724 63.081136777997017 100.78821155428886 181.36697995662689 541.86783483624458 71.929755955934525 77.200651556253433 5200.8458276689053 25.734257429838181 41.423793941736221 165.81768573820591 56.960264220833778
leaf_count=388 361 12166 1583 1305 215 1114 439 23642 5605 112 1461 4695 384 1284 414 1698 95 529 1877 1661 3278 504 1663 289 2272 628 3125 433 59983 1081 311 346 4028 225 2100 4220 247 3407 392 2347 731 6704 302 2030 251 74556 329 1498 837 562 172 1645 259 416 752 2327 291 327 22708 104 169 693 238
internal_value=0.000213092 -0.0534176 0.00162832 0.0565086 -0.123336 0.137886 -0.0870697 0.0823237 -0.0445802 0.000709252 0.0467194 0.0424082 0.10982 0.00890958 -0.134155 -0.0105105 0.145147 0.0257371 -0.026746 -0.0125403 0.00120808 -0.0293105 0.0365022 -0.119623 0.0314228 0.0502679 0.104851 0.12672 -0.135506 -0.111774 -0.0687396 -0.120139 -0.0803534 0.0467109 0.0149109 0.058601 0.0978736 0.0913112 -0.0560994 -0.0321224 0.00536978 -0.0653589 0.130104 0.105331 0.121491 0.146457 -0.0404838 -0.0674149 -0.0621802 -0.0107832 -0.0561457 -0.131453 0.0728431 0.0831723 0.0665585 0.101342 0.120943 0.0951428 -0.123513 0.0867767 0.105455 0.0571973 -0.00509133
internal_weight=61710.4 44410.8 24848.7 15350.9 19562.1 17299.7 9497.76 11717.6 4121.1 1569.41 1164.61 4780.52 6937.11 2981.18 17992.7 2795.53 16694.1 2676.09 3633.31 3187.42 2881.51 2396.52 1300.03 5376.66 2012.66 603.351 826.169 5637.08 17894 4403.39 868.844 4141.48 1365.91 2184.69 1276.14 1456.17 1799.34 908.551 1793.17 704.567 435.872 1698.42 5533.04 1739.69 776.755 16608 490.703 491.397 605.577 340.778 610.336 404.794 571.569 809.323 263.402 708.535 613.798 453.291 5272.38 1046.22 853.246 645.128 130.179
internal_count=269808 192283 105973 65096 86310 77525 40877 50068 17441 6809 5052 20043 30025 12378 79501 11836 75012 11094 15028 13151 11846 10138 5410 23436 8257 2538 3591 24615 79087 19104 3589 18023 5857 9067 5266 5985 7665 3801 7600 2907 1829 7208 24182 7418 3376 74651 1992 2027 2513 1399 2519 1757 2359 3418 1098 3002 2618 1910 22997 4324 3576 2723 540
is_linear=0
shrinkage=0.1


Tree=5
num_leaves=64
num_cat=0
