tree
version=v4
num_class=1
num_tree_per_iteration=1
label_index=0
max_feature_idx=2567
objective=binary sigmoid:1
feature_names=Column_0 Column_1 Column_2 Column_3 Column_4 Column_5 Column_6 Column_7 Column_8 Column_9 Column_10 Column_11 Column_12 Column_13 Column_14 Column_15 Column_16 Column_17 Column_18 Column_19 Column_20 Column_21 Column_22 Column_23 Column_24 Column_25 Column_26 Column_27 Column_28 Column_29 Column_30 Column_31 Column_32 Column_33 Column_34 Column_35 Column_36 Column_37 Column_38 Column_39 Column_40 Column_41 Column_42 Column_43 Column_44 Column_45 Column_46 Column_47 Column_48 Column_49 Column_50 Column_51 Column_52 Column_53 Column_54 Column_55 Column_56 Column_57 Column_58 Column_59 Column_60 Column_61 Column_62 Column_63 Column_64 Column_65 Column_66 Column_67 Column_68 Column_69 Column_70 Column_71 Column_72 Column_73 Column_74 Column_75 Column_76 Column_77 Column_78 Column_79 Column_80 Column_81 Column_82 Column_83 Column_84 Column_85 Column_86 Column_87 Column_88 Column_89 Column_90 Column_91 Column_92 Column_93 Column_94 Column_95 Column_96 Column_97 Column_98 Column_99 Column_100 Column_101 Column_102 Column_103 Column_104 Column_105 Column_106 Column_107 Column_108 Column_109 Column_110 Column_111 Column_112 Column_113 Column_114 Column_115 Column_116 Column_117 Column_118 Column_119 Column_120 Column_121 Column_122 Column_123 Column_124 Column_125 Column_126 Column_127 Column_128 Column_129 Column_130 Column_131 Column_132 Column_133 Column_134 Column_135 Column_136 Column_137 Column_138 Column_139 Column_140 Column_141 Column_142 Column_143 Column_144 Column_145 Column_146 Column_147 Column_148 Column_149 Column_150 Column_151 Column_152 Column_153 Column_154 Column_155 Column_156 Column_157 Column_158 Column_159 Column_160 Column_161 Column_162 Column_163 Column_164 Column_165 Column_166 Column_167 Column_168 Column_169 Column_170 Column_171 Column_172 Column_173 Column_174 Column_175 Column_176 Column_177 Column_178 Column_179 Column_180 Column_181 Column_182 Column_183 Column_184 Column_185 Column_186 Column_187 Column_188 Column_189 Column_190 Column_191 Column_192 Column_193 Column_194 Column_195 Column_196 Column_197 Column_198 Column_199 Column_200 Column_201 Column_202 Column_203 Column_204 Column_205 Column_206 Column_207 Column_208 Column_209 Column_210 Column_211 Column_212 Column_213 Column_214 Column_215 Column_216 Column_217 Column_218 Column_219 Column_220 Column_221 Column_222 Column_223 Column_224 Column_225 Column_226 Column_227 Column_228 Column_229 Column_230 Column_231 Column_232 Column_233 Column_234 Column_235 Column_236 Column_237 Column_238 Column_239 Column_240 Column_241 Column_242 Column_243 Column_244 Column_245 Column_246 Column_247 Column_248 Column_249 Column_250 Column_251 Column_252 Column_253 Column_254 Column_255 Column_256 Column_257 Column_258 Column_259 Column_260 Column_261 Column_262 Column_263 Column_264 Column_265 Column_266 Column_267 Column_268 Column_269 Column_270 Column_271 Column_272 Column_273 Column_274 Column_275 Column_276 Column_277 Column_278 Column_279 Column_280 Column_281 Column_282 Column_283 Column_284 Column_285 Column_286 Column_287 Column_288 Column_289 Column_290 Column_291 Column_292 Column_293 Column_294 Column_295 Column_296 Column_297 Column_298 Column_299 Column_300 Column_301 Column_302 Column_303 Column_304 Column_305 Column_306 Column_307 Column_308 Column_309 Column_310 Column_311 Column_312 Column_313 Column_314 Column_315 Column_316 Column_317 Column_318 Column_319 Column_320 Column_321 Column_322 Column_323 Column_324 Column_325 Column_326 Column_327 Column_328 Column_329 Column_330 Column_331 Column_332 Column_333 Column_334 Column_335 Column_336 Column_337 Column_338 Column_339 Column_340 Column_341 Column_342 Column_343 Column_344 Column_345 Column_346 Column_347 Column_348 Column_349 Column_350 Column_351 Column_352 Column_353 Column_354 Column_355 Column_356 Column_357 Column_358 Column_359 Column_360 Column_361 Column_362 Column_363 Column_364 Column_365 Column_366 Column_367 Column_368 Column_369 Column_370 Column_371 Column_372 Column_373 Column_374 Column_375 Column_376 Column_377 Column_378 Column_379 Column_380 Column_381 Column_382 Column_383 Column_384 Column_385 Column_386 Column_387 Column_388 Column_389 Column_390 Column_391 Column_392 Column_393 Column_394 Column_395 Column_396 Column_397 Column_398 Column_399 Column_400 Column_401 Column_402 Column_403 Column_404 Column_405 Column_406 Column_407 Column_408 Column_409 Column_410 Column_411 Column_412 Column_413 Column_414 Column_415 Column_416 Column_417 Column_418 Column_419 Column_420 Column_421 Column_422 Column_423 Column_424 Column_425 Column_426 Column_427 Column_428 Column_429 Column_430 Column_431 Column_432 Column_433 Column_434 Column_435 Column_436 Column_437 Column_438 Column_439 Column_440 Column_441 Column_442 Column_443 Column_444 Column_445 Column_446 Column_447 Column_448 Column_449 Column_450 Column_451 Column_452 Column_453 Column_454 Column_455 Column_456 Column_457 Column_458 Column_459 Column_460 Column_461 Column_462 Column_463 Column_464 Column_465 Column_466 Column_467 Column_468 Column_469 Column_470 Column_471 Column_472 Column_473 Column_474 Column_475 Column_476 Column_477 Column_478 Column_479 Column_480 Column_481 Column_482 Column_483 Column_484 Column_485 Column_486 Column_487 Column_488 Column_489 Column_490 Column_491 Column_492 Column_493 Column_494 Column_495 Column_496 Column_497 Column_498 Column_499 Column_500 Column_501 Column_502 Column_503 Column_504 Column_505 Column_506 Column_507 Column_508 Column_509 Column_510 Column_511 Column_512 Column_513 Column_514 Column_515 Column_516 Column_517 Column_518 Column_519 Column_520 Column_521 Column_522 Column_523 Column_524 Column_525 Column_526 Column_527 Column_528 Column_529 Column_530 Column_531 Column_532 Column_533 Column_534 Column_535 Column_536 Column_537 Column_538 Column_539 Column_540 Column_541 Column_542 Column_543 Column_544 Column_545 Column_546 Column_547 Column_548 Column_549 Column_550 Column_551 Column_552 Column_553 Column_554 Column_555 Column_556 Column_557 Column_558 Column_559 Column_560 Column_561 Column_562 Column_563 Column_564 Column_565 Column_566 Column_567 Column_568 Column_569 Column_570 Column_571 Column_572 Column_573 Column_574 Column_575 Column_576 Column_577 Column_578 Column_579 Column_580 Column_581 Column_582 Column_583 Column_584 Column_585 Column_586 Column_587 Column_588 Column_589 Column_590 Column_591 Column_592 Column_593 Column_594 Column_595 Column_596 Column_597 Column_598 Column_599 Column_600 Column_601 Column_602 Column_603 Column_604 Column_605 Column_606 Column_607 Column_608 Column_609 Column_610 Column_611 Column_612 Column_613 Column_614 Column_615 Column_616 Column_617 Column_618 Column_619 Column_620 Column_621 Column_622 Column_623 Column_624 Column_625 Column_626 Column_627 Column_628 Column_629 Column_630 Column_631 Column_632 Column_633 Column_634 Column_635 Column_636 Column_637 Column_638 Column_639 Column_640 Column_641 Column_642 Column_643 Column_644 Column_645 Column_646 Column_647 Column_648 Column_649 Column_650 Column_651 Column_652 Column_653 Column_654 Column_655 Column_656 Column_657 Column_658 Column_659 Column_660 Column_661 Column_662 Column_663 Column_664 Column_665 Column_666 Column_667 Column_668 Column_669 Column_670 Column_671 Column_672 Column_673 Column_674 Column_675 Column_676 Column_677 Column_678 Column_679 Column_680 Column_681 Column_682 Column_683 Column_684 Column_685 Column_686 Column_687 Column_688 Column_689 Column_690 Column_691 Column_692 Column_693 Column_694 Column_695 Column_696 Column_697 Column_698 Column_699 Column_700 Column_701 Column_702 Column_703 Column_704 Column_705 Column_706 Column_707 Column_708 Column_709 Column_710 Column_711 Column_712 Column_713 Column_714 Column_715 Column_716 Column_717 Column_718 Column_719 Column_720 Column_721 Column_722 Column_723 Column_724 Column_725 Column_726 Column_727 Column_728 Column_729 Column_730 Column_731 Column_732 Column_733 Column_734 Column_735 Column_736 Column_737 Column_738 Column_739 Column_740 Column_741 Column_742 Column_743 Column_744 Column_745 Column_746 Column_747 Column_748 Column_749 Column_750 Column_751 Column_752 Column_753 Column_754 Column_755 Column_756 Column_757 Column_758 Column_759 Column_760 Column_761 Column_762 Column_763 Column_764 Column_765 Column_766 Column_767 Column_768 Column_769 Column_770 Column_771 Column_772 Column_773 Column_774 Column_775 Column_776 Column_777 Column_778 Column_779 Column_780 Column_781 Column_782 Column_783 Column_784 Column_785 Column_786 Column_787 Column_788 Column_789 Column_790 Column_791 Column_792 Column_793 Column_794 Column_795 Column_796 Column_797 Column_798 Column_799 Column_800 Column_801 Column_802 Column_803 Column_804 Column_805 Column_806 Column_807 Column_808 Column_809 Column_810 Column_811 Column_812 Column_813 Column_814 Column_815 Column_816 Column_817 Column_818 Column_819 Column_820 Column_821 Column_822 Column_823 Column_824 Column_825 Column_826 Column_827 Column_828 Column_829 Column_830 Column_831 Column_832 Column_833 Column_834 Column_835 Column_836 Column_837 Column_838 Column_839 Column_840 Column_841 Column_842 Column_843 Column_844 Column_845 Column_846 Column_847 Column_848 Column_849 Column_850 Column_851 Column_852 Column_853 Column_854 Column_855 Column_856 Column_857 Column_858 Column_859 Column_860 Column_861 Column_862 Column_863 Column_864 Column_865 Column_866 Column_867 Column_868 Column_869 Column_870 Column_871 Column_872 Column_873 Column_874 Column_875 Column_876 Column_877 Column_878 Column_879 Column_880 Column_881 Column_882 Column_883 Column_884 Column_885 Column_886 Column_887 Column_888 Column_889 Column_890 Column_891 Column_892 Column_893 Column_894 Column_895 Column_896 Column_897 Column_898 Column_899 Column_900 Column_901 Column_902 Column_903 Column_904 Column_905 Column_906 Column_907 Column_908 Column_909 Column_910 Column_911 Column_912 Column_913 Column_914 Column_915 Column_916 Column_917 Column_918 Column_919 Column_920 Column_921 Column_922 Column_923 Column_924 Column_925 Column_926 Column_927 Column_928 Column_929 Column_930 Column_931 Column_932 Column_933 Column_934 Column_935 Column_936 Column_937 Column_938 Column_939 Column_940 Column_941 Column_942 Column_943 Column_944 Column_945 Column_946 Column_947 Column_948 Column_949 Column_950 Column_951 Column_952 Column_953 Column_954 Column_955 Column_956 Column_957 Column_958 Column_959 Column_960 Column_961 Column_962 Column_963 Column_964 Column_965 Column_966 Column_967 Column_968 Column_969 Column_970 Column_971 Column_972 Column_973 Column_974 Column_975 Column_976 Column_977 Column_978 Column_979 Column_980 Column_981 Column_982 Column_983 Column_984 Column_985 Column_986 Column_987 Column_988 Column_989 Column_990 Column_991 Column_992 Column_993 Column_994 Column_995 Column_996 Column_997 Column_998 Column_999 Column_1000 Column_1001 Column_1002 Column_1003 Column_1004 Column_1005 Column_1006 Column_1007 Column_1008 Column_1009 Column_1010 Column_1011 Column_1012 Column_1013 Column_1014 Column_1015 Column_1016 Column_1017 Column_1018 Column_1019 Column_1020 Column_1021 Column_1022 Column_1023 Column_1024 Column_1025 Column_1026 Column_1027 Column_1028 Column_1029 Column_1030 Column_1031 Column_1032 Column_1033 Column_1034 Column_1035 Column_1036 Column_1037 Column_1038 Column_1039 Column_1040 Column_1041 Column_1042 Column_1043 Column_1044 Column_1045 Column_1046 Column_1047 Column_1048 Column_1049 Column_1050 Column_1051 Column_1052 Column_1053 Column_1054 Column_1055 Column_1056 Column_1057 Column_1058 Column_1059 Column_1060 Column_1061 Column_1062 Column_1063 Column_1064 Column_1065 Column_1066 Column_1067 Column_1068 Column_1069 Column_1070 Column_1071 Column_1072 Column_1073 Column_1074 Column_1075 Column_1076 Column_1077 Column_1078 Column_1079 Column_1080 Column_1081 Column_1082 Column_1083 Column_1084 Column_1085 Column_1086 Column_1087 Column_1088 Column_1089 Column_1090 Column_1091 Column_1092 Column_1093 Column_1094 Column_1095 Column_1096 Column_1097 Column_1098 Column_1099 Column_1100 Column_1101 Column_1102 Column_1103 Column_1104 Column_1105 Column_1106 Column_1107 Column_1108 Column_1109 Column_1110 Column_1111 Column_1112 Column_1113 Column_1114 Column_1115 Column_1116 Column_1117 Column_1118 Column_1119 Column_1120 Column_1121 Column_1122 Column_1123 Column_1124 Column_1125 Column_1126 Column_1127 Column_1128 Column_1129 Column_1130 Column_1131 Column_1132 Column_1133 Column_1134 Column_1135 Column_1136 Column_1137 Column_1138 Column_1139 Column_1140 Column_1141 Column_1142 Column_1143 Column_1144 Column_1145 Column_1146 Column_1147 Column_1148 Column_1149 Column_1150 Column_1151 Column_1152 Column_1153 Column_1154 Column_1155 Column_1156 Column_1157 Column_1158 Column_1159 Column_1160 Column_1161 Column_1162 Column_1163 Column_1164 Column_1165 Column_1166 Column_1167 Column_1168 Column_1169 Column_1170 Column_1171 Column_1172 Column_1173 Column_1174 Column_1175 Column_1176 Column_1177 Column_1178 Column_1179 Column_1180 Column_1181 Column_1182 Column_1183 Column_1184 Column_1185 Column_1186 Column_1187 Column_1188 Column_1189 Column_1190 Column_1191 Column_1192 Column_1193 Column_1194 Column_1195 Column_1196 Column_1197 Column_1198 Column_1199 Column_1200 Column_1201 Column_1202 Column_1203 Column_1204 Column_1205 Column_1206 Column_1207 Column_1208 Column_1209 Column_1210 Column_1211 Column_1212 Column_1213 Column_1214 Column_1215 Column_1216 Column_1217 Column_1218 Column_1219 Column_1220 Column_1221 Column_1222 Column_1223 Column_1224 Column_1225 Column_1226 Column_1227 Column_1228 Column_1229 Column_1230 Column_1231 Column_1232 Column_1233 Column_1234 Column_1235 Column_1236 Column_1237 Column_1238 Column_1239 Column_1240 Column_1241 Column_1242 Column_1243 Column_1244 Column_1245 Column_1246 Column_1247 Column_1248 Column_1249 Column_1250 Column_1251 Column_1252 Column_1253 Column_1254 Column_1255 Column_1256 Column_1257 Column_1258 Column_1259 Column_1260 Column_1261 Column_1262 Column_1263 Column_1264 Column_1265 Column_1266 Column_1267 Column_1268 Column_1269 Column_1270 Column_1271 Column_1272 Column_1273 Column_1274 Column_1275 Column_1276 Column_1277 Column_1278 Column_1279 Column_1280 Column_1281 Column_1282 Column_1283 Column_1284 Column_1285 Column_1286 Column_1287 Column_1288 Column_1289 Column_1290 Column_1291 Column_1292 Column_1293 Column_1294 Column_1295 Column_1296 Column_1297 Column_1298 Column_1299 Column_1300 Column_1301 Column_1302 Column_1303 Column_1304 Column_1305 Column_1306 Column_1307 Column_1308 Column_1309 Column_1310 Column_1311 Column_1312 Column_1313 Column_1314 Column_1315 Column_1316 Column_1317 Column_1318 Column_1319 Column_1320 Column_1321 Column_1322 Column_1323 Column_1324 Column_1325 Column_1326 Column_1327 Column_1328 Column_1329 Column_1330 Column_1331 Column_1332 Column_1333 Column_1334 Column_1335 Column_1336 Column_1337 Column_1338 Column_1339 Column_1340 Column_1341 Column_1342 Column_1343 Column_1344 Column_1345 Column_1346 Column_1347 Column_1348 Column_1349 Column_1350 Column_1351 Column_1352 Column_1353 Column_1354 Column_1355 Column_1356 Column_1357 Column_1358 Column_1359 Column_1360 Column_1361 Column_1362 Column_1363 Column_1364 Column_1365 Column_1366 Column_1367 Column_1368 Column_1369 Column_1370 Column_1371 Column_1372 Column_1373 Column_1374 Column_1375 Column_1376 Column_1377 Column_1378 Column_1379 Column_1380 Column_1381 Column_1382 Column_1383 Column_1384 Column_1385 Column_1386 Column_1387 Column_1388 Column_1389 Column_1390 Column_1391 Column_1392 Column_1393 Column_1394 Column_1395 Column_1396 Column_1397 Column_1398 Column_1399 Column_1400 Column_1401 Column_1402 Column_1403 Column_1404 Column_1405 Column_1406 Column_1407 Column_1408 Column_1409 Column_1410 Column_1411 Column_1412 Column_1413 Column_1414 Column_1415 Column_1416 Column_1417 Column_1418 Column_1419 Column_1420 Column_1421 Column_1422 Column_1423 Column_1424 Column_1425 Column_1426 Column_1427 Column_1428 Column_1429 Column_1430 Column_1431 Column_1432 Column_1433 Column_1434 Column_1435 Column_1436 Column_1437 Column_1438 Column_1439 Column_1440 Column_1441 Column_1442 Column_1443 Column_1444 Column_1445 Column_1446 Column_1447 Column_1448 Column_1449 Column_1450 Column_1451 Column_1452 Column_1453 Column_1454 Column_1455 Column_1456 Column_1457 Column_1458 Column_1459 Column_1460 Column_1461 Column_1462 Column_1463 Column_1464 Column_1465 Column_1466 Column_1467 Column_1468 Column_1469 Column_1470 Column_1471 Column_1472 Column_1473 Column_1474 Column_1475 Column_1476 Column_1477 Column_1478 Column_1479 Column_1480 Column_1481 Column_1482 Column_1483 Column_1484 Column_1485 Column_1486 Column_1487 Column_1488 Column_1489 Column_1490 Column_1491 Column_1492 Column_1493 Column_1494 Column_1495 Column_1496 Column_1497 Column_1498 Column_1499 Column_1500 Column_1501 Column_1502 Column_1503 Column_1504 Column_1505 Column_1506 Column_1507 Column_1508 Column_1509 Column_1510 Column_1511 Column_1512 Column_1513 Column_1514 Column_1515 Column_1516 Column_1517 Column_1518 Column_1519 Column_1520 Column_1521 Column_1522 Column_1523 Column_1524 Column_1525 Column_1526 Column_1527 Column_1528 Column_1529 Column_1530 Column_1531 Column_1532 Column_1533 Column_1534 Column_1535 Column_1536 Column_1537 Column_1538 Column_1539 Column_1540 Column_1541 Column_1542 Column_1543 Column_1544 Column_1545 Column_1546 Column_1547 Column_1548 Column_1549 Column_1550 Column_1551 Column_1552 Column_1553 Column_1554 Column_1555 Column_1556 Column_1557 Column_1558 Column_1559 Column_1560 Column_1561 Column_1562 Column_1563 Column_1564 Column_1565 Column_1566 Column_1567 Column_1568 Column_1569 Column_1570 Column_1571 Column_1572 Column_1573 Column_1574 Column_1575 Column_1576 Column_1577 Column_1578 Column_1579 Column_1580 Column_1581 Column_1582 Column_1583 Column_1584 Column_1585 Column_1586 Column_1587 Column_1588 Column_1589 Column_1590 Column_1591 Column_1592 Column_1593 Column_1594 Column_1595 Column_1596 Column_1597 Column_1598 Column_1599 Column_1600 Column_1601 Column_1602 Column_1603 Column_1604 Column_1605 Column_1606 Column_1607 Column_1608 Column_1609 Column_1610 Column_1611 Column_1612 Column_1613 Column_1614 Column_1615 Column_1616 Column_1617 Column_1618 Column_1619 Column_1620 Column_1621 Column_1622 Column_1623 Column_1624 Column_1625 Column_1626 Column_1627 Column_1628 Column_1629 Column_1630 Column_1631 Column_1632 Column_1633 Column_1634 Column_1635 Column_1636 Column_1637 Column_1638 Column_1639 Column_1640 Column_1641 Column_1642 Column_1643 Column_1644 Column_1645 Column_1646 Column_1647 Column_1648 Column_1649 Column_1650 Column_1651 Column_1652 Column_1653 Column_1654 Column_1655 Column_1656 Column_1657 Column_1658 Column_1659 Column_1660 Column_1661 Column_1662 Column_1663 Column_1664 Column_1665 Column_1666 Column_1667 Column_1668 Column_1669 Column_1670 Column_1671 Column_1672 Column_1673 Column_1674 Column_1675 Column_1676 Column_1677 Column_1678 Column_1679 Column_1680 Column_1681 Column_1682 Column_1683 Column_1684 Column_1685 Column_1686 Column_1687 Column_1688 Column_1689 Column_1690 Column_1691 Column_1692 Column_1693 Column_1694 Column_1695 Column_1696 Column_1697 Column_1698 Column_1699 Column_1700 Column_1701 Column_1702 Column_1703 Column_1704 Column_1705 Column_1706 Column_1707 Column_1708 Column_1709 Column_1710 Column_1711 Column_1712 Column_1713 Column_1714 Column_1715 Column_1716 Column_1717 Column_1718 Column_1719 Column_1720 Column_1721 Column_1722 Column_1723 Column_1724 Column_1725 Column_1726 Column_1727 Column_1728 Column_1729 Column_1730 Column_1731 Column_1732 Column_1733 Column_1734 Column_1735 Column_1736 Column_1737 Column_1738 Column_1739 Column_1740 Column_1741 Column_1742 Column_1743 Column_1744 Column_1745 Column_1746 Column_1747 Column_1748 Column_1749 Column_1750 Column_1751 Column_1752 Column_1753 Column_1754 Column_1755 Column_1756 Column_1757 Column_1758 Column_1759 Column_1760 Column_1761 Column_1762 Column_1763 Column_1764 Column_1765 Column_1766 Column_1767 Column_1768 Column_1769 Column_1770 Column_1771 Column_1772 Column_1773 Column_1774 Column_1775 Column_1776 Column_1777 Column_1778 Column_1779 Column_1780 Column_1781 Column_1782 Column_1783 Column_1784 Column_1785 Column_1786 Column_1787 Column_1788 Column_1789 Column_1790 Column_1791 Column_1792 Column_1793 Column_1794 Column_1795 Column_1796 Column_1797 Column_1798 Column_1799 Column_1800 Column_1801 Column_1802 Column_1803 Column_1804 Column_1805 Column_1806 Column_1807 Column_1808 Column_1809 Column_1810 Column_1811 Column_1812 Column_1813 Column_1814 Column_1815 Column_1816 Column_1817 Column_1818 Column_1819 Column_1820 Column_1821 Column_1822 Column_1823 Column_1824 Column_1825 Column_1826 Column_1827 Column_1828 Column_1829 Column_1830 Column_1831 Column_1832 Column_1833 Column_1834 Column_1835 Column_1836 Column_1837 Column_1838 Column_1839 Column_1840 Column_1841 Column_1842 Column_1843 Column_1844 Column_1845 Column_1846 Column_1847 Column_1848 Column_1849 Column_1850 Column_1851 Column_1852 Column_1853 Column_1854 Column_1855 Column_1856 Column_1857 Column_1858 Column_1859 Column_1860 Column_1861 Column_1862 Column_1863 Column_1864 Column_1865 Column_1866 Column_1867 Column_1868 Column_1869 Column_1870 Column_1871 Column_1872 Column_1873 Column_1874 Column_1875 Column_1876 Column_1877 Column_1878 Column_1879 Column_1880 Column_1881 Column_1882 Column_1883 Column_1884 Column_1885 Column_1886 Column_1887 Column_1888 Column_1889 Column_1890 Column_1891 Column_1892 Column_1893 Column_1894 Column_1895 Column_1896 Column_1897 Column_1898 Column_1899 Column_1900 Column_1901 Column_1902 Column_1903 Column_1904 Column_1905 Column_1906 Column_1907 Column_1908 Column_1909 Column_1910 Column_1911 Column_1912 Column_1913 Column_1914 Column_1915 Column_1916 Column_1917 Column_1918 Column_1919 Column_1920 Column_1921 Column_1922 Column_1923 Column_1924 Column_1925 Column_1926 Column_1927 Column_1928 Column_1929 Column_1930 Column_1931 Column_1932 Column_1933 Column_1934 Column_1935 Column_1936 Column_1937 Column_1938 Column_1939 Column_1940 Column_1941 Column_1942 Column_1943 Column_1944 Column_1945 Column_1946 Column_1947 Column_1948 Column_1949 Column_1950 Column_1951 Column_1952 Column_1953 Column_1954 Column_1955 Column_1956 Column_1957 Column_1958 Column_1959 Column_1960 Column_1961 Column_1962 Column_1963 Column_1964 Column_1965 Column_1966 Column_1967 Column_1968 Column_1969 Column_1970 Column_1971 Column_1972 Column_1973 Column_1974 Column_1975 Column_1976 Column_1977 Column_1978 Column_1979 Column_1980 Column_1981 Column_1982 Column_1983 Column_1984 Column_1985 Column_1986 Column_1987 Column_1988 Column_1989 Column_1990 Column_1991 Column_1992 Column_1993 Column_1994 Column_1995 Column_1996 Column_1997 Column_1998 Column_1999 Column_2000 Column_2001 Column_2002 Column_2003 Column_2004 Column_2005 Column_2006 Column_2007 Column_2008 Column_2009 Column_2010 Column_2011 Column_2012 Column_2013 Column_2014 Column_2015 Column_2016 Column_2017 Column_2018 Column_2019 Column_2020 Column_2021 Column_2022 Column_2023 Column_2024 Column_2025 Column_2026 Column_2027 Column_2028 Column_2029 Column_2030 Column_2031 Column_2032 Column_2033 Column_2034 Column_2035 Column_2036 Column_2037 Column_2038 Column_2039 Column_2040 Column_2041 Column_2042 Column_2043 Column_2044 Column_2045 Column_2046 Column_2047 Column_2048 Column_2049 Column_2050 Column_2051 Column_2052 Column_2053 Column_2054 Column_2055 Column_2056 Column_2057 Column_2058 Column_2059 Column_2060 Column_2061 Column_2062 Column_2063 Column_2064 Column_2065 Column_2066 Column_2067 Column_2068 Column_2069 Column_2070 Column_2071 Column_2072 Column_2073 Column_2074 Column_2075 Column_2076 Column_2077 Column_2078 Column_2079 Column_2080 Column_2081 Column_2082 Column_2083 Column_2084 Column_2085 Column_2086 Column_2087 Column_2088 Column_2089 Column_2090 Column_2091 Column_2092 Column_2093 Column_2094 Column_2095 Column_2096 Column_2097 Column_2098 Column_2099 Column_2100 Column_2101 Column_2102 Column_2103 Column_2104 Column_2105 Column_2106 Column_2107 Column_2108 Column_2109 Column_2110 Column_2111 Column_2112 Column_2113 Column_2114 Column_2115 Column_2116 Column_2117 Column_2118 Column_2119 Column_2120 Column_2121 Column_2122 Column_2123 Column_2124 Column_2125 Column_2126 Column_2127 Column_2128 Column_2129 Column_2130 Column_2131 Column_2132 Column_2133 Column_2134 Column_2135 Column_2136 Column_2137 Column_2138 Column_2139 Column_2140 Column_2141 Column_2142 Column_2143 Column_2144 Column_2145 Column_2146 Column_2147 Column_2148 Column_2149 Column_2150 Column_2151 Column_2152 Column_2153 Column_2154 Column_2155 Column_2156 Column_2157 Column_2158 Column_2159 Column_2160 Column_2161 Column_2162 Column_2163 Column_2164 Column_2165 Column_2166 Column_2167 Column_2168 Column_2169 Column_2170 Column_2171 Column_2172 Column_2173 Column_2174 Column_2175 Column_2176 Column_2177 Column_2178 Column_2179 Column_2180 Column_2181 Column_2182 Column_2183 Column_2184 Column_2185 Column_2186 Column_2187 Column_2188 Column_2189 Column_2190 Column_2191 Column_2192 Column_2193 Column_2194 Column_2195 Column_2196 Column_2197 Column_2198 Column_2199 Column_2200 Column_2201 Column_2202 Column_2203 Column_2204 Column_2205 Column_2206 Column_2207 Column_2208 Column_2209 Column_2210 Column_2211 Column_2212 Column_2213 Column_2214 Column_2215 Column_2216 Column_2217 Column_2218 Column_2219 Column_2220 Column_2221 Column_2222 Column_2223 Column_2224 Column_2225 Column_2226 Column_2227 Column_2228 Column_2229 Column_2230 Column_2231 Column_2232 Column_2233 Column_2234 Column_2235 Column_2236 Column_2237 Column_2238 Column_2239 Column_2240 Column_2241 Column_2242 Column_2243 Column_2244 Column_2245 Column_2246 Column_2247 Column_2248 Column_2249 Column_2250 Column_2251 Column_2252 Column_2253 Column_2254 Column_2255 Column_2256 Column_2257 Column_2258 Column_2259 Column_2260 Column_2261 Column_2262 Column_2263 Column_2264 Column_2265 Column_2266 Column_2267 Column_2268 Column_2269 Column_2270 Column_2271 Column_2272 Column_2273 Column_2274 Column_2275 Column_2276 Column_2277 Column_2278 Column_2279 Column_2280 Column_2281 Column_2282 Column_2283 Column_2284 Column_2285 Column_2286 Column_2287 Column_2288 Column_2289 Column_2290 Column_2291 Column_2292 Column_2293 Column_2294 Column_2295 Column_2296 Column_2297 Column_2298 Column_2299 Column_2300 Column_2301 Column_2302 Column_2303 Column_2304 Column_2305 Column_2306 Column_2307 Column_2308 Column_2309 Column_2310 Column_2311 Column_2312 Column_2313 Column_2314 Column_2315 Column_2316 Column_2317 Column_2318 Column_2319 Column_2320 Column_2321 Column_2322 Column_2323 Column_2324 Column_2325 Column_2326 Column_2327 Column_2328 Column_2329 Column_2330 Column_2331 Column_2332 Column_2333 Column_2334 Column_2335 Column_2336 Column_2337 Column_2338 Column_2339 Column_2340 Column_2341 Column_2342 Column_2343 Column_2344 Column_2345 Column_2346 Column_2347 Column_2348 Column_2349 Column_2350 Column_2351 Column_2352 Column_2353 Column_2354 Column_2355 Column_2356 Column_2357 Column_2358 Column_2359 Column_2360 Column_2361 Column_2362 Column_2363 Column_2364 Column_2365 Column_2366 Column_2367 Column_2368 Column_2369 Column_2370 Column_2371 Column_2372 Column_2373 Column_2374 Column_2375 Column_2376 Column_2377 Column_2378 Column_2379 Column_2380 Column_2381 Column_2382 Column_2383 Column_2384 Column_2385 Column_2386 Column_2387 Column_2388 Column_2389 Column_2390 Column_2391 Column_2392 Column_2393 Column_2394 Column_2395 Column_2396 Column_2397 Column_2398 Column_2399 Column_2400 Column_2401 Column_2402 Column_2403 Column_2404 Column_2405 Column_2406 Column_2407 Column_2408 Column_2409 Column_2410 Column_2411 Column_2412 Column_2413 Column_2414 Column_2415 Column_2416 Column_2417 Column_2418 Column_2419 Column_2420 Column_2421 Column_2422 Column_2423 Column_2424 Column_2425 Column_2426 Column_2427 Column_2428 Column_2429 Column_2430 Column_2431 Column_2432 Column_2433 Column_2434 Column_2435 Column_2436 Column_2437 Column_2438 Column_2439 Column_2440 Column_2441 Column_2442 Column_2443 Column_2444 Column_2445 Column_2446 Column_2447 Column_2448 Column_2449 Column_2450 Column_2451 Column_2452 Column_2453 Column_2454 Column_2455 Column_2456 Column_2457 Column_2458 Column_2459 Column_2460 Column_2461 Column_2462 Column_2463 Column_2464 Column_2465 Column_2466 Column_2467 Column_2468 Column_2469 Column_2470 Column_2471 Column_2472 Column_2473 Column_2474 Column_2475 Column_2476 Column_2477 Column_2478 Column_2479 Column_2480 Column_2481 Column_2482 Column_2483 Column_2484 Column_2485 Column_2486 Column_2487 Column_2488 Column_2489 Column_2490 Column_2491 Column_2492 Column_2493 Column_2494 Column_2495 Column_2496 Column_2497 Column_2498 Column_2499 Column_2500 Column_2501 Column_2502 Column_2503 Column_2504 Column_2505 Column_2506 Column_2507 Column_2508 Column_2509 Column_2510 Column_2511 Column_2512 Column_2513 Column_2514 Column_2515 Column_2516 Column_2517 Column_2518 Column_2519 Column_2520 Column_2521 Column_2522 Column_2523 Column_2524 Column_2525 Column_2526 Column_2527 Column_2528 Column_2529 Column_2530 Column_2531 Column_2532 Column_2533 Column_2534 Column_2535 Column_2536 Column_2537 Column_2538 Column_2539 Column_2540 Column_2541 Column_2542 Column_2543 Column_2544 Column_2545 Column_2546 Column_2547 Column_2548 Column_2549 Column_2550 Column_2551 Column_2552 Column_2553 Column_2554 Column_2555 Column_2556 Column_2557 Column_2558 Column_2559 Column_2560 Column_2561 Column_2562 Column_2563 Column_2564 Column_2565 Column_2566 Column_2567
feature_infos=[134:99884368] [0.0014723916538059711:7.9999966621398926] [0:1] none none [0:255] [0:254] [0:0.9999309778213501] [0:0.87639260292053223] [0:0.96867859363555908] [0:0.5897173285484314] [0:0.58987998962402344] [0:0.33505764603614807] [0:0.58386999368667603] [0:0.43775475025177002] [0:0.18795394897460938] [0:0.34660813212394714] [0:0.58947664499282837] [0:0.3636956512928009] [0:0.35589331388473511] [0:0.36423099040985107] [0:0.42471727728843689] [0:0.20639792084693909] [0:0.29074308276176453] [0:0.61102294921875] [0:0.26135352253913879] [0:0.30848401784896851] [0:0.51201170682907104] [0:0.32514077425003052] [0:0.30411094427108765] [0:0.37234947085380554] [0:0.25768977403640747] [0:0.12821879982948303] [0:0.42930072546005249] [0:0.66534912586212158] [0:0.28426387906074524] [0:0.43075358867645264] [0:0.32836174964904785] [0:0.2737821638584137] [0:0.74241572618484497] [0:0.17499223351478577] [0:0.91032266616821289] [0:0.16518585383892059] [0:0.28464725613594055] [0:0.58886992931365967] [0:0.18273401260375977] [0:0.76741421222686768] [0:0.21088796854019165] [0:0.20537716150283813] [0:0.35333377122879028] [0:0.25122484564781189] [0:0.17411552369594574] [0:0.37677651643753052] [0:0.86002159118652344] [0:0.86097866296768188] [0:0.9967917799949646] [0:0.92178428173065186] [0:0.82424843311309814] [0:0.56522822380065918] [0:0.95531803369522095] [0:0.8208196759223938] [0:0.4543437659740448] [0:0.18447020649909973] [0:0.99766963720321655] [0:0.18485201895236969] [0:0.63305121660232544] [0:0.91080862283706665] [0:0.20873454213142395] [0:0.23039107024669647] [0:0.49716475605964661] [0:0.5715593695640564] [0:0.20837612450122833] [0:0.80838143825531006] [0:0.96787184476852417] [0:0.25352174043655396] [0:0.55966424942016602] [1.931492334961149e-07:0.23367875814437866] [0:0.6046186089515686] [0:0.10412587970495224] [0:0.45413568615913391] [0:0.58978360891342163] [0:0.25089192390441895] [0:0.27265447378158569] [0:0.43452543020248413] [0:0.5013878345489502] [0:0.26089814305305481] [0:0.4695601761341095] [0:0.2818487286567688] [0:0.23191194236278534] [0:0.89805883169174194] [0:0.81801867485046387] [0:0.40635088086128235] [0:0.26829928159713745] [0:0.13545168936252594] [0:0.19030734896659851] [0:0.9990386962890625] [0:0.14427711069583893] [0:0.15303829312324524] [0:0.17598000168800354] [0:0.23693427443504333] [0:0.157131627202034] [0:0.14322838187217712] [0:0.20147433876991272] [0:0.14871442317962646] [0:0.99888700246810913] [0:0.22211961448192596] [0:0.58980166912078857] [0:0.92074686288833618] [0:0.14402297139167786] [0:0.58610159158706665] [0:0.18834114074707031] [0:0.30907866358757019] [0:0.98162978887557983] [0:0.19143791496753693] [0:0.17795200645923615] [0:0.1594131737947464] [0:0.23720607161521912] [0:0.21382986009120941] [0:0.26332551240921021] [0:0.25128835439682007] [0:0.65176153182983398] [0:0.14715537428855896] [0:0.45146110653877258] [0:0.170720174908638] [0:0.2027871310710907] [0:0.17379872500896454] [0:0.44804608821868896] [0:0.41841080784797668] [0:0.13886067271232605] [0:0.95274317264556885] [0:0.16415169835090637] [0:0.17388242483139038] [0:0.5196722149848938] [0:0.18673735857009888] [0:0.3123190701007843] [0:0.52879875898361206] [0:0.17968150973320007] [0:0.20749062299728394] [0:0.24815408885478973] [0:0.18531212210655212] [0:0.18332651257514954] [0:0.11900369077920914] [0:0.23380158841609955] [0:0.58910989761352539] [0:0.13405250012874603] [0:0.16771310567855835] [0:0.18014918267726898] [0:0.1397174745798111] [0:0.18899334967136383] [0:0.14172863960266113] [0:0.1252593994140625] [0:0.99950826168060303] [0:0.12765446305274963] [0:0.5858227014541626] [0:0.14740084111690521] [0:0.91964167356491089] [0:0.25349447131156921] [0:0.12492880970239639] [0:0.22224147617816925] [0:0.12771236896514893] [0:0.70813888311386108] [0:0.35443153977394104] [0:0.22040504217147827] [0:0.654308021068573] [0:0.16762265563011169] [0:0.19616243243217468] [0:0.27830272912979126] [0:0.18553255498409271] [0:0.19898371398448944] [0:0.35517838597297668] [0:0.32008558511734009] [0:0.32009834051132202] [0:0.23611558973789215] [0:0.19410568475723267] [0:0.19207771122455597] [0:0.16041933000087738] [0:0.12245377898216248] [0:0.21666251122951508] [0:0.19053004682064056] [0:0.15022896230220795] [0:0.19922703504562378] [0:0.2348656952381134] [0:0.36470860242843628] [0:0.1352037787437439] [0:0.20604287087917328] [0:0.65502923727035522] [0:0.23805464804172516] [0:0.24510498344898224] [0:0.29904705286026001] [0:0.58968722820281982] [0:0.2625713050365448] [0:0.19812746345996857] [0:0.19623188674449921] [0:0.1649441123008728] [0:0.14036430418491364] [0:0.30846938490867615] [0:0.23883998394012451] [0:0.19694563746452332] [0:0.38079833984375] [0:0.73423272371292114] [0:0.22201181948184967] [0:0.17630402743816376] [0:0.58912795782089233] [0:0.17610937356948853] [0:0.20600059628486633] [0:0.58947062492370605] [0:0.19934684038162231] [0:0.25097894668579102] [0:0.30848434567451477] [0:0.29719531536102295] [0:0.19980598986148834] [0:0.98928648233413696] [0:0.92879229784011841] [0:0.17071405053138733] [0:0.23475474119186401] [0:0.58987396955490112] [0:0.25344386696815491] [0:0.21958354115486145] [0:0.5884559154510498] [0:0.29516273736953735] [0:0.2487521767616272] [0:0.15566390752792358] [0:0.28199434280395508] [0:0.21707774698734283] [0:0.34489396214485168] [0:0.1739199310541153] [0:0.16797070205211639] [0:0.27961879968643188] [0:0.65350544452667236] [0:0.26157820224761963] [0:0.18788868188858032] [0:0.18350757658481598] [0:0.67499405145645142] [0:0.35969427227973938] [0:0.21666139364242554] [0:0.69523918628692627] [0:0.12699493765830994] [0:0.22130858898162842] [0:0.27625566720962524] [0:0.24905417859554291] [0:0.5861554741859436] [0:0.53252732753753662] [0:0.28008976578712463] [0:0.45406860113143921] [0:0.28436359763145447] [0:0.3083990216255188] [0:0.26124042272567749] [0:0.84274584054946899] [0:0.62011414766311646] [0:0.32392370700836182] [0:0.20798759162425995] [0:0.644722580909729] [0:0.55354589223861694] [0:0.26474335789680481] [0:0.26068240404129028] [0:0.23476864397525787] [0:0.589771568775177] [0:0.39691665768623352] [0:0.33214583992958069] [0:0.29613339900970459] [0:0.37735489010810852] [0:0.43984591960906982] [0:0.98093509674072266] [0:0.99980217218399048] [0:0.66375124454498291] [0:0.91011261940002441] [0:0.99766361713409424] [0:0.96688741445541382] [0:0.9990382194519043] [0:0.99882924556732178] [0:0.95250546932220459] [0:0.46582639217376709] [0:0.99995189905166626] [0:0.24576391279697418] [0:0.46582639217376709] [0:0.9892127513885498] [0:0.63774007558822632] [0:0.69335144758224487] [0:0.98009717464447021] [0:0.950439453125] [0:0.14603838324546814] [0:0.21566560864448547] [0:0.35820895433425903] [0:0.26368722319602966] [0:0.26030918955802917] [0:0.42465752363204956] [0:0.48651155829429626] [0:0.090561114251613617] [0:0.2708708643913269] [0:0.04555978998541832] [0:0.067968748509883881] [0:0.41916093230247498] [0:0.083787895739078522] [0:0.1052335798740387] [0:0.64397323131561279] [0:0.94466143846511841] [0:0.3123144805431366] [0:0.25282412767410278] [0:0.51060795783996582] [0:0.20718660950660706] [0:0.033950615674257278] [0:0.046981025487184525] [0:0.076899789273738861] [0:0.11371360719203949] [0:0.07799183577299118] [0:0.098799854516983032] [0:0.30035856366157532] [0:0.36830541491508484] [0:0.1317608654499054] [0:0.1078132763504982] [0:0.43297103047370911] [0:0.92291665077209473] [0:0.27317497134208679] [0:0.25889453291893005] [0:0.59181839227676392] [0:0.61083197593688965] [0:0.34904679656028748] [0:0.3299068808555603] [0:0.65922224521636963] [0:0.16033589839935303] [0:0.17819726467132568] [0:0.62416541576385498] [0:0.17513260245323181] [0:0.21676045656204224] [0:0.28967350721359253] [0:0.36434993147850037] [0:0.6218457818031311] [0:0.87602740526199341] [0:0.21534273028373718] [0:0.35809293389320374] [0:0.54044026136398315] [0:0.24614816904067993] [0:0.41999998688697815] [0:0.57834887504577637] [0:0.29919597506523132] [0:0.068654008209705353] [0:0.23701523244380951] [0:0.13487733900547028] [0:0.23701368272304535] [0:0.15321817994117737] [0:0.19123607873916626] [0:0.21534088253974915] [0:0.40784984827041626] [0:0.79640370607376099] [0:0.37234041094779968] [0:0.24848812818527222] [0:0.43695852160453796] [0:0.30495211482048035] [0:0.22115600109100342] [0:0.58060508966445923] [0:0.27862006425857544] [0:0.224609375] [0:0.21337890625] [0:0.081518493592739105] [0:0.063915185630321503] [0:0.15706415474414825] [0:0.16911846399307251] [0:0.16226151585578918] [0:0.24967937171459198] [0:0.7744140625] [0:0.302734375] [0:0.26983940601348877] [0:0.29021662473678589] [0:0.253374844789505] [0:0.34664693474769592] [0:0.48746722936630249] [0:0.23856706917285919] [0:0.25957030057907104] [0:0.40226337313652039] [0:0.33633303642272949] [0:0.25283855199813843] [0:0.30064642429351807] [0:0.25951096415519714] [0:0.35874798893928528] [0:0.3259146511554718] [0:0.73681640625] [0:0.12003418803215027] [0:0.25217732787132263] [0:0.33684810996055603] [0:0.28655141592025757] [0:0.20995868742465973] [0:0.33805802464485168] [0:0.21001473069190979] [0:0.097406916320323944] [0:0.28515625] [0:0.15408384799957275] [0:0.197021484375] [0:0.30816757678985596] [0:0.16382606327533722] [0:0.18432191014289856] [0:0.30816939473152161] [0:0.673828125] [0:0.17759294807910919] [0:0.34328392148017883] [0:0.50842803716659546] [0:0.38946533203125] [0:0.27160829305648804] [0:0.39502993226051331] [0:0.22531245648860931] [0:0.12757925689220428] [0:0.33494502305984497] [0:0.30050912499427795] [0:0.17544816434383392] [0:0.3013668954372406] [0:0.19068494439125061] [0:0.17759294807910919] [0:0.20448616147041321] [0:0.6171875] [0:0.16261781752109528] [0:0.30046698451042175] [0:0.24813228845596313] [0:0.25948688387870789] [0:0.31677672266960144] [0:0.3402366042137146] [0:0.46496650576591492] [0:0.13669656217098236] [0:0.25652438402175903] [0:0.2234700471162796] [0:0.17990708351135254] [0:0.12816569209098816] [0:0.1822684109210968] [0:0.16046439111232758] [0:0.2572610080242157] [0:0.56298828125] [0:0.1871231347322464] [0:0.1921251118183136] [0:0.23551261425018311] [0:0.42732948064804077] [0:0.28176978230476379] [0:0.23359638452529907] [0:0.1563546359539032] [0:0.15634533762931824] [0:0.28039690852165222] [0:0.17871975898742676] [0:0.1361316442489624] [0:0.13381409645080566] [0:0.1052727997303009] [0:0.10607539862394333] [0:0.20724405348300934] [0:0.5195847749710083] [0:0.2951260507106781] [0:0.22355028986930847] [0:0.49790051579475403] [0:0.21430926024913788] [0:0.28476443886756897] [0:0.1952311247587204] [0:0.23026315867900848] [0:0.52220940589904785] [0:0.18948690593242645] [0:0.19632720947265625] [0:0.1964881420135498] [0:0.21710066497325897] [0:0.19668619334697723] [0:0.18449898064136505] [0:0.18651017546653748] [0:0.45263671875] [0:0.1338360458612442] [0:0.28228241205215454] [0:0.27233493328094482] [0:0.28179493546485901] [0:0.10113177448511124] [0:0.1506936103105545] [0:0.12187544256448746] [0:0.36177733540534973] [0:0.19713462889194489] [0:0.11413900554180145] [0:0.28128212690353394] [0:0.28054964542388916] [0:0.27367132902145386] [0:0.17786493897438049] [0:0.36163938045501709] [0:0.3747219443321228] [0:0.17072838544845581] [0:0.19552837312221527] [0:0.22522614896297455] [0:0.19820991158485413] [0:0.20051367580890656] [0:0.19519950449466705] [0:0.19891111552715302] [0:0.20055957138538361] [0:0.19809228181838989] [0:0.11211441457271576] [0:0.19806866347789764] [0:0.17778638005256653] [0:0.20035448670387268] [0:0.19946494698524475] [0:0.20125555992126465] [0:0.33154296875] [0:0.1323784738779068] [0:0.1657012552022934] [0:0.18159623444080353] [0:0.16764950752258301] [0:0.1948745995759964] [0:0.15120024979114532] [0:0.12256088107824326] [0:0.22010317444801331] [0:0.1657133549451828] [0:0.1576334685087204] [0:0.22810919582843781] [0:0.11439934372901917] [0:0.11787864565849304] [0:0.159423828125] [0:0.17066176235675812] [0:0.240234375] [0:0.12300685048103333] [0:0.1399221271276474] [0:0.14182157814502716] [0:0.12968309223651886] [0:0.12180450558662415] [0:0.13344545662403107] [0:0.13019326329231262] [0:0.13269630074501038] [0:0.13125655055046082] [0:0.13110759854316711] [0:0.1410362720489502] [0:0.12263523042201996] [0:0.12377914786338806] [0:0.12702128291130066] [0:0.14972037076950073] [0:3402159] [0:304017.65625] [0:81809448] [0:0.98509222269058228] [0:0.57535064220428467] [0:0.9948885440826416] [0:0.66713398694992065] [0:0.55073392391204834] [0:0.82177764177322388] [0:0.64132171869277954] [0:0.9595906138420105] [0:0.78964656591415405] [0:0.64806431531906128] [0:0.49831306934356689] [0:0.70638495683670044] [0:0.46985635161399841] [0:0.67423820495605469] [0:0.95167410373687744] [0:0.98838633298873901] [0:0.99975019693374634] [0:0.99286931753158569] [0:0.94942635297775269] [0:0.88017356395721436] [0:0.99841314554214478] [0:0.94639420509338379] [0:0.78382426500320435] [0:0.85276758670806885] [0:0.99983805418014526] [0:0.45070949196815491] [0:0.97035926580429077] [0:0.99580675363540649] [0:0.62257444858551025] [0:0.67626136541366577] [0:0.95477443933486938] [0:0.94167429208755493] [0:0.62537115812301636] [0:0.97231709957122803] [0:0.99639213085174561] [0:0.61331021785736084] [0:0.83881062269210815] [0:0.5582573413848877] [0:0.89211928844451904] [0:0.60861974954605103] [0:0.96463346481323242] [0:0.93202584981918335] [0:0.58739614486694336] [0:0.5955498218536377] [0:0.97477787733078003] [0:0.853912353515625] [0:0.91255247592926025] [0:0.88791513442993164] [0:0.68667745590209961] [0:0.86754518747329712] [0:0.99652755260467529] [0:0.99522006511688232] [0:0.89591264724731445] [0:0.7902190089225769] [0:0.75387448072433472] [0:0.82027179002761841] [0:0.9998818039894104] [0:0.61133164167404175] [0:0.60462468862533569] [0:0.61223024129867554] [0:0.64673548936843872] [0:0.67949265241622925] [0:0.64547187089920044] [0:0.38098028302192688] [0:0.64660722017288208] [0:0.99982428550720215] [0:0.54984581470489502] [0:0.92750602960586548] [0:0.98313003778457642] [0:0.57659202814102173] [0:0.96925091743469238] [0:0.91972166299819946] [0:0.58424109220504761] [0:0.99916046857833862] [0:0.58163094520568848] [0:0.74627983570098877] [0:0.5582091212272644] [0:0.84271323680877686] [0:0.7506788969039917] [0:0.446541428565979] [0:0.60543733835220337] [0:0.91137081384658813] [0:0.68776118755340576] [0:0.55856037139892578] [0:0.53236639499664307] [0:0.66550981998443604] [0:0.68640130758285522] [0:0.94652557373046875] [0:0.9235680103302002] [0:0.78378862142562866] [0:0.99852323532104492] [0:0.44228553771972656] [0:0.46586009860038757] [0:0.78284448385238647] [0:0.64590322971343994] [0:0.86913132667541504] [0:6.5849609375] [0:43931] [0:18] [0:3036] [0:962] [0:575] [0:5721] [0:267] [0:904] [0:3181] [0:2937] none [0:24] none [0:2516] none [0:44441] [0:10699] [0:4344] [0:2049] [0:23202] [0:15049] [0:3324] [0:187305] [0:20531] [0:18223] [0:14394] [0:41243] [0:3854] [0:9081] [0:11018] [0:3472] [0:7107] [0:179074] [0:8368] [0:72842] [0:56414] [0:13260] [0:61944] [0:17509] [0:223] [0:363] [0:19602] [0:2705] [0:121864] [0:5844] [0:33322] [0:8079] [0:33554] [0:6065] [0:105625] [0:139029] [0:13358] [0:5908] [0:179074] [0:26376] [0:70239] [0:6079] [0:17233] [0:5943] [0:80] [0:380] [0:2684] [0:17341] [0:2217] [0:6424] [0:73311] [0:8083] [0:67966] [0:7350] [0:3633] [0:102835] [0:14137] [0:105753] [0:33322] [0:195] [0:9438] [0:100075] [0:4294967296] [0:35445] [0:4294967296] [0:65311] [0:4283477248] [0:34] [0:13] [0:65535] [0:65475] [0:255] [0:255] [0:58989] [0:60135] [0:36823] [0:52971] [0:4294953984] [0:4291397120] [0:4278591488] [0:4294964736] [0:4294967296] [0:99999997952] [0:3943331072] [0:3333557760] [0:3947447040] [0:4294963968] [0:4294967296] [0:1.8446735277616529e+19] [0:1868055424] [0:4294967296] [0:4294443008] [0:1] [0:1] [0:1] [0:1] [0:1] [0:1] none [0:1] [0:1] [0:1] [0:1] [0:1] none [0:1] none [0:1] [0:1] [0:1] [0:1] [0:1] [0:1] [0:1] [0:1] [0:1] [0:1] [0:1] [0:1] [0:23117] [0:65146] [0:64983] [0:65535] [0:65531] [0:65433] [0:65535] [0:65520] [0:65534] [0:65514] [0:65535] [0:65520] [0:65296] [0:65288] [0:65363] [0:65307] [0:666732] [0:108] [0:65] [0:78] [0:98] [0:96] [0:8] none [0:1967617.125] none [0:247078672] none [-46690816:247078672] [-50862592:37641728] [-75027968:21822976] [-27784192:79177728] [-34593792:2014839936] [-46009856:30420992] [-115335168:82667520] [-75007488:34049536] [-47163904:18735104] [-18510848:16808960] [-39100416:50065408] [-58489856:22753792] [-86828032:55867392] [-16767488:26871296] [-16441344:251667456] [-48534016:17038336] [-26093568:21198336] [-20066304:22249472] [-71618048:64489984] [-24137728:29851648] [-62273536:24176128] [-4294930432:33394176] [-31941120:24947200] [-30519296:15101952] [-55155712:27967488] [-96434688:20277248] [-29444096:46208000] [-42683904:15505920] [-69747200:34999296] [-29853184:23805952] [-15190016:45969920] [-91914240:47163520] [-71090176:31027712] [-4278231040:30454272] [-40091648:73846784] [-32360448:504651776] [-24710144:24772608] [-25550848:17608704] [-65792000:30028800] [-49283584:35667456] [-29545984:27707904] [-2010609664:51488768] [-90766336:30285824] [-87322112:4294961920] [-37342208:14044672] [-26233344:39058432] [-67698688:19566080] [-14467072:30213632] [-20675584:61846528] [-83082752:21308416] [-46690736:2019914752] [-68625408:108326912] [-75027488:21822640] [-74753768:79177552] [-34594072:50311188] [-268398592:254156800] [-115334696:105906968] [-75007040:55078076] [-67091240:536870912] [-18477680:16808744] [-39100416:132763648] [-60932224:34378224] [-86827552:55866900] [-16767072:49673116] [-268439552:149909504] [-903442944:57471596] [-26092936:21197836] [-32285504:22249472] [-71618016:64489600] [-24135168:78118912] [-62273148:44597704] [-80836792:59319208] [-35430400:165261312] [-550006784:45825508] [-265690480:268439552] [-96434192:27443200] [-43602068:114483200] [-42684416:16617832] [-1920168448:40168728] [-85749216:852262016] [-25837568:254156800] [-34921756:194891664] [-1600733824:1962204672] [-28307456:30454080] [-41004836:368693248] [-32360000:504651776] [-24709876:33127004] [-25549664:23146776] [-268599296:30028516] [-137736192:35666984] [-29545628:42972832] [-1006689536:50862876] [-4278198528:30283824] [-268759040:4294918144] [-49710828:98167264] [-26233096:55737676] [-42873944:137646080] [-25999620:47972296] [-100609872:61846116] [-83082368:21311488] [-22.11480712890625:410.7080078125] [-23.690725326538086:15.990741729736328] [-19.140979766845703:38.783164978027344] [-19.451448440551758:20.901464462280273] [-15.65726375579834:25.742971420288086] [-34.874557495117188:19.671976089477539] [-127.93412780761719:11.127281188964844] [-7.9999079704284668:14.046029090881348] [-28.255855560302734:20.399797439575195] [-15.859535217285156:19.107048034667969] [-15.995772361755371:27.968135833740234] [-30.371185302734375:10.817751884460449] [-14.138784408569336:15.317227363586426] [-15.874358177185059:15.924680709838867] [-13.179409027099609:57.447971343994141] [-15.995604515075684:21.695858001708984] [-26.999305725097656:14.403204917907715] [-90.077247619628906:15.995433807373047] [-19.819488525390625:29.31291389465332] [-675.17022705078125:22.478679656982422] [-18.959878921508789:17.876060485839844] [-13.302868843078613:10.985408782958984] [-15.995936393737793:49.071674346923828] [-15.949075698852539:15.946521759033203] [-20.910423278808594:22.583011627197266] [-15.818981170654297:36.596942901611328] [-14.497637748718262:14.185139656066895] [-17.009860992431641:15.881811141967773] [-40.790016174316406:15.644543647766113] [-31.780036926269531:16.809572219848633] [-17.69697380065918:15.995431900024414] [-22.753684997558594:144.55900573730469] [-58.633995056152344:41.650165557861328] [-15.948474884033203:15.650711059570312] [-15.989730834960938:29.123331069946289] [-28.668083190917969:38.626480102539062] [-12.81409740447998:15.737720489501953] [-13.79546070098877:7.999964714050293] [-23.423715591430664:18.904031753540039] [-17.413883209228516:37.248939514160156] [-15.833433151245117:15.921915054321289] [-39.170772552490234:31.97773551940918] [-40.7705078125:19.068286895751953] [-24.655372619628906:35.202884674072266] [-11.066198348999023:14.627930641174316] [-77.771041870117188:15.296065330505371] [-15.418027877807617:15.563198089599609] [-21.782979965209961:14.208917617797852] [-12.136899948120117:36.657085418701172] [-14.2821044921875:15.720537185668945] [-78:5] [-6:95] [-5:10] [-94:6] [-7:68] [-19:6] [-3:12] [-4:10] [-68:21] [-78:5] [-4:6] [-3:11] [-13:6] [-93:68] [-68:9] [-18:7] [-11:4] [-68:18] [-4:10] [-68:5] [-5:11] [-10:5] [-7:13] [-10:9] [-68:8] [-9:6] [-6:68] [-136:14] [-11:68] [-14:5] [-6:5] [-5:9] [-7:68] [-11:6] [-22:13] [-94:68] [-9:8] [-7:22] [-11:23] [-5:9] [-9:5] [-7:3] [-6:11] [-68:12] [-68:6] [-4:10] [-5:18] [-5:6] [-6:6] [-68:12] [-1:1] [-1:1] [-1:1] [-1:1] [-1:1] [-1:1] [-1:1] [-1:1] [-1:1] [-1:1] [0:99859792] [0:0.99999445676803589] [0:8] [0:8141] [0:139] [0:2] [0:3] [0:3] [0:2] [0:3] [0:3] [0:2] [0:2] [0:2] [0:2] [0:2] [0:2] [0:2] [0:2] [0:2] [0:2] [0:2] [0:2] [0:3] [0:2] [0:2] [0:2] [0:3] [0:2] [0:2] [0:3] [0:3] [0:3] [0:2] [0:2] [0:3] [0:2] [0:2] [0:1] [0:2] [0:3] [0:2] [0:2] [0:2] [0:2] [0:3] [0:2] [0:2] [0:3] [0:2] [0:3] [0:2] [0:3] [0:2] [0:2] [0:3] [0:3] [0:3] [0:3] [0:3] [0:2] [0:2] [0:2] [0:2] [0:2] [0:3] [0:2] [0:2] [0:3] [0:3] [0:2] [0:2] [0:2] [0:3] [0:2] [0:2] [0:2] [0:2] [0:2] [0:3] [0:2] [0:2] [0:3] [0:2] [0:3] [0:3] [0:2] [0:2] [0:2] [0:2] [0:2] [0:2] [0:2] [0:2] [0:2] [0:2] [0:3] [0:3] [0:3] [0:2] [0:2] [0:3] [0:2] [0:2] [0:2] [0:3] [0:2] [0:3] [0:2] [0:3] [0:2] [0:2] [0:4] [0:3] [0:2] [0:2] [0:2] [0:3] [0:1] [0:3] [0:2] [0:2] [0:4] [0:3] [0:3] [0:2] [0:2] [0:4] [0:3] [0:2] [0:2] [0:3] [0:3] [0:2] [0:3] [0:2] [0:3] [0:3] [0:2] [0:2] [0:3] [0:2] [0:2] [0:2] [0:3] [0:3] [0:2] [0:3] [0:3] [0:3] [0:4] [0:1] [0:3] [0:2] [0:3] [0:3] [0:2] [0:2] [0:2] [0:2] [0:2] [0:3] [0:2] [0:2] [0:2] [0:3] [0:3] [0:2] [0:2] [0:3] [0:2] [0:2] [0:2] [0:2] [0:2] [0:2] [0:2] [0:2] [0:2] [0:3] [0:2] [0:3] [0:2] [0:3] [0:2] [0:2] [0:3] [0:2] [0:3] [0:2] [0:2] [0:3] [0:2] [0:2] [0:2] [0:2] [0:2] [0:2] [0:2] [0:3] [0:3] [0:3] [0:2] [0:3] [0:2] [0:4] [0:3] [0:2] [0:3] [0:2] [0:2] [0:2] [0:2] [0:2] [0:2] [0:1] [0:2] [0:2] [0:3] [0:3] [0:3] [0:2] [0:3] [0:2] [0:3] [0:2] [0:2] [0:2] [0:2] [0:4] [0:2] [0:3] [0:2] [0:2] [0:1] [0:2] [0:3] [0:2] [0:2] [0:2] [0:2] [0:2] [0:2] [0:2] [0:2] [0:4] [0:3] [0:2] [0:2] [0:2] [0:2] [0:2] [0:2] [0:2] [0:3] [0:2] [0:2] [0:2] [0:2] [0:2] [0:2] [0:16] [0:11] [0:16] [0:11] [0:13] [0:11] [0:11] [0:15] [0:11] [0:16] [0:13] [0:14] [0:11] [0:13] [0:12] [0:11] [0:14] [0:12] [0:12] [0:11] [0:13] [0:12] [0:11] [0:12] [0:12] [0:13] [0:12] [0:11] [0:15] [0:11] [0:10] [0:12] [0:14] [0:12] [0:13] [0:12] [0:13] [0:13] [0:11] [0:10] [0:12] [0:10] [0:12] [0:10] [0:11] [0:13] [0:13] [0:13] [0:10] [0:11] [0:14] [0:12] [0:11] [0:14] [0:12] [0:11] [0:12] [0:13] [0:12] [0:11] [0:11] [0:11] [0:12] [0:12] [0:11] [0:10] [0:11] [0:11] [0:20] [0:12] [0:15] [0:12] [0:15] [0:15] [0:13] [0:12] [0:11] [0:12] [0:11] [0:14] [0:10] [0:12] [0:11] [0:13] [0:12] [0:11] [0:11] [0:13] [0:12] [0:14] [0:11] [0:12] [0:12] [0:11] [0:11] [0:13] [0:12] [0:11] [0:12] [0:13] [0:11] [0:12] [0:11] [0:13] [0:10] [0:11] [0:14] [0:11] [0:12] [0:10] [0:10] [0:14] [0:11] [0:18] [0:11] [0:12] [0:9] [0:11] [0:9] [0:11] [0:11] [0:12] [0:14] [0:13] [0:12] [0:10] [0:20] [0:16] [0:13] [0:15] [0:16] [0:13] [0:14] [0:13] [0:13] [0:12] [0:13] [0:13] [0:12] [0:12] [0:13] [0:11] [0:15] [0:11] [0:9] [0:12] [0:16] [0:11] [0:16] [0:11] [0:11] [0:11] [0:9] [0:11] [0:11] [0:10] [0:12] [0:11] [0:13] [0:11] [0:14] [0:12] [0:11] [0:15] [0:12] [0:13] [0:14] [0:13] [0:12] [0:11] [0:11] [0:13] [0:12] [0:12] [0:13] [0:11] [0:10] [0:11] [0:11] [0:10] [0:12] [0:12] [0:10] [0:14] [0:11] [0:11] [0:11] [0:10] [0:10] [0:13] [0:10] [0:13] [0:14] [0:10] [0:11] [0:13] [0:13] [0:12] [0:13] [0:10] [0:11] [0:12] [0:10] [0:13] [0:16] [0:12] [0:11] [0:15] [0:10] [0:12] [0:11] [0:12] [0:12] [0:16] [0:11] [0:11] [0:11] [0:14] [0:11] [0:12] [0:11] [0:11] [0:11] [0:13] [0:13] [0:12] [0:14] [0:10] [0:12] [0:12] [0:13] [0:12] [0:10] [0:11] [0:12] [0:11] [0:10] [0:15] [0:10] [0:11] [0:14] [0:12] [0:10] [0:11] [0:12] [0:12] [0:12] [0:11] [0:10] [0:11] [0:11] [0:14] [0:16] [0:11] [0:13] [0:10] [0:13] [0:12] [0:13] [0:11] [0:13] [0:12] [0:16] [0:12] [0:11] [0:13] [0:12] [0:11] [0:11] [0:12] [0:10] [0:12] [0:9] [0:12] [0:10] [0:11] [0:12] [0:14] [0:13] [0:15] [0:12] [0:13] [0:12] [0:11] [0:12] [0:12] [0:11] [0:11] [0:11] [0:13] [0:12] [0:12] [0:13] [0:13] [0:12] [0:9] [0:14] [0:12] [0:14] [0:11] [0:12] [0:12] [0:11] [0:12] [0:12] [0:12] [0:12] [0:10] [0:12] [0:14] [0:11] [0:12] [0:13] [0:12] [0:12] [0:10] [0:15] [0:15] [0:10] [0:10] [0:13] [0:11] [0:10] [0:16] [0:12] [0:12] [0:11] [0:9] [0:13] [0:14] [0:10] [0:9] [0:13] [0:11] [0:12] [0:16] [0:12] [0:11] [0:13] [0:9] [0:10] [0:11] [0:11] [0:9] [0:12] [0:12] [0:12] [0:12] [0:10] [0:12] [0:13] [0:11] [0:12] [0:14] [0:12] [0:11] [0:14] [0:12] [0:13] [0:14] [0:12] [0:13] [0:13] [0:14] [0:11] [0:11] [0:12] [0:12] [0:13] [0:11] [0:11] [0:12] [0:14] [0:13] [0:11] [0:13] [0:11] [0:11] [0:11] [0:11] [0:13] [0:14] [0:10] [0:13] [0:13] [0:12] [0:11] [0:12] [0:15] [0:12] [0:11] [0:13] [0:13] [0:15] [0:12] [0:11] [0:13] [0:13] [0:11] [0:10] [0:14] [0:17] [0:13] [0:14] [0:9] [0:11] [0:12] [0:12] [0:9] [0:11] [0:11] [0:10] [0:15] [0:13] [0:10] [0:12] [0:12] [0:12] [0:11] [0:12] [0:11] [0:10] [0:10] [0:11] [0:12] [0:14] [0:14] [0:10] [0:10] [0:11] [0:10] [0:12] [0:12] [0:11] [0:12] [0:13] [0:11] [0:12] [0:12] [0:11] [0:11] [0:12] [0:11] [0:13] [0:12] [0:11] [0:13] [0:10] [0:13] [0:18] [0:12] [0:11] [0:12] [0:11] [0:12] [0:10] [0:14] [0:10] [0:9] [0:11] [0:10] [0:11] [0:11] [0:11] [0:12] [0:11] [0:11] [0:13] [0:11] [0:10] [0:9] [0:10] [0:12] [0:10] [0:11] [0:11] [0:11] [0:13] [0:12] [0:12] [0:12] [0:11] [0:11] [0:11] [0:12] [0:12] [0:13] [0:12] [0:12] [0:10] [0:13] [0:14] [0:13] [0:14] [0:11] [0:11] [0:11] [0:11] [0:14] [0:11] [0:10] [0:10] [0:14] [0:13] [0:12] [0:12] [0:12] [0:11] [0:12] [0:13] [0:10] [0:12] [0:11] [0:12] [0:11] [0:11] [0:12] [0:13] [0:13] [0:13] [0:9] [0:12] [0:10] [0:12] [0:13] [0:11] [0:10] [0:11] [0:12] [0:13] [0:12] [0:13] [0:12] [0:11] [0:12] [0:13] [0:14] [0:13] [0:12] [0:11] [0:12] [0:10] [0:15] [0:11] [0:12] [0:14] [0:15] [0:11] [0:12] [0:12] [0:11] [0:12] [0:13] [0:12] [0:10] [0:13] [0:10] [0:14] [0:10] [0:11] [0:10] [0:12] [0:12] [0:12] [0:11] [0:17] [0:11] [0:12] [0:11] [0:12] [0:11] [0:15] [0:14] [0:10] [0:13] [0:13] [0:12] [0:12] [0:13] [0:10] [0:14] [0:15] [0:12] [0:13] [0:13] [0:11] [0:12] [0:12] [0:13] [0:12] [0:10] [0:12] [0:9] [0:16] [0:15] [0:14] [0:13] [0:12] [0:12] [0:10] [0:11] [0:10] [0:13] [0:11] [0:9] [0:13] [0:11] [0:13] [0:10] [0:11] [0:13] [0:15] [0:12] [0:11] [0:12] [0:12] [0:13] [0:11] [0:12] [0:13] [0:15] [0:13] [0:15] [0:13] [0:12] [0:13] [0:17] [0:12] [0:11] [0:11] [0:14] [0:14] [0:12] [0:11] [0:13] [0:11] [0:11] [0:13] [0:15] [0:12] [0:11] [0:12] [0:9] [0:10] [0:11] [0:14] [0:11] [0:14] [0:12] [0:11] [0:10] [0:13] [0:12] [0:11] [0:16] [0:9] [0:12] [0:12] [0:13] [0:12] [0:13] [0:14] [0:10] [0:11] [0:11] [0:11] [0:15] [0:10] [0:11] [0:11] [0:11] [0:13] [0:9] [0:15] [0:13] [0:11] [0:10] [0:11] [0:10] [0:14] [0:16] [0:12] [0:15] [0:11] [0:17] [0:10] [0:10] [0:14] [0:10] [0:12] [0:13] [0:11] [0:17] [0:12] [0:12] [0:10] [0:14] [0:11] [0:13] [0:10] [0:12] [0:11] [0:16] [0:13] [0:11] [0:10] [0:13] [0:13] [0:10] [0:14] [0:13] [0:11] [0:13] [0:13] [0:11] [0:13] [0:10] [0:12] [0:14] [0:11] [0:10] [0:11] [0:12] [0:11] [0:11] [0:11] [0:14] [0:12] [0:12] [0:11] [0:11] [0:13] [0:13] [0:13] [0:13] [0:12] [0:15] [0:13] [0:13] [0:10] [0:12] [0:11] [0:14] [0:12] [0:10] [0:11] [0:9] [0:10] [0:9] [0:21] [0:12] [0:11] [0:10] [0:10] [0:11] [0:10] [0:12] [0:11] [0:9] [0:10] [0:12] [0:10] [0:11] [0:12] [0:12] [0:11] [0:13] [0:14] [0:15] [0:10] [0:14] [0:13] [0:12] [0:9] [0:13] [0:9] [0:10] [0:11] [0:14] [0:11] [0:10] [0:14] [0:11] [0:12] [0:13] [0:11] [0:12] [0:10] [0:12] [0:11] [0:10] [0:12] [0:12] [0:11] [0:11] [0:12] [0:16] [0:11] [0:10] [0:13] [0:10] [0:14] [0:13] [0:17] [0:12] [0:15] [0:12] [0:15] [0:13] [0:11] [0:18] [0:12] [0:11] [0:11] [0:11] [0:15] [0:11] [0:12] [0:12] [0:11] [0:15] [0:10] [0:14] [0:16] [0:10] [0:11] [0:12] [0:12] [0:11] [0:12] [0:10] [0:13] [0:12] [0:13] [0:13] [0:12] [0:11] [0:10] [0:11] [0:11] [0:11] [0:15] [0:12] [0:10] [0:11] [0:11] [0:16] [0:12] [0:11] [0:11] [0:12] [0:17] [0:10] [0:12] [0:10] [0:13] [0:13] [0:16] [0:11] [0:10] [0:12] [0:12] [0:11] [0:13] [0:10] [0:12] [0:11] [0:13] [0:13] [0:13] [0:11] [0:10] [0:13] [0:11] [0:12] [0:12] [0:10] [0:12] [0:11] [0:11] [0:11] [0:12] [0:10] [0:10] [0:13] [0:10] [0:11] [0:12] [0:13] [0:12] [0:11] [0:15] [0:13] [0:14] [0:14] [0:11] [0:11] [0:11] [0:10] [0:12] [0:12] [0:13] [0:13] [0:11] [0:12] [0:12] [0:12] [0:11] [0:11] [0:11] [0:10] [0:12] [0:11] [0:13] [0:10] [0:12] [0:10] [0:10] [0:13] [0:11] [0:12] [0:10] [0:10] [0:12] [0:12] [0:13] [0:17] [0:10] [0:12] [0:14] [0:10] [0:12] [0:14] [0:11] [0:14] [0:10] [0:13] [0:11] [0:12] [0:13] [0:14] [0:10] [0:12] [0:12] [0:13] [0:11] [0:11] [0:15] [0:10] [0:12] [0:11] [0:11] [0:12] [0:11] [0:12] [0:10] [0:14] [0:12] [0:15] [0:11] [0:12] [0:13] [0:10] [0:11] [0:9] [0:12] [0:13] [0:13] [0:12] [0:14] [0:13] [0:11] [0:11] [0:13] [0:13] [0:11] [0:13] [0:11] [0:12] [0:11] [0:13] [0:11] [0:12] [0:16] [0:13] [0:15] [0:11] [0:10] [0:12] [0:13] [0:14] [0:13] [0:16] [0:14] [0:10] [0:12] [0:15] [0:12] [0:14] [0:10] [0:15] [0:12] [0:12] [0:10] [0:12] [0:13] [0:11] [0:11] [0:12] [0:10] [0:17] [0:11] [0:11] [0:11] [0:16] [0:13] [0:11] [0:12] [0:14] [0:10] [0:13] [0:13] [0:12] [0:12] [0:128] [-59:23] [-34:96] [-42:36] [-60:25] [-88:44] [-55:24] [-53:21] [-32:29] [-125:23] [-33:30] [-34:59] [-103:43] [-27:57] [-30:28] [-56:32] [-49:17] [-31:52] [-50:86] [-98:25] [-24:54] [-58:31] [-23:32] [-25:88] [-35:23] [-21:71] [-28:51] [-68:25] [-37:61] [-19:41] [-91:26] [-26:88] [-53:30] [-52:23] [-55:51] [-49:46] [-25:73] [-34:65] [-60:33] [-64:29] [-23:26] [-24:22] [-90:42] [-50:40] [-60:113] [-89:44] [-33:30] [-103:22] [-65:21] [-22:48] [-33:19] [-102:29] [-25:55] [-19:63] [-49:69] [-51:165] [-38:35] [-188:24] [-27:82] [-53:31] [-23:21] [-30:88] [-262:24] [-31:88] [-28:23] [-22:54] [-32:25] [-37:27] [-36:35] [-37:20] [-25:47] [-30:42] [-53:18] [-25:21] [-28:196] [-28:26] [-77:147] [-23:42] [-64:195] [-79:31] [-54:59] [-36:50] [-103:19] [-34:30] [-52:52] [-54:27] [-104:113] [-41:62] [-51:75] [-23:43] [-59:46] [-68:22] [-24:62] [-25:96] [-28:93] [-41:27] [-22:91] [-48:35] [-57:18] [-27:40] [-98:87] [-70:23] [-57:36] [-76:31] [-56:57] [-29:24] [-25:24] [-31:53] [-26:83] [-27:50] [-26:40] [-36:55] [-60:23] [-55:21] [-25:24] [-35:38] [-37:24] [-97:57] [-34:88] [-28:23] [-51:28] [-35:26] [-20:95] [-27:33] [-41:54] [-46:108] [-52:49] [-32:34] [-28:55] [0:4294967296] [0:4278190080] [0:4294967296] [0:2347529472] [0:4294936832] [0:4278214656] [0:3191769856] [0:4278190080] [0:4082706176] [0:4278300160] [0:4187818496] [0:4294938624] [0:4278255360] [0:4187877888] [0:2767389696] [0:2210958336] [0:2310532864] [0:2981728512] [0:4278190080] [0:3554059520] [0:2328296704] [0:3010572800] [0:4294967296] [0:4278190592] [0:4278217216] [0:4294962944] [0:4043308800] [0:4278255360] [0:4043308800] [0:4261609984] none none [0:1] [0:1] [0:4840] [-110283104256:122006503424] [-59762917376:113136836608] [-166258032640:90222739456] [-149939126272:123376746496] [-159828000768:131567509504] [-125175750656:6992048640] [-141277020160:119104602112] [-47773949952:168474411008] [-12678105088:91105779712] [-176165502976:190535286784] [-81668530176:130101551104] [-64426475520:21043570688] [-125791846400:78684618752] [-139046371328:183017848832] [-127007883264:28677814272] [-110847213568:133058797568] [-147087900672:108729081856] [-124573294592:141432782848] [-114659876864:53418426368] [-155229765632:160836042752] [-150228729856:181587443712] [-126643150848:114601869312] [-184274190336:145787043840] [-71917666304:142586249216] [-88229412864:118759464960] [-159466717184:135408246784] [-163814326272:20178905088] [-112569696256:196190683136] [-3683025152:45176725504] [-143917875200:46397665280] [-163170091008:54756417536] [-116875345920:158627102720] [0:95] [0:1] [0:1] [0:1] [0:1] [0:34] [0:1701538304] [-2768480768:1701515008] [0:1] [0:1] [0:1] [0:1] [0:1] none [0:1] [0:1] [0:1] [0:1] [0:1] none none [0:1] [0:1] none [0:1] [0:1] none [0:1] none none none none [0:1] none none none none none none [0:1] none [0:1] none none [0:1] [0:1] [0:1] none [0:1] none none none none none none [0:1] [0:1] [0:1] [0:1] [0:1] [0:1] [0:1] none [0:1] none [0:1] [0:1] none [0:1] none [0:1] none [0:1] none [0:1] [0:1] [0:1] [0:1] [0:1] [0:1] [0:1] [0:1] none [0:1] [0:1] [0:1] none [0:1] [0:1] [0:1] none none [0:1] none [0:1] [0:19]
tree_sizes=6322 7183 7172 7184 7175 7215 7203 7222 7229 7212 7207 7238 7220 7231 7240 7243 7252 7207 7266 7241 7259 7243 7228 7235 7270 7247 7249 7278 7298 7275 7245 7291 7267 7260 7243 7281 7301 7283 7282 7296 7270 7279 7317 7251 7257 7299 7287 7284 7298 7268 7317 7299 7301 7293 7321 7285 7344 7294 7327 7329 7324 7325 7275 7276 7326 7359 7309 7266 7273 7307 7308 7296 7292 7311 7323 7276 7284 7327 7286 7341 7293 7277 7279 7359 7293 7307 7333 7321 7356 7329 7307 7342 7303 7281 7313 7329 7290 7326 7325 7304 7349 7329 7332 7305 7309 7331 7313 7324 7322 7295 7348 7341 7305 7312 7357 7343 7270 7263 7336 7329 7310 7338 7295 7262 7283 7286 7312 7297 7359 7310 7292 7297 7359 7327 7313 7341 7307 7327 7345 7275 7297 7315 7329 7310 7302 7288 7294 7313 7338 7296 7310 7301 7333 7325 7307 7322 7279 7338 7305 7307 7317 7267 7323 7324 7314 7252 7323 7269 7288 7308 7341 7315 7327 7280 7282 7292 7327 7311 7284 7298 7292 7252 7297 7270 7315 7333 7303 7226 7358 7269 7284 7292 7298 7263 7283 7297 7259 7273 7283 7302 7293 7325 7277 7267 7270 7256 7303 7215 7243 7289 7314 7282 7323 7308 7309 7298 7218 7227 7261 7291 7306 7257 7289 7281 7282 7352 7300 7225 7293 7285 7308 7297 7231 7200 7310 7277 7326 7266 7323 7294 7270 7263 7344 7296 7263 7277 7275 7335 7333 7308 7276 7276 7289 7264 7253 7276 7269 7267 7267 7279 7263 7236 7322 7284 7310 7293 7310 7227 7255 7288 7271 7306 7332 7250 7337 7276 7353 7233 7261 7203 7300 7308 7296 7271 7347 7277 7199 7295 7235 7361 7290 7299 7287 7270 7308 7252 7301 7267 7272 7201 7276 7308 7263 7312 7318 7332 7275 7268 7310 7322 7235 7288 7246 7260 7284 7325 7342 7232 7310 7259 7243 7273 7304 7344 7303 7267 7316 7275 7268 7307 7272 7333 7215 7332 7268 7223 7299 7324 7319 7310 7273 7247 7313 7290 7302 7309 7309 7331 7320 7319 7293 7291 7307 7280 7305 7302 7333 7315 7213 7270 7179 7275 7293 7298 7287 7271 7264 7313 7285 7304 7299 7295 7292 7277 7329 7301 7275 7272 7292 7275 7245 7235 7256 7286 7335 7295 7302 7311 7338 7328 7227 7298 7311 7325 7315 7304 7272 7232 7316 7273 7300 7259 7289 7310 7282 7309 7217 7254 7283 7307 7322 7257 7249 7252 7339 7223 7290 7258 7327 7296 7276 7329 7278 7333 7323 7265 7267 7326 7237 7331 7283 7312 7292 7345 7259 7328 7245 7307 7338 7295 7290 7311 7330 7236 7281 7278 7334 7293 7316 7255 7305 7305 7291 7225 7273 7318 7246 7321 7257 7325 7327 7317 7296 7303 7341 7255 7306 7277 7213 7328 7255 7279 7303 7277 7270 7266 7322 7290 7308 7295 7319 7320 7299 7301 7284 7245 7264 7298 7292 7247 7263 7237 7222 7320 7321 7294 7326 7317 7296 7299

Tree=0
num_leaves=64
num_cat=0
split_feature=2477 739 2567 1452 618 1579 739 2478 822 2413 709 2407 2547 824 2405 2479 696 722 697 718 1671 2567 1607 123 1898 511 2547 262 2413 2429 2497 722 2272 1630 696 459 1682 327 2547 1965 2414 991 396 397 913 1704 1995 724 54 703 991 1680 2270 702 711 786 757 2407 712 1415 381 835 886
split_gain=251532 210382 18826.1 10151.3 7305.68 5502.26 4563.76 5723.04 4150.53 4114.96 3363.77 3116.19 2705.53 2917.2 2613.18 2160.82 2064.21 1947.52 1790.86 1785.17 1763.38 1673.16 1546.8 1440.12 1412.89 1375.55 1358.81 1308.1 1181.78 1157.08 1138.93 1054.78 890.634 876.37 1104.89 2012.87 851.015 843.87 827.099 792.142 982.07 781.199 767.467 705.056 693.416 688.507 659.116 639.921 637.407 632.609 609.496 595.165 591.277 546.903 530.763 519.904 503.748 502.568 485.753 472.038 470.721 460.577 462.511
threshold=1.5000000000000002 1.0000000180025095e-35 1.0000000180025095e-35 1.0000000180025095e-35 6.1692702770233163 1.0000000180025095e-35 1.0000000180025095e-35 1416221888.0000002 -7141887.9999999991 6612.0000000000009 7.5000000000000009 2111.0000000000005 1.0000000180025095e-35 274176.00000000006 84.500000000000014 -9565.9999999999982 1704324096.0000002 163840.00000000003 7.5000000000000009 1243650.0000000002 1.0000000180025095e-35 1.0000000180025095e-35 1.0000000180025095e-35 0.011598687618970873 1.0000000180025095e-35 0.016895287670195106 1.0000000180025095e-35 0.13721004873514178 166140.00000000003 686.00000000000011 1.0000000180025095e-35 163840.00000000003 1.0000000180025095e-35 1.0000000180025095e-35 1689729728.0000002 0.00011210409866180272 1.0000000180025095e-35 0.014934043865650894 1.0000000180025095e-35 1.0000000180025095e-35 33403656.000000004 74.500000000000014 3.8894037061254501e-05 0.0012606364907696845 -6.9983472824096671 1.0000000180025095e-35 1.0000000180025095e-35 31229.000000000004 0.00054377483320422481 4.5000000000000009 4881529.0000000009 1.0000000180025095e-35 1.0000000180025095e-35 4.0000000000000009 7809792.0000000009 -527.99999999999989 259.50000000000006 880.50000000000011 1472.0000000000002 1.0000000180025095e-35 0.00046755722723901277 -60980.499999999993 -6.8354024887084952
decision_type=2 2 2 2 2 2 2 2 2 2 2 2 2 2 2 2 2 2 2 2 2 2 2 2 2 2 2 2 2 2 2 2 2 2 2 2 2 2 2 2 2 2 2 2 2 2 2 2 2 2 2 2 2 2 2 2 2 2 2 2 2 2 2
left_child=1 2 3 5 26 9 7 21 38 10 11 14 13 22 20 16 52 -14 42 29 23 47 31 36 61 -22 30 39 44 57 56 -10 -26 34 35 -13 46 51 -4 40 -15 -39 -6 50 -17 48 53 -2 -25 -32 60 -33 -9 -1 -50 -23 -3 -5 -16 -48 -31 -7 -63
right_child=6 4 8 19 18 24 -8 15 12 -11 -12 33 17 27 58 28 -18 -19 -20 -21 25 55 -24 45 32 -27 -28 -29 -30 43 49 37 -34 -35 -36 -37 -38 41 -40 -41 -42 -43 -44 -45 -46 -47 59 -49 54 -51 -52 -53 -54 -55 -56 -57 -58 -59 -60 -61 -62 62 -64
leaf_value=0.17994977596139644 0.17115384615384616 -0.18266872233550505 -0.12637100619933236 0.11419313026571615 0.093658536585365867 0.17735849056603775 -0.19723600919489448 0.17757901013714969 -0.15465994962216625 -0.11555555555555555 -0.14945181765724178 -0.11478873239436621 -0.063978965819456612 0.14171469740634007 -0.089022695692450207 -0.010163339382940111 -0.1801089918256131 0.19841797793555188 0.16189741612032396 0.19364448857994043 -0.081764438381082313 -0.011662315056570931 -0.040677966101694919 0.021497865735351188 0.11835363292734145 0.13190851143607049 -0.010905349794238683 -0.091132075471698118 0.11017770597738288 0.10258922323303009 0.13568406205923836 0.18785658612626657 -0.1272264631043257 -0.084742041712403959 0.14855336737174812 0.092941176470588249 0.011636927851047325 0.026346889120611752 0.17393258426966293 -0.066548672566371689 -0.13049403747870528 0.16612233600885692 -0.088619854721549651 -0.13739006417874972 -0.17049272290958956 -0.1280808080808081 0.11979949874686718 -0.087642345002108824 0.13697868396663579 -0.17500000000000002 -0.12172088142707241 0.12533793500143803 -0.14980392156862746 -0.19490445859872613 -0.16896551724137931 0.14631751227495909 0.18410596026490067 -0.13084112149532709 0.1004149377593361 -0.14258373205741626 -0.079365079365079361 0.14688796680497926 -0.13754180602006691
leaf_weight=15230.75 103 25132.75 523.25 384.75 306.5 52 36214.75 418.25 98.25 719 432.25 709 284.25 1387 538.75 274.5 366 44119.75 647.25 250.75 548.75 286.25 353 643.25 594.25 665.75 485 529 153.75 356.25 176.25 12829 195.5 454.5 1027.25 1359 321.25 718.25 110.25 281.5 145.75 902.25 928.25 2102.5 16042.5 122.75 198.5 1184.5 2966.25 103 475.5 1737.5 62.75 38.25 57 762.75 36.75 106 179.75 103.5 235.25 59.25 1195
leaf_count=60923 412 100531 2093 1539 1226 208 144859 1673 393 2876 1729 2836 1137 5548 2155 1098 1464 176479 2589 1003 2195 1145 1412 2573 2377 2663 1940 2116 615 1425 705 51316 782 1818 4109 5436 1285 2873 441 1126 583 3609 3713 8410 64170 491 794 4738 11865 412 1902 6950 251 153 228 3051 147 424 719 414 941 237 4780
internal_value=3.08287e-05 0.0793226 0.149267 0.0870512 -0.162932 0.107843 -0.176177 -0.137365 0.180678 0.120263 0.126891 0.131644 0.183224 0.151603 0.145905 -0.157185 -0.00141509 0.196737 0.0272969 -0.0639826 0.152352 0.00954011 0.166315 0.159568 -0.0480687 0.0353764 -0.176738 0.0471153 -0.165195 -0.0816798 -0.179898 0.170804 0.0574771 0.0447934 0.0638353 0.0217013 0.172781 0.172788 -0.0739165 0.0874535 0.115762 0.104224 -0.043334 -0.103801 -0.167796 0.104122 0.176105 -0.0668219 0.111929 0.0208742 -0.0375468 0.180408 0.134647 0.178998 0.131156 0.103238 -0.182126 0.0611083 -0.0415566 0.029703 0.030211 -0.111876 -0.123999
internal_weight=180026 124157 96341.5 32322.5 27815.8 28411.5 55869 19654.2 64019 26315.5 25596.5 25164.2 63385.5 18981.5 21614.5 17317.8 847 44404 1882 3911 20896 2336.5 16638.2 19681.5 2096 1214.5 25933.8 2343.25 16470.8 3660.25 25448.8 16285.2 789.75 3549.75 3095.25 2068 15892.2 16187 633.5 1814.25 1532.75 1620.5 1234.75 3169.5 16317 3789.25 15571 1287.5 3666.5 279.25 1067 14566.5 481 15269 3023.25 1049 25169.5 490.75 718.5 302 591.5 1306.25 1254.25
internal_count=720105 496629 385366 129290 111263 113646 223476 78617 256076 105262 102386 100657 253542 75926 86458 69271 3388 177616 7528 15644 83584 9346 66553 78726 8384 4858 103735 9373 65883 14641 101795 65141 3159 14199 12381 8272 63569 64748 2534 7257 6131 6482 4939 12678 65268 15157 62284 5150 14666 1117 4268 58266 1924 61076 12093 4196 100678 1963 2874 1208 2366 5225 5017
is_linear=0
shrinkage=0.1


Tree=1
num_leaves=64
num_cat=0
split_feature=739 2413 2567 1940 2479 618 2415 486 991 2567 722 2472 520 696 262 718 1933 751 2071 697 1816 2497 2414 724 1929 751 2478 393 696 1906 872 2413 2547 994 2438 872 112 2071 0 1614 521 994 2411 521 1772 874 773 2547 596 992 1746 1305 993 913 2417 2477 1803 724 992 533 110 1818 2405
split_gain=269968 113040 13707.3 6769.42 6255.57 4578.4 4570.16 4567.9 4237.69 3213.3 2682.63 2417.97 2086.75 2030.2 1854.1 1613 1587.25 1554.45 1527.98 1437.04 1267.86 1228.93 1143.9 1113.95 1032.08 1049.96 1019.76 1017.71 965.991 1038.96 948.057 939.21 876.034 873.311 1021.36 802.375 790.312 772.318 728.56 714.804 684.735 671.876 773.341 657.862 634.622 628.59 590.121 579.112 990.073 952.766 561.768 561.244 553.328 550.086 543.256 528.655 505.469 481.148 695.038 485.9 467.152 466.268 455.41
threshold=1.0000000180025095e-35 5980.0000000000009 1.0000000180025095e-35 1.0000000180025095e-35 1.0000000180025095e-35 6.1812477111816415 68206.000000000015 0.027985610999166969 1354064.5000000002 1.0000000180025095e-35 163840.00000000003 1.0000000180025095e-35 11.445164203643801 1622712576.0000002 0.15483109652996066 2012000.0000000002 1.0000000180025095e-35 1.0000000180025095e-35 1.0000000180025095e-35 6.5000000000000009 1.0000000180025095e-35 1.0000000180025095e-35 33403656.000000004 22006.500000000004 1.0000000180025095e-35 1.0000000180025095e-35 1416221888.0000002 0.00030759474611841148 1132404160.0000002 1.0000000180025095e-35 -1541878.9999999998 166140.00000000003 1.0000000180025095e-35 653.50000000000011 1.0000000180025095e-35 -10187351.999999998 0.0039247446693480023 1.0000000180025095e-35 39302604.000000007 1.0000000180025095e-35 516414.00000000006 27.500000000000004 98.000000000000014 497487.00000000006 1.0000000180025095e-35 40964.000000000007 1.5000000000000002 1.0000000180025095e-35 0.0017724317149259152 0.068368479609489455 1.0000000180025095e-35 1.5000000000000002 7.3762998580932626 -7.4188446998596183 14.500000000000002 1.5000000000000002 1.0000000180025095e-35 12311.500000000002 0.038352878764271743 0.0018182040657848122 0.0012379939435049894 1.0000000180025095e-35 94.500000000000014
decision_type=2 2 2 2 2 2 2 2 2 2 2 2 2 2 2 2 2 2 2 2 2 2 2 2 2 2 2 2 2 2 2 2 2 2 2 2 2 2 2 2 2 2 2 2 2 2 2 2 2 2 2 2 2 2 2 2 2 2 2 2 2 2 2
left_child=1 2 3 7 9 21 10 8 12 23 -4 19 28 39 33 27 24 18 30 45 -16 32 56 -3 25 35 -6 43 29 -1 -9 41 57 34 47 -14 -32 55 -15 61 -8 42 -28 -5 -41 50 -35 48 49 -12 -7 -21 -25 -43 -23 -37 -11 58 59 -2 -60 -10 -61
right_child=5 4 6 15 26 11 40 17 13 22 14 -13 16 38 20 -17 -18 -19 -20 51 -22 54 -24 52 -26 -27 31 -29 -30 -31 36 -33 -34 46 -36 37 -38 -39 -40 44 -42 53 -44 -45 -46 -47 -48 -49 -50 -51 -52 -53 -54 -55 -56 -57 -58 -59 60 62 -62 -63 -64
leaf_value=0.16211921468306081 -0.16985870337164322 0.14463294067767055 -0.087455747064528785 0.088065167473082642 -0.00535362615849648 0.066289304724790526 0.048140563082222483 -0.078305809403342849 0.078705227519248924 0.14354747120918201 0.053489351928556278 -0.15995570530445025 -0.13264317447268825 0.16688616744822427 0.10934471982473747 0.17783326755624354 -0.10477042074030914 -0.16149607966018531 -0.12285564613796203 0.16257986049220341 -0.11748929485492735 0.17213140451116021 -0.1051178206743848 0.022884028509433062 -0.035531891800440127 -0.084501535304990577 -0.11886939789397266 -0.1276340391450789 0.17334347481364504 -0.011127315960514519 0.10114968285478242 0.1007022661532834 -0.059773429971874098 -0.14564751384429592 -0.19996442399063535 0.13684495947339406 0.0085365549120650416 -0.09792485918605516 -0.11761346985672752 -0.099536942611143875 -0.12600854584093629 0.026231737897745602 0.071645459398232927 -0.13524575982504916 0.09332862903298246 -0.14239091138287016 0.14730753622668413 0.18044726159338739 0.16953431651865419 0.1708605092279441 -0.16743904532974341 -0.14082919351796294 -0.13273148649881142 -0.15925922172325918 -0.094852289515104382 -0.076064537224746334 0.00080448629642244441 -0.17818205111145205 0.10900544168388887 -0.053044156124326919 -0.12250766055551279 -0.081115529177547482 -0.14991655009813767
leaf_weight=773.93153196573257 9148.7269134223461 183.99945494532585 405.29135675728321 432.88598389923573 515.10705034434795 487.74036927521229 382.76997175812721 495.32373444736004 685.17963668704033 1369.3298281431198 1599.5892189890146 1075.6295809149742 119.51620306074619 875.53520888090134 996.72213695943356 245.31733605265617 372.73724529147148 447.18192264437675 560.1231290102005 680.17604833841324 326.31945081055164 140.92101515829563 266.38435266911983 263.23371934890747 479.49541145563126 251.28103636205196 1384.948248565197 1853.9462569057941 10375.774294018745 625.38547292351723 2589.4766745716333 149.54555422067642 683.470220297575 142.38523976504803 72.19795598089695 6458.7771343439817 1430.3855148106813 147.39899216592312 99.604546293616295 1330.8350680172443 547.9968321621418 161.37694825232029 251.07971403002739 188.57128217816353 194.87521027028561 410.68602785468102 131.1189472079277 43107.529051795602 13493.128133773804 1219.2911615222692 129.24412858486176 66.200419187545776 1717.1278288066387 14634.076559573412 163.66991993784904 118.17144027352333 302.92774188518524 48010.137273088098 159.91550296545029 735.90623012185097 189.17454329133034 247.80396983027458 1432.8748413920403
leaf_count=3117 36901 741 1625 1737 2066 1955 1539 1989 2756 5520 6433 4344 481 3522 4014 990 1497 1796 2249 2737 1309 566 1071 1058 1925 1010 5578 7447 41806 2513 10414 600 2742 571 289 25992 5745 592 400 5344 2200 646 1012 757 782 1646 529 174125 54388 4916 518 266 6901 58957 659 474 1219 193839 645 2968 763 996 5779
internal_value=-0.000145786 0.0912308 0.138353 0.0844552 -0.11732 -0.165625 0.165462 0.0987565 0.118246 -0.00643296 0.16879 -0.0417309 0.136095 0.0157176 0.170492 -0.066274 0.0964798 0.0170297 0.0327882 0.0300002 0.0533511 -0.171444 0.0870496 -0.0901678 0.106396 0.115991 -0.143931 -0.0905276 0.162822 0.0847389 0.0521192 -0.148235 -0.172455 0.173084 0.173904 0.123363 0.0682055 0.127933 0.137736 -0.0327122 -0.0544164 -0.150507 -0.0896054 0.0201966 -0.0748577 -0.0466914 -0.00517874 0.174361 0.158268 0.1043 0.0171368 0.135516 -0.112046 -0.157234 0.0288286 0.133009 0.117706 -0.173745 -0.155471 -0.159757 -0.0164448 0.0362148 -0.117086
internal_weight=178537 115023 93823.9 31399.5 21199.1 63514.5 62424.3 28678.8 23156.3 4103 61493.6 2849.68 19722.5 3433.83 61088.3 2720.72 7947.38 5522.49 5075.31 1774.05 1323.04 60664.8 1938.64 2164.36 7574.64 7095.14 17096.1 2475.4 11775.1 1399.32 4515.19 16581 60360.2 59765.2 59491.7 6843.86 4019.86 6724.35 975.14 2458.69 930.767 16431.5 1636.03 621.457 1525.71 1027.67 273.504 59419.5 16312 2818.88 616.984 746.376 1980.36 14795.5 304.591 6576.95 1672.26 59676.7 11666.6 11317.5 349.09 932.984 2168.78
internal_count=719966 463638 378269 126331 85369 256328 251938 115400 93207 16510 248199 11466 79407 13800 246574 10931 31971 22193 20397 7122 5323 244862 7810 8700 30474 28549 68859 9941 47436 5630 18148 66793 243637 241251 240151 27539 16159 27058 3922 9878 3739 66193 6590 2494 6126 4119 1100 239862 65737 11349 2473 3003 7959 59603 1225 26466 6739 240895 47056 45648 1408 3752 8747
is_linear=0
shrinkage=0.1


Tree=2
num_leaves=64
num_cat=0
split_feature=739 2478 2567 1910 2415 618 2413 696 2109 722 2409 2417 520 262 994 1818 2417 2479 696 1816 2425 775 2119 664 2547 1607 2414 2567 2071 327 2413 1257 992 2479 711 381 102 138 835 707 29 991 1780 1929 1 2414 533 2418 78 691 520 711 969 242 913 2375 2409 916 2567 666 769 2412 689
split_gain=224046 92941.4 14295.5 7769.09 3967.69 3847.97 3589.57 3275.61 2655.21 2550.2 2220.83 2137.57 2133.46 1940.77 1707.74 1518.64 1501.48 1473.46 1446.2 1304.04 1069.57 1030.28 1020.47 1012.36 1003.84 1342.35 1088.36 975.314 925.766 822.527 804.657 774.508 742.246 740.793 727.722 691.766 679.694 716.624 623.935 602.676 578.44 573.616 552.316 552.599 523.729 519.987 528.506 517.641 517.172 499.864 493.31 488.185 471.114 469.085 467.442 462.26 461.434 458.408 452.733 528.056 451.458 528.158 448.044
threshold=1.0000000180025095e-35 1378446400.0000002 1.0000000180025095e-35 1.0000000180025095e-35 64920.000000000007 6.1692702770233163 3244.0000000000005 1279644992.0000002 1.0000000180025095e-35 163840.00000000003 570.00000000000011 14.500000000000002 11.445164203643801 0.13721004873514178 167.50000000000003 1.0000000180025095e-35 14.500000000000002 -9565.9999999999982 1704324096.0000002 1.0000000180025095e-35 67.000000000000014 7.7046344280242929 1.0000000180025095e-35 9.5000000000000018 1.0000000180025095e-35 1.0000000180025095e-35 33403656.000000004 4.5000000000000009 1.0000000180025095e-35 0.019021386280655864 1369324.0000000002 1.0000000180025095e-35 0.0080194682814180868 1.5000000000000002 5255424.0000000009 0.00038490918814204639 0.0038736708229407672 0.014201686251908542 -45541.999999999993 5.5000000000000009 0.0012228583218529823 8378930.0000000009 1.0000000180025095e-35 1.0000000180025095e-35 6.8859210014343271 4022528.0000000005 0.002306311391294003 1.0000000180025095e-35 0.0039482365828007468 281.50000000000006 12.153654098510744 7232.0000000000009 -1.4999999999999998 0.0021816430380567913 -7.9152438640594474 -1.0000000180025095e-35 570.00000000000011 7.9871633052825937 1.5000000000000002 1.0000000180025095e-35 196.00000000000003 61796.000000000007 1460.5000000000002
decision_type=2 2 2 2 2 2 2 2 2 2 2 2 2 2 2 2 2 2 2 2 2 2 2 2 2 2 2 2 2 2 2 2 2 2 2 2 2 2 2 2 2 2 2 2 2 2 2 2 2 2 2 2 2 2 2 2 2 2 2 2 2 2 2
left_child=1 2 3 6 9 27 7 8 14 -4 -5 21 -9 24 20 22 28 18 -3 58 36 -7 48 -19 25 26 29 50 42 57 44 -24 40 55 -6 41 37 49 -10 -31 -18 -17 43 -14 -25 46 -8 -29 -12 -1 54 -40 -38 -41 -2 -23 -56 -11 59 -15 61 -46 -62
right_child=5 17 4 10 34 11 45 12 38 13 15 -13 16 19 -16 35 32 23 -20 -21 -22 33 31 30 -26 -27 -28 47 -30 39 -32 -33 -34 -35 -36 -37 52 -39 51 53 -42 -43 -44 -45 60 -47 -48 -49 -50 -51 -52 -53 -54 -55 56 -57 -58 -59 -60 -61 62 -63 -64
leaf_value=0.14674586976538137 0.12970235702567182 0.11571969008853443 -0.08171974099011578 0.12125509361198339 0.03909780044132271 -0.09891968401504575 -0.077636686731111515 0.15817408070747507 0.11366367480973738 0.15272148844936528 -0.082195192553806057 -0.12675469908775719 0.14632683592408577 0.098450364413176339 -0.10667591640785548 0.057928525327481918 -0.092418479570538101 0.040875897497751001 -0.14923064877310338 -0.11160082234770391 -0.12686223563574969 -0.11727122294806891 0.075071237217805162 -0.15417252797096376 0.16666151238216001 -0.040672278151898493 -0.087490136993683298 0.11386875589845287 -0.089431074188955129 0.10861856337806908 0.17628972882740956 -0.14403227175861477 0.14404283983231159 -0.11183950320003973 -0.12624562250086141 -0.14101071095295564 -0.048689667518002536 -0.050614660512251358 0.17166800808035168 -0.12857640042071511 0.037518577563874583 -0.12333416876903913 0.024050802648265465 -0.055271511286612542 -0.10198135082407533 -0.11883749653441561 0.074327464740824661 -0.10212691959734173 0.062663765525778778 -0.1183131768220772 -0.16284895950372164 -0.053930622114631156 0.1023499165162743 0.12382650769954957 -0.083569457071561049 0.14488769712389951 -0.14961969901096478 -0.17474207854819851 0.16508725998343632 -0.098966899340499959 -0.12976374656215636 0.099799286540700596 0.066757878084310759
leaf_weight=3897.1845773756504 65.735929757356644 475.34244550764561 455.82500569522381 886.97494910657406 549.39170226454735 378.21481940150261 464.04163619875908 10009.734429702163 276.06744769215584 15103.464602515101 1473.5155427008867 1470.8656297177076 3412.0463575869799 476.4212289750576 400.97554212808609 386.20105516910553 702.84747713804245 321.20751802623272 362.01746885478497 391.05708742141724 187.18738870322704 72.089099794626236 1477.1485270410776 9926.491040378809 42689.675002887845 410.23770551383495 202.91596402227879 188.69036428630352 211.85509024560452 996.53668022155762 80.106109857559204 180.16960270702839 300.83189828693867 152.63964654505253 514.73905998468399 1781.0258466303349 379.00496281683445 202.72824132442474 99.061265259981155 225.2940763682127 666.72076261043549 316.99527533352375 480.79170717298985 141.1197098493576 375.4161002933979 669.07547347247601 449.62168629467487 266.3219845443964 295.15126241743565 71.768786162137985 51691.535168707371 2340.0318604558706 451.56090272963047 108.21923661231995 1318.0263184756041 879.46972201764584 5448.6253572702408 42.086419999599457 550.94340421259403 188.26940487325191 5600.8601338118315 196.98929117619991 117.89103364944458
leaf_count=15930 265 1940 1836 3604 2216 1539 1868 41147 1117 62137 5968 6018 13913 1937 1619 1558 2845 1304 1479 1577 757 292 5991 40759 176900 1651 820 770 854 4065 324 730 1220 630 2086 7223 1536 819 405 907 2702 1286 1939 567 1538 2706 1815 1087 1194 292 213759 9452 1839 438 5422 3581 22489 172 2253 760 22962 798 484
internal_value=6.61285e-05 0.083865 0.12264 0.068907 0.150495 -0.152793 0.093952 0.103482 0.0525608 0.15379 -0.0262086 -0.041385 0.130033 0.15554 0.0919596 -0.048356 0.0824031 -0.128298 0.00113181 0.0470462 0.107325 0.0433481 -0.00518472 -0.134819 0.158455 0.137946 0.142341 -0.158371 0.113995 0.145177 -0.138284 0.0511797 0.00208217 0.0921237 -0.0409252 -0.107867 0.116112 0.132558 -0.0285637 0.0697037 -0.0291825 -0.0238424 0.124698 0.138307 -0.139849 -0.0519283 -0.0028543 -0.0125018 -0.0579997 0.141924 -0.159505 -0.0447016 0.0334517 -0.0465507 -0.134186 0.124925 -0.136769 0.1518 0.0981312 0.0424685 -0.117227 -0.032487 -0.125702
internal_weight=174905 112973 95516.5 32611.4 62905.1 61932.2 25814.3 24231.5 8305.57 61840.9 6797.18 2953.28 15925.9 61385.1 5590.41 5910.21 5916.21 17456.3 837.36 1606.69 5189.43 1482.41 3425.98 16619 59778.4 17088.8 16678.5 58978.9 4245.81 16475.6 16297.8 1657.32 1670.4 1104.2 1064.13 2484.22 5002.25 4171.68 2715.16 1330.05 1369.57 703.196 4033.96 3553.17 16217.6 1582.74 913.663 455.012 1768.67 3968.95 58523.9 2439.09 830.566 333.513 6832.39 951.559 6766.65 15145.6 1215.63 664.691 6291.16 572.405 5718.75
internal_count=720091 464239 392651 132896 259755 255852 105342 98953 33766 255453 27554 12060 65187 253617 22792 23950 24040 71588 3419 6527 21173 6042 13883 68169 247090 70190 68539 243792 17273 67719 66865 6721 6767 4503 4302 10067 20416 17041 10974 5410 5547 2844 16419 14480 66541 6389 3683 1857 7162 16222 241935 9857 3375 1345 28176 3873 27911 62309 4950 2697 25782 2336 23446
is_linear=0
shrinkage=0.1


Tree=3
num_leaves=64
num_cat=0
split_feature=739 2413 2547 2071 2040 2478 1748 2547 709 2567 520 992 913 1995 54 722 786 703 2497 2478 380 2413 2479 736 795 696 2479 2414 711 775 1671 519 520 2457 2150 609 956 2405 696 1676 2171 2145 79 1492 521 724 520 2409 2405 1 695 2368 511 993 696 2450 703 775 1844 1575 2477 933 689
split_gain=187901 78705.6 10281.9 7980.91 5050.76 4128.32 3963.04 3501.26 3015.24 2506.15 2399.57 2315.26 1561.79 1458.48 1314.13 1292.7 1099.28 986.61 968.134 896.259 869.754 862.444 847.644 829.603 816.676 823.499 791.855 924.396 786.869 752.915 710.129 697.354 696.706 666.958 651.37 614.319 600.568 589.149 616.621 582.945 541.706 519.543 518.018 515.154 514.185 488.836 591.86 553.878 639.518 479.32 638.916 466.867 498.14 457.257 450.604 442.203 440.348 432.98 432.389 422.874 416.828 414.016 413.682
threshold=1.0000000180025095e-35 5980.0000000000009 1.0000000180025095e-35 1.0000000180025095e-35 1.0000000180025095e-35 1686431296.0000002 1.0000000180025095e-35 1.0000000180025095e-35 7.5000000000000009 1.0000000180025095e-35 12.153654098510744 0.047469461336731918 -7.6368145942687979 1.0000000180025095e-35 0.0010555935441516342 163840.00000000003 -107263.99999999999 1.5000000000000002 1.0000000180025095e-35 1.0000000180025095e-35 0.00019160629017278555 7428.0000000000009 -4960977.4999999991 1.0000000180025095e-35 12527.500000000002 1650570816.0000002 1.0000000180025095e-35 14774272.000000002 7093248.0000000009 7.0408089160919198 1.0000000180025095e-35 16531.500000000004 6.7144436836242685 3.5000000000000004 1.0000000180025095e-35 0.028088727965950969 1.0000000180025095e-35 80.500000000000014 1253372288.0000002 1.0000000180025095e-35 1.0000000180025095e-35 2.5000000000000004 0.0020081893308088188 1.0000000180025095e-35 793268.50000000012 12311.500000000002 14.410811424255373 514.00000000000011 72.500000000000014 7.0589096546173105 1.0000000180025095e-35 -2.4999999999999996 0.00023297837469726804 4.1938140392303476 810820032.00000012 169.50000000000003 5.5000000000000009 7.618046998977662 1.0000000180025095e-35 1.5000000000000002 1.5000000000000002 3.5000000000000004 1460.5000000000002
decision_type=2 2 2 2 2 2 2 2 2 2 2 2 2 2 2 2 2 2 2 2 2 2 2 2 2 2 2 2 2 2 2 2 2 2 2 2 2 2 2 2 2 2 2 2 2 2 2 2 2 2 2 2 2 2 2 2 2 2 2 2 2 2 2
left_child=1 2 3 4 6 9 8 12 10 22 13 14 53 23 30 -4 -10 40 32 36 44 -7 -3 33 25 31 27 -11 42 -24 37 35 -14 39 60 58 51 38 54 41 -6 -1 -16 -44 -19 46 47 48 -34 -23 -51 -9 -53 -2 -12 -49 -20 -5 -8 -26 -13 -40 -52
right_child=7 5 15 57 17 21 24 19 16 26 11 34 18 -15 28 -17 -18 20 56 -21 -22 49 29 -25 59 -27 -28 -29 -30 -31 -32 -33 45 -35 -36 -37 -38 -39 61 -41 -42 -43 43 -45 -46 -47 -48 55 -50 50 62 52 -54 -55 -56 -57 -58 -59 -60 -61 -62 -63 -64
leaf_value=0.14579320390748085 0.13115190844788149 0.13124171561346401 -0.050682826964381845 -0.1196380017873942 0.056409198639504658 0.043674179903593374 0.090043881661278177 -0.15027822747985081 0.17512770823024995 0.11841429224332811 0.074270011109486903 0.14470247661688887 -0.042444485914320464 -0.034609059900384674 0.01289311443663866 0.15627178518863466 -0.15701163487711431 0.096484642060702591 0.10848902057156795 -0.13555452584898159 -0.1422017558510584 -0.14789436091637545 0.051337253055637404 -0.097452260059159496 -0.11881654117671846 0.12986412826825597 -0.039095628486141315 -0.054893005003524155 -0.091030855761905616 -0.10737386490856551 -0.14008767052458193 -0.045788060029081354 0.098319715976810607 -0.090804695743233965 -0.11899312803650178 -0.14109469844807562 -0.059613923222446741 -0.10052369846283003 0.070299406873994816 -0.079544435265699667 -0.1490818366410894 -0.14115369017371956 0.12570163241961138 -0.075716823710987383 -0.12654568924213425 -0.15409653676928461 -0.14698322859076404 -0.13008998851232373 -0.080230307837275749 0.069371728934618057 -0.12065243777094443 -0.045255102654082509 0.16752784677930643 -0.12190227331410469 -0.0591646532035707 0.17134631918799595 -0.14538050891008378 0.018112603018315184 -0.059077338958065821 0.05511939513668819 -0.030687549967305074 -0.15537545514116258 0.076846843475623067
leaf_weight=22609.882994875312 260.1517489105463 174.18472082912922 303.62518499791622 1863.6164304614067 1029.602892100811 278.25141866505146 1408.6943955719471 65.547315239906311 120.97036363184452 1379.2263580560684 352.90217061340809 5424.0100304186344 615.33084566891193 481.911516726017 540.19854182004929 40998.341974630952 546.00754594802856 310.04973168671131 213.93411941826344 312.77709259092808 1039.2042118012905 8793.3365677595139 326.28211200237274 144.21609875559807 594.42212276160717 729.60698466002941 817.8261620849371 395.44134342670441 217.13138042390347 3493.2185333967209 269.50726975500584 1246.3130601495504 255.15698459744453 121.14440929889679 97.86332206428051 150.42113760113716 317.49880020320415 334.15863259136677 2707.2808705866337 115.62925682961941 145.55365739762783 62.5317143201828 3369.4953501671553 131.32356534898281 153.84225341677666 45965.694948494434 7560.1792184561491 2531.2217863202095 925.08294110000134 193.26067580282688 4460.8164179027081 135.48675574362278 575.99807305634022 97.391179412603378 887.66062791645527 48.796965420246124 99.19120366871357 259.72203044593334 224.84857587516308 181.99738417565823 138.64696665108204 82.892449080944061 108.00017349421978
leaf_count=95511 1092 723 1230 7630 4218 1146 5791 270 499 5782 1461 22809 2575 1963 2227 176413 2234 1264 881 1310 4283 37172 1340 585 2425 3057 3400 1618 890 14523 1095 5065 1057 499 398 607 1290 1364 11138 474 592 257 14037 534 637 197071 32223 10710 3884 797 18714 549 2362 414 3635 202 411 1069 913 750 565 334 440
internal_value=-5.37972e-05 0.077691 0.118152 0.0867207 0.0954761 -0.0994397 0.103721 -0.142394 0.114072 -0.0342681 0.117763 0.0858329 -0.146139 0.137503 0.0540004 0.154749 -0.0965992 -0.0377773 -0.147419 0.0134665 -0.0914183 -0.130463 -0.0839602 0.141102 0.0152812 0.0345649 0.0422843 0.0797878 0.0940983 -0.093806 0.0171456 0.0115842 -0.148367 0.142608 0.135823 0.0516689 0.0561362 0.0268837 0.0374684 0.143853 0.0308522 0.144996 0.104066 0.118127 0.0224071 -0.149504 -0.130846 -0.098371 -0.0415789 -0.134041 -0.108433 0.103448 0.127001 0.0620747 -0.0211773 -0.124325 0.0278619 -0.102788 0.0694945 -0.0780265 0.140326 0.0635416 -0.115968
internal_weight=169795 109815 89395.2 48093.3 45969.9 20419.8 43291.7 59979.4 38755.4 6586.18 38088.4 14553.1 58572.1 23535.3 8892.55 41302 666.978 2678.25 58214.6 1407.31 1503.1 13833.7 3993.69 23053.4 4536.3 3759.88 2592.49 1774.67 4258.15 3819.5 4634.4 3030.28 57901.5 22909.2 5660.52 1783.96 1094.53 4364.89 4030.74 22788 1175.16 22672.4 4041.02 3500.82 463.892 57286.1 11320.4 3760.26 1180.24 13555.4 4762.08 777.032 711.485 357.543 1240.56 2580.02 313.125 2123.34 1633.54 776.42 5562.66 2790.17 4568.82
internal_count=720409 464108 378453 200810 192111 85655 181117 256301 162509 27386 159776 60487 250520 99289 36715 177643 2733 10994 249014 5781 6184 58269 16586 97326 18608 15433 10800 7400 17688 15863 19027 12376 247722 96741 23772 7311 4471 17932 16568 96242 4810 95768 16798 14571 1901 245147 48076 15853 4941 57123 19951 3181 2911 1506 5096 10912 1292 8699 6704 3175 23374 11472 19154
is_linear=0
shrinkage=0.1


Tree=4
num_leaves=64
num_cat=0
split_feature=2477 739 2547 1452 1748 508 709 739 1995 2479 520 991 2417 2414 2478 79 773 991 666 2479 520 994 91 723 1943 1861 2439 1766 2413 505 913 863 2414 886 521 1415 667 786 895 993 397 1319 716 874 2405 712 1854 795 913 585 2417 1970 108 666 913 519 519 886 1342 520 702 713 509
split_gain=123164 99437.9 10591.4 8447.36 5599.1 3389.83 2931.74 2692.11 2218.09 2048.19 1916.45 1822.25 1699.02 1542.08 1485.71 1299.24 1293.64 1133.27 1126.37 1045 988.877 949.19 946.582 922.632 827.475 778.006 809.56 709.866 702.866 689.813 673.349 651.215 630.147 581.584 580.963 552.198 529.546 527.605 526.021 522.232 497.569 481.187 476.693 465.478 1592.93 929.635 457.633 457.208 452.985 440.342 433.036 430.595 430.395 427.782 455.816 385.343 549.36 378.508 374.566 362.271 357.191 348.289 336.059
threshold=1.5000000000000002 1.0000000180025095e-35 1.0000000180025095e-35 1.0000000180025095e-35 1.0000000180025095e-35 0.017253560945391658 7.5000000000000009 1.0000000180025095e-35 1.0000000180025095e-35 1.0000000180025095e-35 13.672532558441164 19.500000000000004 64.500000000000014 10659552.000000002 1416221888.0000002 0.0030415438814088707 2.5000000000000004 11683.500000000002 1.0000000180025095e-35 542839.50000000012 12.153654098510744 162.50000000000003 0.0021942551247775559 768.00000000000011 1.0000000180025095e-35 1.0000000180025095e-35 8.5000000000000018 1.0000000180025095e-35 66296.000000000015 0.00019933222210966053 -0.037443658336997025 -6832.4999999999991 13848832.000000002 -7.1502170562744132 736223.00000000012 1.0000000180025095e-35 2.5000000000000004 -63423.999999999993 3.5402637720108037 6.9251818656921396 0.0011712616542354228 1.0000000180025095e-35 9931584.0000000019 531.50000000000011 68.500000000000014 1004.0000000000001 1.0000000180025095e-35 273664.00000000006 -6.9983472824096671 0.025199023075401786 14.500000000000002 1.0000000180025095e-35 0.004406118532642723 21.500000000000004 6.5573220252990732 46036.000000000007 1046.5000000000002 -6.8354024887084952 1.0000000180025095e-35 14.329525470733644 4.0000000000000009 36081664.000000007 0.0048312197905033836
decision_type=2 2 2 2 2 2 2 2 2 2 2 2 2 2 2 2 2 2 2 2 2 2 2 2 2 2 2 2 2 2 2 2 2 2 2 2 2 2 2 2 2 2 2 2 2 2 2 2 2 2 2 2 2 2 2 2 2 2 2 2 2 2 2
left_child=1 2 3 4 6 17 8 9 10 12 13 15 21 25 39 30 31 33 24 49 32 59 50 -4 29 27 38 58 48 -5 36 41 34 -3 53 -10 62 -8 -27 -11 55 -7 46 44 45 -35 61 -30 -16 -13 -19 -41 -33 54 -6 56 -20 -42 60 -2 -1 -17 -12
right_child=7 5 23 18 20 16 37 -9 35 14 11 19 -14 -15 28 42 -18 22 40 -21 -22 -23 -24 -25 -26 26 -28 -29 47 -31 -32 52 -34 43 -36 -37 -38 -39 -40 51 57 -43 -44 -45 -46 -47 -48 -49 -50 -51 -52 -53 -54 -55 -56 -57 -58 -59 -60 -61 -62 -63 -64
leaf_value=0.13762303105394233 0.1276786482471621 0.070705095977365157 -0.066784255851704555 -0.06581525824100555 0.072839355428143862 0.14169194113388886 0.17085904034642174 -0.1472935875843045 0.018651011295982827 0.14201364082806497 -0.079835945179788925 0.1337642017442969 -0.14410970079344176 -0.075652625246014918 0.0087723655956329621 0.099846905986464965 0.16352799504893589 0.1345583387763841 -0.12598958540909075 -0.14347490121116299 -0.073214267985507314 -0.085462893950557256 -0.098183879745350491 0.14778711275841949 -0.13886836105820466 0.082211983132635724 0.12791240872114717 -0.081376270564936862 0.16746423977845187 0.10393585070643972 0.097964696502189988 0.013771569781063159 -0.12408385109722596 -0.15349110057573714 -0.11115318578241376 -0.13476536695583341 0.087752407995131371 -0.13898122901897192 -0.071880142277597689 0.042695623446242503 0.044989618688389389 -0.12110214399093014 -0.15551266574651235 -0.14287904569747939 -0.12697633596935698 0.14029374429800898 -0.14789768260937183 -0.15859103950172798 -0.12423568186047872 0.048356131282345526 -0.069212091412521534 -0.098482474750758053 -0.11828662854715447 -0.10714386875443692 -0.039296689730012005 -0.096281169554304019 0.07935138780209533 -0.11162020142720473 -0.069344170450471018 -0.017712301167108025 -0.16078532256453953 -0.10306817788376232 0.069548149794894917
leaf_weight=23025.071169346571 883.72071942687035 138.32092167437077 200.89334908127785 321.54243803024292 2399.8146654218435 290.64640291035175 59.95124863088131 32223.143910825253 621.70887644588947 212.95502203702927 1533.9805724024773 4838.0292577892542 623.9646787494421 369.97972521185875 260.50326588749886 2625.0468596220016 430.89466954767704 334.761076182127 174.65775026381016 150.27641521394253 1573.1284039318562 370.36938843131065 1020.4797110557556 39298.700134083629 249.36576956510544 408.23621454834938 1067.3119131922722 150.14910835027695 138.03000928461552 929.47873462736607 395.89043945074081 376.90167985856533 271.01097404956818 149.87916447222233 252.06122288107872 375.60878635942936 260.21091905236244 571.08184349536896 482.0014074742794 405.25813619792461 164.92153790593147 90.702715650200844 83.049246519804001 16415.945079609752 4728.6079327464104 375.89648389816284 80.128222569823265 61.355178505182266 14566.218631610274 691.41153380274773 150.5351774096489 460.64847245812416 712.88022139668465 169.68938298523426 426.30277748405933 410.23561777174473 503.68973572552204 2295.5811616778374 87.656612142920494 212.27362434566021 39.394239902496338 86.629758477210999 166.209373280406
leaf_count=100774 3759 608 823 1326 10020 1215 251 144721 2562 892 6288 20946 2637 1538 1063 11077 1830 1443 726 649 6504 1530 4495 177144 1032 1736 4620 618 574 3934 1662 1551 1131 651 1033 1526 1079 2390 1981 1666 694 388 340 72920 20891 1582 327 257 63510 2916 652 1881 3072 709 1769 1721 2066 9593 360 883 160 360 698
internal_value=4.39071e-05 0.0580214 0.108285 0.0768787 0.0911647 -0.117007 0.104305 -0.129927 0.107899 -0.0991649 0.111914 0.0768021 -0.00603415 0.126859 -0.111252 0.0342091 0.0113541 -0.127479 -0.0455093 0.116018 -0.00733074 0.0527777 -0.0435376 0.146694 0.0271176 0.129828 0.0692228 0.134916 -0.11939 0.060288 -0.0208351 -0.0332984 0.0221352 -0.133272 0.0343705 -0.0392056 -0.0448637 -0.109321 -0.00120517 0.00209813 -0.0762116 0.0790339 0.0793161 -0.134577 -0.108618 0.0564142 0.0863548 0.0668392 -0.121898 0.123095 0.071338 -0.0324358 -0.0726435 0.0466476 0.0559164 -0.0198952 0.0263735 -0.101109 0.136322 0.0995287 0.137106 0.0933288 -0.0652
internal_weight=163445 113027 87810.1 48310.5 43261 25216.5 38169 50418.4 37538 18195.3 36540.7 10910.9 2090.33 25629.8 16105 5231.15 1902.03 23314.4 5049.47 5679.72 5092.01 1466.36 1505.78 39499.6 1500.39 25259.8 1957.55 23302.3 15026.1 1251.02 2356.29 1471.13 3518.88 21808.6 3247.87 997.318 1960.4 631.033 890.238 1078.86 3549.09 381.349 2874.85 21670.3 5254.38 525.776 2791.8 199.385 14826.7 5529.44 485.296 865.907 1089.78 2995.81 2826.12 1088.58 678.347 2460.5 23152.1 1095.99 23064.5 2711.68 1700.19
internal_count=719754 496381 385083 207116 186024 111298 164858 223373 162217 78652 158129 46342 8809 111787 69843 21831 8056 103242 21092 24511 21166 6172 6590 177967 6292 110249 8337 101912 65404 5260 9727 6226 14662 96652 13531 4088 8065 2641 3717 4439 14800 1603 12104 96044 23124 2233 11764 831 64573 23862 2095 3547 4623 12498 11789 4513 2792 10287 101294 4642 100934 11437 6986
